{"graph_0": {"_type": "graph-file", "path": "media/graph/graph_0_summary_13318e12.graph.json", "sha256": "13318e12ea641b3f6243c9f0e32f9b6eff0b04cf6b9e40daf48d03b1d42abb51", "size": 5087}, "gradients/ImageModel.blocks.0.batchnorm.weight": {"_type": "histogram", "values": [1.0, 0.0, 0.0, 0.0, 0.0, 0.0, 0.0, 0.0, 0.0, 0.0, 0.0, 0.0, 0.0, 0.0, 0.0, 0.0, 0.0, 0.0, 0.0, 0.0, 0.0, 0.0, 0.0, 0.0, 0.0, 0.0, 0.0, 0.0, 0.0, 0.0, 0.0, 0.0, 0.0, 0.0, 0.0, 0.0, 0.0, 0.0, 0.0, 0.0, 0.0, 0.0, 1.0, 0.0, 1.0, 121.0, 1.0, 0.0, 0.0, 1.0, 0.0, 0.0, 0.0, 0.0, 1.0, 0.0, 0.0, 0.0, 0.0, 0.0, 0.0, 0.0, 0.0, 1.0], "bins": [-0.005021560471504927, -0.004910328425467014, -0.004799096379429102, -0.004687864799052477, -0.0045766327530145645, -0.004465400706976652, -0.00435416866093874, -0.004242937080562115, -0.004131705034524202, -0.00402047298848629, -0.003909240942448378, -0.003798009129241109, -0.00368677731603384, -0.003575545269995928, -0.0034643132239580154, -0.0033530814107507467, -0.003241849597543478, -0.0031306175515055656, -0.0030193855054676533, -0.0029081536922603846, -0.002796921646222472, -0.0026856898330152035, -0.002574457786977291, -0.0024632259737700224, -0.00235199392773211, -0.0022407621145248413, -0.002129530068486929, -0.0020182982552796602, -0.0019070662092417479, -0.0017958343960344791, -0.0016846023499965668, -0.001573370536789298, -0.0014621384907513857, -0.0013509064447134733, -0.0012396746315062046, -0.0011284425854682922, -0.0010172105394303799, -0.0009059789590537548, -0.0007947469130158424, -0.0006835148669779301, -0.0005722828209400177, -0.00046105124056339264, -0.00034981919452548027, -0.0002385871484875679, -0.00012735510244965553, -1.6123522073030472e-05, 9.51085239648819e-05, 0.00020634057000279427, 0.00031757261604070663, 0.000428804662078619, 0.0005400362424552441, 0.0006512682884931564, 0.0007625003345310688, 0.0008737323805689812, 0.0009849639609456062, 0.0010961960069835186, 0.001207428053021431, 0.0013186600990593433, 0.0014298916794359684, 0.0015411237254738808, 0.0016523557715117931, 0.0017635878175497055, 0.0018748193979263306, 0.001986051443964243, 0.0020972834900021553]}, "gradients/FeatureModel.dnn_layers.3.bias": {"_type": "histogram", "values": [1.0, 0.0, 0.0, 0.0, 0.0, 0.0, 0.0, 0.0, 1.0, 0.0, 0.0, 1.0, 1.0, 0.0, 2.0, 0.0, 0.0, 0.0, 2.0, 2.0, 0.0, 1.0, 37.0, 3.0, 1.0, 2.0, 0.0, 1.0, 1.0, 1.0, 2.0, 0.0, 0.0, 2.0, 1.0, 0.0, 0.0, 0.0, 0.0, 0.0, 0.0, 1.0, 0.0, 0.0, 0.0, 0.0, 0.0, 0.0, 0.0, 0.0, 0.0, 0.0, 0.0, 0.0, 0.0, 0.0, 0.0, 0.0, 0.0, 0.0, 0.0, 0.0, 0.0, 1.0], "bins": [-0.06577558815479279, -0.06281481683254242, -0.05985404551029205, -0.05689327418804169, -0.05393250286579132, -0.050971731543540955, -0.04801096394658089, -0.04505019262433052, -0.042089421302080154, -0.03912864997982979, -0.03616787865757942, -0.033207107335329056, -0.030246339738368988, -0.027285568416118622, -0.024324797093868256, -0.02136402577161789, -0.018403254449367523, -0.015442483127117157, -0.01248171180486679, -0.009520940482616425, -0.006560169160366058, -0.0035994015634059906, -0.0006386265158653259, 0.0023221448063850403, 0.00528290867805481, 0.008243680000305176, 0.011204451322555542, 0.014165222644805908, 0.017125993967056274, 0.02008676528930664, 0.023047536611557007, 0.026008307933807373, 0.02896907925605774, 0.031929850578308105, 0.03489062190055847, 0.03785139322280884, 0.040812164545059204, 0.04377293586730957, 0.046733707189559937, 0.0496944785118103, 0.05265524983406067, 0.05561601370573044, 0.058576785027980804, 0.06153756380081177, 0.06449833512306213, 0.0674591064453125, 0.07041987776756287, 0.07338064908981323, 0.0763414055109024, 0.07930217683315277, 0.08226294815540314, 0.0852237194776535, 0.08818449079990387, 0.09114526212215424, 0.0941060334444046, 0.09706680476665497, 0.10002757608890533, 0.1029883474111557, 0.10594911873340607, 0.10890989005565643, 0.1118706613779068, 0.11483143270015717, 0.11779220402240753, 0.1207529753446579, 0.12371374666690826]}, "gradients/FeatureModel.dnn_layers.2.weight": {"_type": "histogram", "values": [1.0, 0.0, 0.0, 0.0, 0.0, 0.0, 0.0, 0.0, 0.0, 1.0, 0.0, 0.0, 1.0, 2.0, 0.0, 0.0, 0.0, 0.0, 0.0, 0.0, 0.0, 0.0, 1.0, 0.0, 0.0, 2.0, 1.0, 4.0, 6.0, 30.0, 3.0, 0.0, 1.0, 3.0, 0.0, 1.0, 0.0, 0.0, 0.0, 1.0, 1.0, 0.0, 2.0, 0.0, 0.0, 0.0, 0.0, 0.0, 1.0, 0.0, 0.0, 0.0, 0.0, 0.0, 0.0, 1.0, 0.0, 0.0, 0.0, 0.0, 0.0, 0.0, 0.0, 1.0], "bins": [-0.03748948872089386, -0.0362032987177372, -0.034917108714580536, -0.033630918711423874, -0.03234472870826721, -0.03105853870511055, -0.029772348701953888, -0.028486158698797226, -0.027199968695640564, -0.025913778692483902, -0.02462758868932724, -0.023341398686170578, -0.022055208683013916, -0.020769018679857254, -0.019482828676700592, -0.01819663867354393, -0.016910448670387268, -0.015624258667230606, -0.014338068664073944, -0.013051878660917282, -0.01176568865776062, -0.010479498654603958, -0.009193308651447296, -0.007907118648290634, -0.006620928645133972, -0.00533473864197731, -0.004048548638820648, -0.002762358635663986, -0.0014761686325073242, -0.00018997862935066223, 0.0010962113738059998, 0.0023824013769626617, 0.0036685913801193237, 0.004954781383275986, 0.006240971386432648, 0.00752716138958931, 0.008813351392745972, 0.010099541395902634, 0.011385731399059296, 0.012671921402215958, 0.01395811140537262, 0.015244301408529282, 0.016530491411685944, 0.017816681414842606, 0.019102871417999268, 0.02038906142115593, 0.02167525142431259, 0.022961441427469254, 0.024247631430625916, 0.025533825159072876, 0.02682001143693924, 0.028106197714805603, 0.029392391443252563, 0.030678585171699524, 0.03196477144956589, 0.03325095772743225, 0.03453715145587921, 0.03582334518432617, 0.037109531462192535, 0.0383957177400589, 0.03968191146850586, 0.04096810519695282, 0.04225429147481918, 0.04354047775268555, 0.04482667148113251]}, "gradients/ImageModel.blocks.2.batchnorm.weight": {"_type": "histogram", "values": [1.0, 0.0, 0.0, 0.0, 0.0, 0.0, 0.0, 0.0, 0.0, 0.0, 0.0, 0.0, 1.0, 0.0, 0.0, 0.0, 0.0, 0.0, 0.0, 0.0, 6.0, 0.0, 0.0, 0.0, 0.0, 0.0, 0.0, 0.0, 0.0, 0.0, 0.0, 0.0, 0.0, 0.0, 0.0, 0.0, 0.0, 0.0, 0.0, 0.0, 0.0, 0.0, 0.0, 0.0, 0.0, 0.0, 0.0, 0.0, 0.0, 1.0, 0.0, 0.0, 0.0, 0.0, 0.0, 0.0, 0.0, 0.0, 0.0, 0.0, 0.0, 0.0, 0.0, 1.0], "bins": [-0.010912882164120674, -0.01038229651749134, -0.009851710870862007, -0.009321125224232674, -0.00879053957760334, -0.008259953930974007, -0.007729369215667248, -0.007198783569037914, -0.006668197922408581, -0.006137612275779247, -0.005607026629149914, -0.005076441448181868, -0.004545855801552534, -0.004015270154923201, -0.0034846849739551544, -0.002954099327325821, -0.0024235136806964874, -0.001892928034067154, -0.0013623423874378204, -0.0008317567408084869, -0.00030117109417915344, 0.00022941362112760544, 0.0007599992677569389, 0.0012905849143862724, 0.001821170561015606, 0.0023517562076449394, 0.002882341854274273, 0.0034129275009036064, 0.003943512216210365, 0.004474097862839699, 0.005004683509469032, 0.005535269156098366, 0.006065854802727699, 0.006596440449357033, 0.007127026095986366, 0.0076576117426157, 0.008188197389245033, 0.008718783035874367, 0.0092493686825037, 0.009779954329133034, 0.010310539975762367, 0.010841123759746552, 0.011371709406375885, 0.011902295053005219, 0.012432880699634552, 0.012963466346263885, 0.013494051992893219, 0.014024637639522552, 0.014555223286151886, 0.01508580893278122, 0.015616394579410553, 0.016146980226039886, 0.01667756587266922, 0.017208151519298553, 0.017738737165927887, 0.01826932281255722, 0.018799906596541405, 0.019330492243170738, 0.01986107788980007, 0.020391663536429405, 0.02092224918305874, 0.021452834829688072, 0.021983420476317406, 0.02251400612294674, 0.023044591769576073]}, "gradients/ImageModel.blocks.2.conv.bias": {"_type": "histogram", "values": [1.0, 0.0, 0.0, 0.0, 0.0, 0.0, 0.0, 0.0, 0.0, 0.0, 0.0, 0.0, 0.0, 0.0, 0.0, 0.0, 0.0, 0.0, 0.0, 6.0, 1.0, 0.0, 1.0, 0.0, 0.0, 0.0, 0.0, 0.0, 0.0, 0.0, 0.0, 0.0, 0.0, 0.0, 0.0, 0.0, 0.0, 0.0, 0.0, 0.0, 0.0, 0.0, 0.0, 0.0, 0.0, 0.0, 0.0, 0.0, 0.0, 0.0, 0.0, 0.0, 0.0, 0.0, 0.0, 0.0, 0.0, 0.0, 0.0, 0.0, 0.0, 0.0, 0.0, 1.0], "bins": [-0.016044974327087402, -0.01523947436362505, -0.014433974400162697, -0.013628474436700344, -0.012822974473237991, -0.012017475441098213, -0.011211974546313286, -0.010406475514173508, -0.00960097461938858, -0.008795475587248802, -0.00798997562378645, -0.007184475660324097, -0.006378975696861744, -0.005573475733399391, -0.004767975769937038, -0.003962475806474686, -0.003156975843012333, -0.00235147587954998, -0.0015459759160876274, -0.0007404759526252747, 6.502307951450348e-05, 0.0008705239742994308, 0.001676023006439209, 0.0024815239012241364, 0.0032870229333639145, 0.004092523828148842, 0.00489802286028862, 0.005703523755073547, 0.0065090227872133255, 0.007314523681998253, 0.008120022714138031, 0.008925523608922958, 0.009731022641062737, 0.010536521673202515, 0.011342022567987442, 0.01214752160012722, 0.012953022494912148, 0.013758521527051926, 0.014564022421836853, 0.01536952331662178, 0.01617502048611641, 0.016980521380901337, 0.017786022275686264, 0.01859152317047119, 0.01939702033996582, 0.020202521234750748, 0.021008022129535675, 0.021813523024320602, 0.02261902019381523, 0.02342452108860016, 0.024230021983385086, 0.025035519152879715, 0.025841020047664642, 0.02664652094244957, 0.027452021837234497, 0.028257519006729126, 0.029063019901514053, 0.02986852079629898, 0.030674021691083908, 0.03147951886057854, 0.032285019755363464, 0.03309052065014839, 0.03389602154493332, 0.03470151871442795, 0.035507019609212875]}, "gradients/nn2.2.bias": {"_type": "histogram", "values": [1.0, 0.0, 1.0, 0.0, 0.0, 0.0, 0.0, 1.0, 0.0, 0.0, 0.0, 1.0, 1.0, 2.0, 0.0, 0.0, 0.0, 0.0, 0.0, 0.0, 0.0, 0.0, 0.0, 0.0, 0.0, 0.0, 0.0, 0.0, 0.0, 0.0, 4.0, 1.0, 0.0, 0.0, 0.0, 0.0, 0.0, 0.0, 0.0, 0.0, 0.0, 0.0, 0.0, 0.0, 0.0, 0.0, 0.0, 0.0, 0.0, 1.0, 0.0, 0.0, 0.0, 1.0, 1.0, 0.0, 0.0, 0.0, 0.0, 0.0, 0.0, 0.0, 0.0, 1.0], "bins": [-0.02023070491850376, -0.019574683159589767, -0.018918659538030624, -0.01826263777911663, -0.017606614157557487, -0.016950592398643494, -0.01629456877708435, -0.015638547018170357, -0.014982524327933788, -0.01432650163769722, -0.013670478947460651, -0.013014456257224083, -0.012358434498310089, -0.01170241180807352, -0.011046389117836952, -0.010390366427600384, -0.009734343737363815, -0.009078321047127247, -0.008422298356890678, -0.00776627566665411, -0.0071102529764175415, -0.006454231217503548, -0.005798208527266979, -0.005142185837030411, -0.004486164078116417, -0.003830140456557274, -0.00317411869764328, -0.002518095076084137, -0.0018620733171701431, -0.001206049695611, -0.0005500279366970062, 0.00010599568486213684, 0.0007620174437761307, 0.0014180392026901245, 0.0020740628242492676, 0.0027300845831632614, 0.0033861082047224045, 0.004042129963636398, 0.004698153585195541, 0.005354175344109535, 0.006010198965668678, 0.006666220724582672, 0.007322242483496666, 0.007978266105055809, 0.008634287863969803, 0.009290311485528946, 0.00994633324444294, 0.010602356866002083, 0.011258376762270927, 0.01191440038383007, 0.012570424005389214, 0.013226447626948357, 0.013882467523217201, 0.014538491144776344, 0.015194514766335487, 0.01585053838789463, 0.016506558284163475, 0.017162581905722618, 0.01781860552728176, 0.018474625423550606, 0.01913064904510975, 0.019786672666668892, 0.020442696288228035, 0.02109871618449688, 0.021754739806056023]}, "gradients/ImageModel.Z.bias": {"_type": "histogram", "values": [1.0, 0.0, 0.0, 0.0, 0.0, 0.0, 0.0, 0.0, 0.0, 0.0, 0.0, 0.0, 0.0, 0.0, 0.0, 0.0, 1.0, 0.0, 0.0, 0.0, 0.0, 0.0, 0.0, 0.0, 0.0, 0.0, 0.0, 0.0, 0.0, 0.0, 0.0, 0.0, 0.0, 0.0, 0.0, 0.0, 0.0, 1.0, 0.0, 0.0, 0.0, 0.0, 0.0, 0.0, 0.0, 0.0, 0.0, 0.0, 0.0, 0.0, 0.0, 0.0, 0.0, 0.0, 0.0, 0.0, 0.0, 0.0, 0.0, 0.0, 0.0, 0.0, 0.0, 1.0], "bins": [-0.06391958892345428, -0.06285372376441956, -0.06178785488009453, -0.0607219897210598, -0.05965612083673477, -0.05859025567770004, -0.057524390518665314, -0.056458521634340286, -0.05539265647530556, -0.05432678759098053, -0.0532609224319458, -0.05219505727291107, -0.051129188388586044, -0.050063323229551315, -0.04899745434522629, -0.04793158918619156, -0.04686572402715683, -0.0457998551428318, -0.044733986258506775, -0.043668121099472046, -0.04260225594043732, -0.04153639078140259, -0.04047052189707756, -0.03940465301275253, -0.038338787853717804, -0.037272922694683075, -0.036207057535648346, -0.03514118865132332, -0.03407531976699829, -0.03300945460796356, -0.03194358944892883, -0.030877720564603806, -0.029811855405569077, -0.028745990246534348, -0.02768012136220932, -0.02661425620317459, -0.025548387318849564, -0.024482522159814835, -0.023416657000780106, -0.022350788116455078, -0.02128492295742035, -0.02021905407309532, -0.019153188914060593, -0.018087323755025864, -0.017021454870700836, -0.015955589711666107, -0.01488972082734108, -0.01382385566830635, -0.012757986783981323, -0.011692121624946594, -0.010626256465911865, -0.009560387581586838, -0.008494522422552109, -0.007428653538227081, -0.006362788379192352, -0.005296923220157623, -0.004231054335832596, -0.003165189176797867, -0.0020993202924728394, -0.0010334551334381104, 3.241002559661865e-05, 0.0010982751846313477, 0.0021641477942466736, 0.0032300129532814026, 0.004295878112316132]}, "gradients/ImageModel.blocks.2.batchnorm.bias": {"_type": "histogram", "values": [6.0, 1.0, 0.0, 0.0, 0.0, 0.0, 0.0, 0.0, 1.0, 0.0, 0.0, 0.0, 0.0, 0.0, 0.0, 0.0, 0.0, 0.0, 0.0, 0.0, 0.0, 0.0, 0.0, 0.0, 0.0, 0.0, 0.0, 0.0, 0.0, 0.0, 0.0, 0.0, 0.0, 0.0, 0.0, 0.0, 0.0, 0.0, 1.0, 0.0, 0.0, 0.0, 0.0, 0.0, 0.0, 0.0, 0.0, 0.0, 0.0, 0.0, 0.0, 0.0, 0.0, 0.0, 0.0, 0.0, 0.0, 0.0, 0.0, 0.0, 0.0, 0.0, 0.0, 1.0], "bins": [-5.541180144064128e-06, 2.5729048502398655e-05, 5.699927714886144e-05, 8.826950215734541e-05, 0.000119539734441787, 0.0001508099667262286, 0.00018208018445875496, 0.00021335041674319655, 0.00024462066357955337, 0.0002758908667601645, 0.00030716112814843655, 0.0003384313313290477, 0.0003697015345096588, 0.00040097179589793086, 0.000432241999078542, 0.00046351226046681404, 0.0004947824636474252, 0.0005260526668280363, 0.0005573229282163084, 0.0005885931313969195, 0.0006198633927851915, 0.0006511335959658027, 0.0006824038573540747, 0.0007136740605346859, 0.000744944263715297, 0.000776214525103569, 0.0008074847282841802, 0.0008387549896724522, 0.0008700251928530633, 0.0009012954542413354, 0.0009325656574219465, 0.0009638359188102186, 0.0009951061801984906, 0.0010263763833791018, 0.0010576465865597129, 0.0010889169061556458, 0.001120187109336257, 0.0011514573125168681, 0.0011827275156974792, 0.0012139978352934122, 0.0012452680384740233, 0.0012765382416546345, 0.0013078084448352456, 0.0013390786480158567, 0.0013703489676117897, 0.0014016191707924008, 0.001432889373973012, 0.001464159577153623, 0.0014954297803342342, 0.0015267000999301672, 0.0015579703031107783, 0.0015892405062913895, 0.0016205107094720006, 0.0016517810290679336, 0.0016830512322485447, 0.0017143214354291558, 0.001745591638609767, 0.001776861841790378, 0.001808132161386311, 0.0018394023645669222, 0.0018706725677475333, 0.0019019427709281445, 0.0019332130905240774, 0.0019644831772893667, 0.0019957534968852997]}, "gradients/nn2.0.bias": {"_type": "histogram", "values": [1.0, 0.0, 0.0, 0.0, 0.0, 0.0, 0.0, 0.0, 0.0, 0.0, 0.0, 0.0, 0.0, 0.0, 0.0, 0.0, 0.0, 1.0, 0.0, 0.0, 0.0, 0.0, 1.0, 0.0, 1.0, 0.0, 0.0, 0.0, 0.0, 0.0, 0.0, 0.0, 0.0, 0.0, 0.0, 6.0, 1.0, 0.0, 1.0, 0.0, 0.0, 1.0, 0.0, 0.0, 0.0, 0.0, 0.0, 0.0, 0.0, 0.0, 1.0, 0.0, 0.0, 0.0, 0.0, 0.0, 0.0, 0.0, 1.0, 0.0, 0.0, 0.0, 0.0, 1.0], "bins": [-0.11870010197162628, -0.11530889570713043, -0.11191768199205399, -0.10852647572755814, -0.10513526946306229, -0.10174405574798584, -0.09835284948348999, -0.09496164321899414, -0.09157043695449829, -0.08817922323942184, -0.084788016974926, -0.08139680325984955, -0.0780055969953537, -0.07461439073085785, -0.071223184466362, -0.06783197820186615, -0.0644407644867897, -0.061049554497003555, -0.057658348232507706, -0.05426713824272156, -0.05087593197822571, -0.04748471826314926, -0.04409351199865341, -0.04070230573415756, -0.037311092019081116, -0.033919885754585266, -0.030528679490089417, -0.027137473225593567, -0.02374625951051712, -0.02035505324602127, -0.01696384698152542, -0.013572633266448975, -0.010181427001953125, -0.006790220737457275, -0.003399007022380829, -7.800757884979248e-06, 0.0033834055066108704, 0.006774619221687317, 0.010165825486183167, 0.013557031750679016, 0.016948238015174866, 0.020339444279670715, 0.02373066544532776, 0.02712187170982361, 0.030513077974319458, 0.03390428423881531, 0.03729549050331116, 0.04068669676780701, 0.04407791793346405, 0.0474691241979599, 0.05086033046245575, 0.0542515367269516, 0.05764274299144745, 0.0610339492559433, 0.06442515552043915, 0.06781637668609619, 0.07120758295059204, 0.07459878921508789, 0.07798999547958374, 0.08138120174407959, 0.08477240800857544, 0.08816362917423248, 0.09155483543872833, 0.09494604170322418, 0.09833724796772003]}, "gradients/FeatureModel.output_layer.bias": {"_type": "histogram", "values": [1.0, 0.0, 0.0, 0.0, 0.0, 0.0, 0.0, 0.0, 0.0, 0.0, 0.0, 0.0, 0.0, 0.0, 0.0, 0.0, 1.0, 0.0, 0.0, 0.0, 0.0, 0.0, 0.0, 0.0, 0.0, 0.0, 0.0, 0.0, 0.0, 0.0, 0.0, 0.0, 0.0, 0.0, 0.0, 0.0, 0.0, 1.0, 0.0, 0.0, 0.0, 0.0, 0.0, 0.0, 0.0, 0.0, 0.0, 0.0, 0.0, 0.0, 0.0, 0.0, 0.0, 0.0, 0.0, 0.0, 0.0, 0.0, 0.0, 0.0, 0.0, 0.0, 0.0, 1.0], "bins": [-0.06391958892345428, -0.06285372376441956, -0.06178785488009453, -0.0607219897210598, -0.05965612083673477, -0.05859025567770004, -0.057524390518665314, -0.056458521634340286, -0.05539265647530556, -0.05432678759098053, -0.0532609224319458, -0.05219505727291107, -0.051129188388586044, -0.050063323229551315, -0.04899745434522629, -0.04793158918619156, -0.04686572402715683, -0.0457998551428318, -0.044733986258506775, -0.043668121099472046, -0.04260225594043732, -0.04153639078140259, -0.04047052189707756, -0.03940465301275253, -0.038338787853717804, -0.037272922694683075, -0.036207057535648346, -0.03514118865132332, -0.03407531976699829, -0.03300945460796356, -0.03194358944892883, -0.030877720564603806, -0.029811855405569077, -0.028745990246534348, -0.02768012136220932, -0.02661425620317459, -0.025548387318849564, -0.024482522159814835, -0.023416657000780106, -0.022350788116455078, -0.02128492295742035, -0.02021905407309532, -0.019153188914060593, -0.018087323755025864, -0.017021454870700836, -0.015955589711666107, -0.01488972082734108, -0.01382385566830635, -0.012757986783981323, -0.011692121624946594, -0.010626256465911865, -0.009560387581586838, -0.008494522422552109, -0.007428653538227081, -0.006362788379192352, -0.005296923220157623, -0.004231054335832596, -0.003165189176797867, -0.0020993202924728394, -0.0010334551334381104, 3.241002559661865e-05, 0.0010982751846313477, 0.0021641477942466736, 0.0032300129532814026, 0.004295878112316132]}, "gradients/ImageModel.blocks.5.batchnorm.bias": {"_type": "histogram", "values": [0.0, 0.0, 0.0, 0.0, 0.0, 0.0, 0.0, 0.0, 0.0, 0.0, 0.0, 0.0, 0.0, 0.0, 0.0, 0.0, 0.0, 0.0, 0.0, 0.0, 0.0, 0.0, 0.0, 0.0, 0.0, 0.0, 0.0, 0.0, 0.0, 0.0, 0.0, 1.0, 0.0, 0.0, 0.0, 0.0, 0.0, 0.0, 0.0, 0.0, 0.0, 0.0, 0.0, 0.0, 0.0, 0.0, 0.0, 0.0, 0.0, 0.0, 0.0, 0.0, 0.0, 0.0, 0.0, 0.0, 0.0, 0.0, 0.0, 0.0, 0.0, 0.0, 0.0, 0.0], "bins": [-0.01789170131087303, -0.01789170131087303, -0.01789170131087303, -0.01789170131087303, -0.01789170131087303, -0.01789170131087303, -0.01789170131087303, -0.01789170131087303, -0.01789170131087303, -0.01789170131087303, -0.01789170131087303, -0.01789170131087303, -0.01789170131087303, -0.01789170131087303, -0.01789170131087303, -0.01789170131087303, -0.01789170131087303, -0.01789170131087303, -0.01789170131087303, -0.01789170131087303, -0.01789170131087303, -0.01789170131087303, -0.01789170131087303, -0.01789170131087303, -0.01789170131087303, -0.01789170131087303, -0.01789170131087303, -0.01789170131087303, -0.01789170131087303, -0.01789170131087303, -0.01789170131087303, -0.01789170131087303, -0.01789170131087303, -0.01789170131087303, -0.01789170131087303, -0.01789170131087303, -0.01789170131087303, -0.01789170131087303, -0.01789170131087303, -0.01789170131087303, -0.01789170131087303, -0.01789170131087303, -0.01789170131087303, -0.01789170131087303, -0.01789170131087303, -0.01789170131087303, -0.01789170131087303, -0.01789170131087303, -0.01789170131087303, -0.01789170131087303, -0.01789170131087303, -0.01789170131087303, -0.01789170131087303, -0.01789170131087303, -0.01789170131087303, -0.01789170131087303, -0.01789170131087303, -0.01789170131087303, -0.01789170131087303, -0.01789170131087303, -0.01789170131087303, -0.01789170131087303, -0.01789170131087303, -0.01789170131087303, -0.01789170131087303]}, "test_loss": 0.07844887594003755, "gradients/FeatureModel.output_layer.weight": {"_type": "histogram", "values": [1.0, 0.0, 0.0, 0.0, 0.0, 0.0, 0.0, 0.0, 1.0, 0.0, 0.0, 1.0, 0.0, 0.0, 0.0, 0.0, 0.0, 0.0, 1.0, 1.0, 2.0, 0.0, 0.0, 3.0, 1.0, 0.0, 2.0, 1.0, 2.0, 2.0, 2.0, 4.0, 3.0, 2.0, 5.0, 4.0, 5.0, 5.0, 150.0, 7.0, 7.0, 5.0, 5.0, 4.0, 4.0, 3.0, 3.0, 5.0, 2.0, 3.0, 0.0, 2.0, 2.0, 1.0, 1.0, 1.0, 1.0, 1.0, 0.0, 0.0, 0.0, 0.0, 0.0, 1.0], "bins": [-0.07847205549478531, -0.07644028216600418, -0.07440850883722305, -0.07237673550844193, -0.0703449696302414, -0.06831319630146027, -0.06628142297267914, -0.06424964964389801, -0.06221787631511688, -0.060186102986335754, -0.058154329657554626, -0.0561225600540638, -0.05409078672528267, -0.05205901339650154, -0.05002724379301071, -0.047995470464229584, -0.045963697135448456, -0.04393192380666733, -0.0419001504778862, -0.03986838087439537, -0.03783660754561424, -0.035804834216833115, -0.033773064613342285, -0.03174129128456116, -0.02970951795578003, -0.0276777446269989, -0.025645971298217773, -0.023614201694726944, -0.021582428365945816, -0.019550655037164688, -0.01751888543367386, -0.01548711210489273, -0.013455338776111603, -0.011423565447330475, -0.009391792118549347, -0.007360018789768219, -0.005328245460987091, -0.00329647958278656, -0.0012647062540054321, 0.0007670670747756958, 0.0027988404035568237, 0.004830613732337952, 0.00686238706111908, 0.008894160389900208, 0.010925926268100739, 0.012957699596881866, 0.014989472925662994, 0.017021246254444122, 0.01905301958322525, 0.021084792912006378, 0.023116566240787506, 0.025148339569568634, 0.027180112898349762, 0.029211878776550293, 0.03124365210533142, 0.03327542543411255, 0.03530719876289368, 0.037338972091674805, 0.03937074542045593, 0.04140251874923706, 0.04343428462743759, 0.04546605795621872, 0.04749783128499985, 0.049529604613780975, 0.0515613779425621]}, "gradients/ImageModel.blocks.0.conv.weight": {"_type": "histogram", "values": [2.0, 0.0, 0.0, 1.0, 0.0, 0.0, 0.0, 0.0, 0.0, 0.0, 0.0, 0.0, 0.0, 0.0, 1.0, 0.0, 0.0, 1.0, 0.0, 0.0, 1.0, 1.0, 1.0, 1.0, 0.0, 1.0, 1.0, 1.0, 1.0, 1.0, 1.0, 1.0, 0.0, 0.0, 2.0, 2.0, 6.0, 5.0, 4.0, 4.0, 1972.0, 3.0, 2.0, 1.0, 0.0, 4.0, 3.0, 4.0, 1.0, 0.0, 1.0, 0.0, 2.0, 0.0, 5.0, 0.0, 1.0, 2.0, 2.0, 3.0, 0.0, 1.0, 0.0, 2.0], "bins": [-0.0073781805112957954, -0.007195605430752039, -0.007013029884546995, -0.006830454804003239, -0.006647879257798195, -0.006465304177254438, -0.006282729096710682, -0.006100153550505638, -0.005917578469961882, -0.005735003389418125, -0.005552427843213081, -0.005369852762669325, -0.005187277682125568, -0.005004702135920525, -0.004822127055376768, -0.004639551974833012, -0.004456976428627968, -0.004274400882422924, -0.0040918258018791676, -0.003909250721335411, -0.003726675407961011, -0.003544100094586611, -0.0033615250140428543, -0.0031789494678378105, -0.002996374387294054, -0.0028137993067502975, -0.0026312237605452538, -0.0024486486800014973, -0.002266073599457741, -0.002083498053252697, -0.0019009229727089405, -0.0017183474265038967, -0.0015357723459601402, -0.0013531972654163837, -0.00117062171921134, -0.0009880466386675835, -0.0008054710924625397, -0.0006228960119187832, -0.0004403209313750267, -0.0002577453851699829, -7.517030462622643e-05, 0.00010740477591753006, 0.00028998032212257385, 0.00047255586832761765, 0.0006551304832100868, 0.0008377060294151306, 0.0010202815756201744, 0.0012028561905026436, 0.0013854317367076874, 0.0015680072829127312, 0.0017505818977952003, 0.0019331574440002441, 0.002115732990205288, 0.002298307605087757, 0.002480883151292801, 0.0026634586974978447, 0.002846033312380314, 0.0030286088585853577, 0.0032111844047904015, 0.0033937599509954453, 0.0035763345658779144, 0.0037589101120829582, 0.003941485658288002, 0.004124060273170471, 0.004306635819375515]}, "gradients/ImageModel.blocks.4.conv.bias": {"_type": "histogram", "values": [1.0, 0.0, 0.0, 0.0, 0.0, 0.0, 1.0, 0.0, 0.0, 0.0, 0.0, 0.0, 0.0, 0.0, 0.0, 0.0, 0.0, 0.0, 0.0, 0.0, 0.0, 0.0, 0.0, 0.0, 0.0, 0.0, 0.0, 0.0, 0.0, 0.0, 0.0, 0.0, 0.0, 0.0, 0.0, 0.0, 0.0, 0.0, 0.0, 0.0, 0.0, 0.0, 0.0, 1.0, 0.0, 0.0, 0.0, 0.0, 0.0, 0.0, 0.0, 0.0, 0.0, 0.0, 0.0, 0.0, 0.0, 0.0, 0.0, 1.0, 0.0, 0.0, 0.0, 1.0], "bins": [-0.020937010645866394, -0.01999780721962452, -0.019058603793382645, -0.01811940222978592, -0.017180198803544044, -0.01624099537730217, -0.01530179288238287, -0.01436259038746357, -0.013423386961221695, -0.01248418353497982, -0.01154498104006052, -0.01060577854514122, -0.009666575118899345, -0.00872737169265747, -0.007788169197738171, -0.0068489667028188705, -0.005909763276576996, -0.004970559850335121, -0.0040313564240932465, -0.003092154860496521, -0.0021529514342546463, -0.0012137480080127716, -0.00027454644441604614, 0.0006646569818258286, 0.0016038604080677032, 0.002543063834309578, 0.0034822672605514526, 0.004421468824148178, 0.005360672250390053, 0.0062998756766319275, 0.007239077240228653, 0.008178280666470528, 0.009117484092712402, 0.010056687518954277, 0.010995890945196152, 0.011935092508792877, 0.012874297797679901, 0.013813499361276627, 0.014752700924873352, 0.015691906213760376, 0.0166311077773571, 0.017570309340953827, 0.01850951462984085, 0.019448716193437576, 0.020387917757034302, 0.021327123045921326, 0.02226632460951805, 0.023205529898405075, 0.0241447314620018, 0.025083933025598526, 0.02602313831448555, 0.026962339878082275, 0.0279015451669693, 0.028840746730566025, 0.02977994829416275, 0.030719153583049774, 0.0316583551466465, 0.032597556710243225, 0.03353676199913025, 0.034475963562726974, 0.0354151651263237, 0.036354370415210724, 0.03729357197880745, 0.03823277726769447, 0.0391719788312912]}, "_step": 30, "gradients/ImageModel.blocks.5.conv.weight": {"_type": "histogram", "values": [2.0, 0.0, 0.0, 1.0, 0.0, 0.0, 0.0, 1.0, 0.0, 0.0, 0.0, 0.0, 0.0, 1.0, 0.0, 0.0, 1.0, 0.0, 0.0, 0.0, 1.0, 1.0, 0.0, 0.0, 0.0, 1.0, 2.0, 1.0, 1.0, 1.0, 0.0, 1.0, 0.0, 1.0, 0.0, 1.0, 0.0, 0.0, 0.0, 0.0, 0.0, 0.0, 0.0, 0.0, 0.0, 0.0, 0.0, 1.0, 0.0, 0.0, 0.0, 0.0, 0.0, 0.0, 0.0, 0.0, 0.0, 1.0, 0.0, 0.0, 0.0, 0.0, 0.0, 1.0], "bins": [-0.017437422648072243, -0.01677185297012329, -0.01610628329217434, -0.015440713614225388, -0.01477514486759901, -0.014109575189650059, -0.013444005511701107, -0.01277843676507473, -0.012112867087125778, -0.011447297409176826, -0.010781727731227875, -0.010116158053278923, -0.009450588375329971, -0.00878501869738102, -0.008119449950754642, -0.007453880272805691, -0.006788310594856739, -0.006122740916907787, -0.005457171238958836, -0.0047916024923324585, -0.004126032814383507, -0.003460463136434555, -0.0027948934584856033, -0.0021293237805366516, -0.0014637541025876999, -0.0007981844246387482, -0.00013261474668979645, 0.000532953068614006, 0.0011985227465629578, 0.0018640924245119095, 0.002529662102460861, 0.003195231780409813, 0.0038608014583587646, 0.004526371136307716, 0.005191940814256668, 0.00585751049220562, 0.0065230801701545715, 0.007188649848103523, 0.007854217663407326, 0.008519787341356277, 0.00918535701930523, 0.009850926697254181, 0.010516496375203133, 0.011182066053152084, 0.011847635731101036, 0.012513205409049988, 0.01317877508699894, 0.013844342902302742, 0.014509914442896843, 0.015175482258200645, 0.015841053798794746, 0.01650662161409855, 0.01717219315469265, 0.017837760969996452, 0.018503328785300255, 0.019168900325894356, 0.019834468141198158, 0.02050003968179226, 0.02116560749709606, 0.021831179037690163, 0.022496746852993965, 0.023162318393588066, 0.02382788620889187, 0.02449345774948597, 0.025159025564789772]}, "gradients/FeatureModel.dnn_layers.2.bias": {"_type": "histogram", "values": [2.0, 0.0, 0.0, 0.0, 0.0, 0.0, 0.0, 0.0, 1.0, 0.0, 0.0, 0.0, 0.0, 0.0, 0.0, 0.0, 2.0, 1.0, 2.0, 1.0, 1.0, 0.0, 0.0, 2.0, 3.0, 32.0, 2.0, 4.0, 2.0, 0.0, 0.0, 0.0, 0.0, 0.0, 0.0, 0.0, 1.0, 0.0, 0.0, 0.0, 0.0, 0.0, 2.0, 0.0, 1.0, 0.0, 1.0, 0.0, 1.0, 1.0, 0.0, 0.0, 0.0, 0.0, 1.0, 0.0, 0.0, 0.0, 0.0, 0.0, 0.0, 0.0, 0.0, 1.0], "bins": [-0.020122725516557693, -0.01932656392455101, -0.018530402332544327, -0.017734240740537643, -0.01693807728588581, -0.016141915693879128, -0.015345754101872444, -0.01454959250986576, -0.013753429986536503, -0.012957267463207245, -0.012161105871200562, -0.011364944279193878, -0.010568782687187195, -0.009772620163857937, -0.008976458571851254, -0.008180296048521996, -0.007384134456515312, -0.006587972864508629, -0.005791810341179371, -0.0049956487491726875, -0.0041994862258434296, -0.003403324633836746, -0.002607163041830063, -0.0018110014498233795, -0.0010148398578166962, -0.00021867640316486359, 0.0005774851888418198, 0.0013736467808485031, 0.0021698083728551865, 0.00296596996486187, 0.0037621334195137024, 0.004558295011520386, 0.005354456603527069, 0.0061506181955337524, 0.006946779787540436, 0.007742943242192268, 0.008539104834198952, 0.009335266426205635, 0.010131428018212318, 0.010927589610219002, 0.011723753064870834, 0.012519914656877518, 0.013316076248884201, 0.014112237840890884, 0.014908399432897568, 0.01570456102490425, 0.016500722616910934, 0.017296884208917618, 0.0180930458009243, 0.018889211118221283, 0.019685372710227966, 0.02048153430223465, 0.021277695894241333, 0.022073857486248016, 0.0228700190782547, 0.023666180670261383, 0.024462342262268066, 0.02525850385427475, 0.026054665446281433, 0.026850830763578415, 0.0276469923555851, 0.02844315394759178, 0.029239315539598465, 0.03003547713160515, 0.03083163872361183]}, "gradients/ImageModel.blocks.1.conv.bias": {"_type": "histogram", "values": [24.0, 0.0, 0.0, 0.0, 0.0, 0.0, 0.0, 0.0, 0.0, 0.0, 0.0, 0.0, 0.0, 0.0, 0.0, 0.0, 0.0, 0.0, 0.0, 0.0, 0.0, 0.0, 0.0, 0.0, 0.0, 0.0, 0.0, 0.0, 0.0, 0.0, 0.0, 0.0, 0.0, 0.0, 0.0, 0.0, 0.0, 0.0, 0.0, 0.0, 0.0, 0.0, 0.0, 0.0, 0.0, 0.0, 0.0, 0.0, 0.0, 0.0, 0.0, 0.0, 0.0, 0.0, 0.0, 0.0, 0.0, 0.0, 0.0, 0.0, 0.0, 0.0, 0.0, 1.0], "bins": [-1.0272196959704161e-07, 0.0003467873320914805, 0.0006936773424968123, 0.001040567411109805, 0.0013874574797227979, 0.0017343475483357906, 0.0020812375005334616, 0.002428127685561776, 0.002775017637759447, 0.003121907589957118, 0.0034687977749854326, 0.0038156877271831036, 0.004162577446550131, 0.0045094676315784454, 0.00485635781660676, 0.005203247535973787, 0.005550137721002102, 0.0058970279060304165, 0.006243917625397444, 0.006590807810425758, 0.006937697995454073, 0.0072845877148211, 0.007631477899849415, 0.007978368550539017, 0.008325258269906044, 0.008672148920595646, 0.009019038639962673, 0.0093659283593297, 0.009712819010019302, 0.01005970872938633, 0.010406598448753357, 0.010753489099442959, 0.011100378818809986, 0.011447268538177013, 0.011794159188866615, 0.012141048908233643, 0.01248793862760067, 0.012834829278290272, 0.013181718997657299, 0.013528608717024326, 0.013875499367713928, 0.014222389087080956, 0.014569278806447983, 0.014916169457137585, 0.015263059176504612, 0.01560994889587164, 0.01595683954656124, 0.01630372926592827, 0.016650618985295296, 0.016997508704662323, 0.0173444002866745, 0.017691290006041527, 0.018038179725408554, 0.01838506944477558, 0.01873195916414261, 0.019078848883509636, 0.019425740465521812, 0.01977263018488884, 0.020119519904255867, 0.020466409623622894, 0.02081329934298992, 0.02116018906235695, 0.021507080644369125, 0.021853970363736153, 0.02220086008310318]}, "gradients/nn2.2.weight": {"_type": "histogram", "values": [1.0, 0.0, 1.0, 0.0, 0.0, 0.0, 0.0, 0.0, 0.0, 0.0, 0.0, 0.0, 0.0, 0.0, 0.0, 0.0, 0.0, 0.0, 0.0, 0.0, 0.0, 0.0, 0.0, 1.0, 0.0, 0.0, 0.0, 0.0, 0.0, 0.0, 0.0, 0.0, 0.0, 0.0, 2.0, 1.0, 1.0, 0.0, 0.0, 0.0, 0.0, 1.0, 5.0, 1.0, 0.0, 0.0, 0.0, 0.0, 0.0, 0.0, 0.0, 0.0, 0.0, 0.0, 0.0, 0.0, 1.0, 0.0, 0.0, 0.0, 0.0, 0.0, 0.0, 1.0], "bins": [-0.053056370466947556, -0.05180438980460167, -0.05055240914225578, -0.0493004247546196, -0.04804844409227371, -0.046796463429927826, -0.04554448276758194, -0.04429250210523605, -0.04304051771759987, -0.04178853705525398, -0.040536556392908096, -0.03928457200527191, -0.038032591342926025, -0.03678061068058014, -0.03552863001823425, -0.03427664935588837, -0.03302466869354248, -0.031772688031196594, -0.03052070364356041, -0.029268722981214523, -0.028016740456223488, -0.0267647597938776, -0.025512777268886566, -0.02426079660654068, -0.023008815944194794, -0.021756835281848907, -0.020504850894212723, -0.019252870231866837, -0.01800088956952095, -0.016748908907175064, -0.01549692451953888, -0.014244943857192993, -0.012992963194847107, -0.01174098253250122, -0.010489001870155334, -0.00923701748251915, -0.007985036820173264, -0.006733056157827377, -0.005481075495481491, -0.004229091107845306, -0.00297711044549942, -0.001725129783153534, -0.0004731491208076477, 0.0007788315415382385, 0.0020308159291744232, 0.0032827965915203094, 0.004534777253866196, 0.005786757916212082, 0.007038738578557968, 0.008290722966194153, 0.00954269990324974, 0.010794688016176224, 0.01204666867852211, 0.013298649340867996, 0.014550630003213882, 0.01580261066555977, 0.017054591327905655, 0.01830657199025154, 0.019558552652597427, 0.020810533314943314, 0.022062521427869797, 0.023314502090215683, 0.02456648275256157, 0.025818463414907455, 0.02707044407725334]}, "gradients/ImageModel.blocks.3.conv.weight": {"_type": "histogram", "values": [1.0, 0.0, 0.0, 0.0, 0.0, 0.0, 0.0, 0.0, 0.0, 0.0, 0.0, 1.0, 0.0, 1.0, 0.0, 1.0, 1.0, 0.0, 0.0, 0.0, 2.0, 0.0, 1.0, 2.0, 2.0, 3.0, 3.0, 6.0, 6.0, 4.0, 4.0, 6.0, 2.0, 5.0, 9.0, 5.0, 20.0, 283.0, 13.0, 8.0, 9.0, 2.0, 5.0, 9.0, 8.0, 4.0, 2.0, 4.0, 2.0, 1.0, 1.0, 0.0, 2.0, 2.0, 1.0, 1.0, 1.0, 2.0, 1.0, 1.0, 2.0, 0.0, 0.0, 1.0], "bins": [-0.028212029486894608, -0.027463993057608604, -0.02671595849096775, -0.025967922061681747, -0.025219887495040894, -0.02447185106575489, -0.023723816499114037, -0.022975780069828033, -0.02222774550318718, -0.021479709073901176, -0.020731674507260323, -0.01998363807797432, -0.019235603511333466, -0.018487567082047462, -0.01773953065276146, -0.016991496086120605, -0.01624346151947975, -0.015495425090193748, -0.01474738959223032, -0.013999354094266891, -0.013251318596303463, -0.012503283098340034, -0.011755246669054031, -0.011007212102413177, -0.010259175673127174, -0.00951114110648632, -0.008763104677200317, -0.008015070110559464, -0.00726703368127346, -0.0065189991146326065, -0.005770962685346603, -0.0050229281187057495, -0.004274891689419746, -0.0035268552601337433, -0.0027788206934928894, -0.0020307842642068863, -0.0012827496975660324, -0.0005347132682800293, 0.00021332129836082458, 0.0009613577276468277, 0.0017093922942876816, 0.0024574287235736847, 0.0032054632902145386, 0.0039534978568553925, 0.004701536148786545, 0.005449570715427399, 0.0061976052820682526, 0.0069456398487091064, 0.007693678140640259, 0.008441712707281113, 0.009189747273921967, 0.009937785565853119, 0.010685820132493973, 0.011433854699134827, 0.01218188926577568, 0.012929927557706833, 0.013677962124347687, 0.01442599669098854, 0.015174031257629395, 0.015922069549560547, 0.0166701041162014, 0.017418138682842255, 0.01816617324948311, 0.01891421154141426, 0.019662246108055115]}, "_runtime": 5922.914248228073, "gradients/ImageModel.blocks.0.batchnorm.bias": {"_type": "histogram", "values": [1.0, 0.0, 0.0, 0.0, 0.0, 0.0, 0.0, 0.0, 0.0, 0.0, 0.0, 0.0, 0.0, 0.0, 0.0, 0.0, 0.0, 0.0, 0.0, 0.0, 0.0, 0.0, 0.0, 0.0, 0.0, 0.0, 0.0, 0.0, 0.0, 0.0, 0.0, 0.0, 0.0, 0.0, 0.0, 0.0, 0.0, 0.0, 0.0, 0.0, 0.0, 0.0, 0.0, 0.0, 0.0, 0.0, 0.0, 0.0, 0.0, 0.0, 0.0, 0.0, 1.0, 1.0, 1.0, 0.0, 0.0, 0.0, 0.0, 0.0, 0.0, 8.0, 111.0, 5.0], "bins": [-0.0087350532412529, -0.00859522633254528, -0.008455399423837662, -0.008315572515130043, -0.008175745606422424, -0.008035918697714806, -0.007896091789007187, -0.0077562653459608555, -0.007616438437253237, -0.007476611528545618, -0.007336784619837999, -0.007196957711130381, -0.007057130802422762, -0.006917303893715143, -0.006777477450668812, -0.006637650541961193, -0.006497823633253574, -0.006357996724545956, -0.006218169815838337, -0.006078342907130718, -0.0059385159984230995, -0.005798689089715481, -0.005658862181007862, -0.005519035272300243, -0.005379208363592625, -0.005239381454885006, -0.005099554546177387, -0.0049597276374697685, -0.004819901194423437, -0.004680074285715818, -0.0045402473770082, -0.004400420468300581, -0.004260593559592962, -0.0041207666508853436, -0.003980939742177725, -0.003841112833470106, -0.0037012859247624874, -0.0035614590160548687, -0.0034216325730085373, -0.0032818056643009186, -0.0031419787555933, -0.003002151846885681, -0.0028623249381780624, -0.0027224980294704437, -0.002582671120762825, -0.0024428442120552063, -0.0023030173033475876, -0.002163190394639969, -0.00202336348593235, -0.0018835370428860188, -0.0017437101341784, -0.0016038832254707813, -0.0014640563167631626, -0.001324229408055544, -0.0011844024993479252, -0.0010445755906403065, -0.0009047491475939751, -0.0007649222388863564, -0.0006250953301787376, -0.0004852684214711189, -0.0003454415127635002, -0.0002056146040558815, -6.578769534826279e-05, 7.403921335935593e-05, 0.00021386612206697464]}, "gradients/ImageModel.blocks.3.batchnorm.weight": {"_type": "histogram", "values": [1.0, 0.0, 0.0, 0.0, 0.0, 0.0, 0.0, 0.0, 0.0, 0.0, 0.0, 0.0, 0.0, 0.0, 0.0, 0.0, 0.0, 0.0, 0.0, 0.0, 0.0, 0.0, 0.0, 0.0, 0.0, 0.0, 0.0, 0.0, 0.0, 0.0, 0.0, 0.0, 0.0, 0.0, 0.0, 0.0, 0.0, 0.0, 0.0, 0.0, 0.0, 1.0, 0.0, 0.0, 0.0, 0.0, 0.0, 0.0, 0.0, 0.0, 0.0, 0.0, 0.0, 0.0, 0.0, 0.0, 0.0, 0.0, 0.0, 0.0, 0.0, 0.0, 1.0, 2.0], "bins": [-0.018582260236144066, -0.018166061490774155, -0.017749864608049393, -0.01733366586267948, -0.01691746897995472, -0.01650127023458481, -0.016085073351860046, -0.015668874606490135, -0.015252676792442799, -0.014836478978395462, -0.01442028023302555, -0.014004083350300789, -0.013587884604930878, -0.013171686790883541, -0.012755488976836205, -0.012339290231466293, -0.011923093348741531, -0.01150689460337162, -0.011090696789324284, -0.010674498975276947, -0.01025830116122961, -0.009842103347182274, -0.009425905533134937, -0.009009706787765026, -0.00859350897371769, -0.008177311159670353, -0.007761113345623016, -0.00734491553157568, -0.006928717717528343, -0.006512518972158432, -0.006096321158111095, -0.005680123344063759, -0.005263925530016422, -0.004847727715969086, -0.004431529901921749, -0.0040153320878744125, -0.0035991333425045013, -0.0031829355284571648, -0.002766737714409828, -0.002350538969039917, -0.001934342086315155, -0.0015181433409452438, -0.0011019464582204819, -0.0006857477128505707, -0.0002695508301258087, 0.00014664791524410248, 0.0005628466606140137, 0.0009790435433387756, 0.0013952422887086868, 0.0018114391714334488, 0.00222763791680336, 0.002643834799528122, 0.003060033544898033, 0.0034762322902679443, 0.0038924291729927063, 0.0043086279183626175, 0.0047248248010873795, 0.005141023546457291, 0.005557222291827202, 0.005973419174551964, 0.006389617919921875, 0.006805814802646637, 0.007222013548016548, 0.00763821043074131, 0.008054409176111221]}, "gradients/nn2.0.weight": {"_type": "histogram", "values": [1.0, 0.0, 0.0, 0.0, 0.0, 0.0, 0.0, 0.0, 0.0, 0.0, 0.0, 0.0, 0.0, 0.0, 0.0, 0.0, 1.0, 0.0, 1.0, 0.0, 0.0, 0.0, 0.0, 0.0, 1.0, 1.0, 0.0, 1.0, 2.0, 1.0, 2.0, 1.0, 0.0, 5.0, 3.0, 21.0, 4.0, 1.0, 2.0, 2.0, 1.0, 2.0, 2.0, 2.0, 2.0, 1.0, 0.0, 0.0, 0.0, 0.0, 1.0, 0.0, 1.0, 0.0, 0.0, 0.0, 0.0, 0.0, 0.0, 0.0, 0.0, 0.0, 0.0, 2.0], "bins": [-0.12103721499443054, -0.11758395284414291, -0.11413069069385529, -0.11067742109298706, -0.10722415894269943, -0.1037708967924118, -0.10031763464212418, -0.09686437249183655, -0.09341110289096832, -0.0899578407406807, -0.08650457859039307, -0.08305131644010544, -0.07959805428981781, -0.07614478468894958, -0.07269152998924255, -0.06923826038837433, -0.0657849982380867, -0.06233173608779907, -0.058878470212221146, -0.05542520433664322, -0.05197194218635559, -0.04851868003606796, -0.045065417885780334, -0.041612155735492706, -0.03815889358520508, -0.03470562398433685, -0.031252361834049225, -0.027799099683761597, -0.02434583753347397, -0.02089257538318634, -0.017439305782318115, -0.013986043632030487, -0.010532781481742859, -0.007079519331455231, -0.0036262571811676025, -0.00017298758029937744, 0.0032802745699882507, 0.006733536720275879, 0.010186806321144104, 0.013640061020851135, 0.01709333062171936, 0.02054658532142639, 0.023999854922294617, 0.027453124523162842, 0.030906379222869873, 0.0343596488237381, 0.03781290352344513, 0.041266173124313354, 0.044719427824020386, 0.04817269742488861, 0.051625967025756836, 0.05507922172546387, 0.05853249132633209, 0.061985746026039124, 0.06543901562690735, 0.06889228522777557, 0.0723455399274826, 0.07579880952835083, 0.07925206422805786, 0.08270533382892609, 0.08615860342979431, 0.08961185812950134, 0.09306512773036957, 0.0965183824300766, 0.09997165203094482]}, "gradients/ImageModel.blocks.0.conv.bias": {"_type": "histogram", "values": [1.0, 0.0, 0.0, 1.0, 123.0, 1.0, 0.0, 0.0, 0.0, 0.0, 0.0, 0.0, 0.0, 0.0, 0.0, 0.0, 0.0, 1.0, 0.0, 0.0, 0.0, 0.0, 0.0, 0.0, 0.0, 0.0, 0.0, 0.0, 0.0, 0.0, 0.0, 0.0, 0.0, 0.0, 0.0, 0.0, 0.0, 0.0, 0.0, 0.0, 0.0, 0.0, 0.0, 0.0, 0.0, 0.0, 0.0, 0.0, 0.0, 0.0, 0.0, 0.0, 0.0, 0.0, 0.0, 0.0, 0.0, 0.0, 0.0, 0.0, 0.0, 0.0, 0.0, 1.0], "bins": [-0.0002852433826774359, -0.00022238944075070322, -0.00015953549882397056, -9.66815568972379e-05, -3.382761497050524e-05, 2.9026326956227422e-05, 9.188026888296008e-05, 0.00015473421080969274, 0.0002175881527364254, 0.0002804420655593276, 0.0003432960365898907, 0.00040615000762045383, 0.00046900392044335604, 0.0005318578332662582, 0.0005947118042968214, 0.0006575657753273845, 0.0007204196881502867, 0.0007832736009731889, 0.0008461275137960911, 0.0009089815430343151, 0.0009718354558572173, 0.0010346893686801195, 0.0010975433979183435, 0.0011603973107412457, 0.001223251223564148, 0.0012861051363870502, 0.0013489590492099524, 0.0014118130784481764, 0.0014746669912710786, 0.0015375209040939808, 0.0016003749333322048, 0.001663228846155107, 0.0017260827589780092, 0.0017889367882162333, 0.0018517905846238136, 0.0019146446138620377, 0.001977498410269618, 0.002040352439507842, 0.002103206468746066, 0.0021660602651536465, 0.0022289142943918705, 0.0022917683236300945, 0.002354622120037675, 0.002417476149275899, 0.002480330178514123, 0.0025431839749217033, 0.0026060380041599274, 0.0026688918005675077, 0.0027317458298057318, 0.002794599859043956, 0.002857453655451536, 0.00292030768468976, 0.0029831614810973406, 0.0030460155103355646, 0.0031088695395737886, 0.003171723335981369, 0.003234577365219593, 0.003297431394457817, 0.0033602851908653975, 0.0034231392201036215, 0.0034859932493418455, 0.003548847045749426, 0.00361170107498765, 0.0036745548713952303, 0.0037374089006334543]}, "gradients/ImageModel.blocks.4.batchnorm.bias": {"_type": "histogram", "values": [1.0, 0.0, 0.0, 0.0, 0.0, 0.0, 0.0, 1.0, 0.0, 0.0, 0.0, 0.0, 0.0, 0.0, 0.0, 0.0, 0.0, 0.0, 1.0, 0.0, 0.0, 1.0, 0.0, 0.0, 0.0, 0.0, 0.0, 0.0, 0.0, 0.0, 0.0, 0.0, 0.0, 0.0, 0.0, 0.0, 0.0, 0.0, 0.0, 0.0, 0.0, 0.0, 0.0, 0.0, 0.0, 0.0, 0.0, 0.0, 0.0, 0.0, 0.0, 0.0, 0.0, 0.0, 0.0, 0.0, 0.0, 0.0, 0.0, 0.0, 0.0, 0.0, 0.0, 1.0], "bins": [-0.0018443483859300613, -0.0018019195413216949, -0.0017594906967133284, -0.0017170618521049619, -0.0016746330074965954, -0.001632204046472907, -0.0015897752018645406, -0.001547346357256174, -0.0015049175126478076, -0.0014624886680394411, -0.0014200598234310746, -0.0013776309788227081, -0.0013352020177990198, -0.0012927732896059752, -0.0012503443285822868, -0.0012079154839739203, -0.0011654866393655539, -0.0011230577947571874, -0.0010806289501488209, -0.0010381999891251326, -0.000995771260932088, -0.0009533423581160605, -0.0009109134553000331, -0.0008684846106916666, -0.0008260557660833001, -0.0007836269214749336, -0.0007411980768665671, -0.0006987692322582006, -0.0006563402712345123, -0.0006139114266261458, -0.0005714825820177794, -0.0005290537374094129, -0.00048662489280104637, -0.0004441960481926799, -0.0004017672035843134, -0.0003593383589759469, -0.0003169095143675804, -0.0002744805533438921, -0.0002320517087355256, -0.00018962286412715912, -0.00014719401951879263, -0.00010476517491042614, -6.233633030205965e-05, -1.990748569369316e-05, 2.2521475329995155e-05, 6.495031993836164e-05, 0.00010737916454672813, 0.0001498078927397728, 0.0001922368537634611, 0.00023466581478714943, 0.0002770945429801941, 0.0003195235040038824, 0.00036195223219692707, 0.0004043811932206154, 0.00044680992141366005, 0.0004892388824373484, 0.0005316678434610367, 0.0005740965716540813, 0.0006165255326777697, 0.0006589542608708143, 0.0007013832218945026, 0.0007438119500875473, 0.0007862409111112356, 0.0008286696393042803, 0.0008710986003279686]}, "gradients/ImageModel.blocks.2.conv.weight": {"_type": "histogram", "values": [1.0, 0.0, 0.0, 0.0, 0.0, 0.0, 0.0, 0.0, 0.0, 0.0, 1.0, 1.0, 0.0, 0.0, 0.0, 0.0, 0.0, 0.0, 2.0, 2.0, 0.0, 10.0, 2207.0, 1.0, 5.0, 2.0, 1.0, 2.0, 1.0, 0.0, 1.0, 0.0, 1.0, 0.0, 1.0, 0.0, 1.0, 1.0, 0.0, 1.0, 2.0, 2.0, 0.0, 0.0, 2.0, 0.0, 1.0, 0.0, 0.0, 0.0, 0.0, 0.0, 0.0, 0.0, 0.0, 0.0, 0.0, 0.0, 0.0, 0.0, 0.0, 0.0, 0.0, 1.0], "bins": [-0.01185654103755951, -0.011333403177559376, -0.010810265317559242, -0.010287127457559109, -0.009763989597558975, -0.009240851737558842, -0.008717713877558708, -0.008194576017558575, -0.007671438157558441, -0.007148300297558308, -0.006625162437558174, -0.006102024577558041, -0.005578886717557907, -0.005055748857557774, -0.00453261099755764, -0.0040094731375575066, -0.003486335277557373, -0.0029631974175572395, -0.002440059557557106, -0.0019169216975569725, -0.001393783837556839, -0.0008706459775567055, -0.00034750811755657196, 0.00017562974244356155, 0.0006987676024436951, 0.0012219054624438286, 0.001745043322443962, 0.0022681811824440956, 0.002791319042444229, 0.0033144569024443626, 0.003837594762444496, 0.004360731691122055, 0.004883870482444763, 0.005407009273767471, 0.00593014620244503, 0.006453283131122589, 0.006976421922445297, 0.007499560713768005, 0.008022697642445564, 0.008545834571123123, 0.009068973362445831, 0.00959211215376854, 0.010115249082446098, 0.010638386011123657, 0.011161524802446365, 0.011684663593769073, 0.012207800522446632, 0.012730937451124191, 0.0132540762424469, 0.013777215033769608, 0.014300351962447166, 0.014823488891124725, 0.015346627682447433, 0.01586976647377014, 0.0163929034024477, 0.01691604033112526, 0.017439179122447968, 0.017962317913770676, 0.018485454842448235, 0.019008591771125793, 0.0195317305624485, 0.02005486935377121, 0.02057800441980362, 0.021101143211126328, 0.021624282002449036]}, "gradients/FeatureModel.dnn_layers.3.weight": {"_type": "histogram", "values": [1.0, 0.0, 0.0, 0.0, 0.0, 0.0, 0.0, 2.0, 3.0, 2.0, 0.0, 0.0, 3.0, 1.0, 4.0, 2.0, 6.0, 9.0, 7.0, 2.0, 5.0, 9.0, 11.0, 13.0, 12.0, 20.0, 38.0, 62.0, 89.0, 3415.0, 111.0, 62.0, 49.0, 30.0, 20.0, 14.0, 15.0, 11.0, 11.0, 9.0, 5.0, 7.0, 4.0, 1.0, 3.0, 2.0, 3.0, 1.0, 0.0, 4.0, 4.0, 0.0, 2.0, 1.0, 4.0, 1.0, 0.0, 1.0, 0.0, 0.0, 0.0, 2.0, 2.0, 1.0], "bins": [-0.05922747403383255, -0.057235054671764374, -0.0552426353096962, -0.05325021594762802, -0.051257796585559845, -0.04926537722349167, -0.04727295786142349, -0.045280538499355316, -0.04328811913728714, -0.041295699775218964, -0.03930328041315079, -0.03731086105108261, -0.035318441689014435, -0.03332602232694626, -0.03133360296487808, -0.029341183602809906, -0.02734876424074173, -0.025356344878673553, -0.023363925516605377, -0.0213715061545372, -0.019379086792469025, -0.01738666743040085, -0.015394248068332672, -0.013401828706264496, -0.01140940934419632, -0.009416989982128143, -0.007424570620059967, -0.005432151257991791, -0.0034397318959236145, -0.0014473125338554382, 0.000545106828212738, 0.0025375261902809143, 0.004529945552349091, 0.006522364914417267, 0.008514784276485443, 0.01050720363855362, 0.012499623000621796, 0.014492042362689972, 0.016484461724758148, 0.018476881086826324, 0.0204693004488945, 0.022461719810962677, 0.024454139173030853, 0.02644655853509903, 0.028438977897167206, 0.030431397259235382, 0.03242381662130356, 0.034416235983371735, 0.03640865534543991, 0.03840107470750809, 0.04039349406957626, 0.04238591343164444, 0.044378332793712616, 0.04637075215578079, 0.04836317151784897, 0.050355590879917145, 0.05234801024198532, 0.0543404296040535, 0.056332848966121674, 0.05832526832818985, 0.060317687690258026, 0.0623101070523262, 0.06430252641439438, 0.06629494577646255, 0.06828736513853073]}, "gradients/ImageModel.blocks.4.conv.weight": {"_type": "histogram", "values": [1.0, 0.0, 0.0, 0.0, 0.0, 0.0, 0.0, 0.0, 0.0, 0.0, 2.0, 0.0, 0.0, 0.0, 0.0, 0.0, 0.0, 1.0, 0.0, 0.0, 0.0, 0.0, 0.0, 0.0, 1.0, 0.0, 3.0, 0.0, 2.0, 2.0, 4.0, 1.0, 4.0, 5.0, 7.0, 5.0, 4.0, 8.0, 6.0, 7.0, 9.0, 3.0, 6.0, 1.0, 4.0, 3.0, 2.0, 0.0, 2.0, 1.0, 0.0, 2.0, 2.0, 0.0, 0.0, 0.0, 0.0, 1.0, 0.0, 0.0, 0.0, 0.0, 0.0, 1.0], "bins": [-0.03510007634758949, -0.034155577421188354, -0.033211078494787216, -0.03226657956838608, -0.03132208064198494, -0.03037758357822895, -0.029433084651827812, -0.028488585725426674, -0.027544086799025536, -0.026599589735269547, -0.025655090808868408, -0.02471059188246727, -0.02376609295606613, -0.022821594029664993, -0.021877095103263855, -0.020932596176862717, -0.01998809725046158, -0.01904360018670559, -0.01809910126030445, -0.017154602333903313, -0.016210103407502174, -0.015265604481101036, -0.014321105554699898, -0.013376608490943909, -0.01243210956454277, -0.011487610638141632, -0.010543111711740494, -0.009598612785339355, -0.008654113858938217, -0.007709616795182228, -0.00676511786878109, -0.0058206189423799515, -0.004876120015978813, -0.003931621089577675, -0.002987124025821686, -0.0020426250994205475, -0.0010981261730194092, -0.00015362724661827087, 0.0007908716797828674, 0.0017353706061840057, 0.002679869532585144, 0.0036243684589862823, 0.004568867385387421, 0.005513366311788559, 0.006457865238189697, 0.007402360439300537, 0.008346859365701675, 0.009291358292102814, 0.010235857218503952, 0.01118035614490509, 0.012124855071306229, 0.013069353997707367, 0.014013852924108505, 0.014958351850509644, 0.015902850776910782, 0.01684734970331192, 0.01779184862971306, 0.018736347556114197, 0.019680842757225037, 0.020625341683626175, 0.021569840610027313, 0.02251433953642845, 0.02345883846282959, 0.024403337389230728, 0.025347836315631866]}, "_timestamp": 1582321514.149772, "train_loss": 0.05304340182255346, "gradients/FeatureModel.dnn_layers.5.weight": {"_type": "histogram", "values": [1.0, 0.0, 0.0, 0.0, 0.0, 0.0, 0.0, 0.0, 1.0, 3.0, 0.0, 0.0, 0.0, 1.0, 0.0, 0.0, 0.0, 0.0, 1.0, 0.0, 0.0, 0.0, 0.0, 0.0, 1.0, 0.0, 1.0, 0.0, 2.0, 37.0, 1.0, 1.0, 0.0, 0.0, 2.0, 1.0, 0.0, 0.0, 0.0, 3.0, 0.0, 1.0, 0.0, 0.0, 0.0, 1.0, 0.0, 1.0, 0.0, 0.0, 0.0, 1.0, 2.0, 0.0, 1.0, 0.0, 0.0, 0.0, 0.0, 0.0, 0.0, 0.0, 0.0, 1.0], "bins": [-0.036506664007902145, -0.03528384864330292, -0.03406103327870369, -0.03283821791410446, -0.031615402549505234, -0.030392587184906006, -0.029169773682951927, -0.0279469583183527, -0.02672414295375347, -0.025501327589154243, -0.024278512224555016, -0.023055698722600937, -0.02183288335800171, -0.02061006799340248, -0.019387252628803253, -0.018164437264204025, -0.016941621899604797, -0.01571880653500557, -0.014495991170406342, -0.013273175805807114, -0.012050360441207886, -0.010827546939253807, -0.00960473157465458, -0.008381916210055351, -0.007159100845456123, -0.0059362854808568954, -0.004713471978902817, -0.003490656614303589, -0.002267841249704361, -0.001045025885105133, 0.00017778947949409485, 0.0014006048440933228, 0.0026234202086925507, 0.0038462355732917786, 0.0050690509378910065, 0.006291866302490234, 0.007514681667089462, 0.00873749703168869, 0.009960312396287918, 0.011183127760887146, 0.012405943125486374, 0.013628754764795303, 0.014851570129394531, 0.01607438549399376, 0.017297200858592987, 0.018520016223192215, 0.019742831587791443, 0.02096564695239067, 0.0221884623169899, 0.023411277681589127, 0.024634093046188354, 0.025856908410787582, 0.027079720050096512, 0.028302539139986038, 0.029525350779294968, 0.030748169869184494, 0.03197098150849342, 0.03319380059838295, 0.03441661223769188, 0.035639431327581406, 0.036862242966890335, 0.03808506205677986, 0.03930787369608879, 0.04053069278597832, 0.04175350442528725]}, "gradients/ImageModel.blocks.1.batchnorm.weight": {"_type": "histogram", "values": [1.0, 0.0, 0.0, 0.0, 0.0, 0.0, 0.0, 0.0, 0.0, 0.0, 0.0, 0.0, 0.0, 0.0, 0.0, 0.0, 0.0, 0.0, 0.0, 0.0, 0.0, 0.0, 0.0, 0.0, 0.0, 0.0, 0.0, 0.0, 0.0, 0.0, 0.0, 0.0, 0.0, 0.0, 0.0, 0.0, 0.0, 0.0, 0.0, 0.0, 0.0, 0.0, 0.0, 0.0, 0.0, 0.0, 0.0, 0.0, 0.0, 0.0, 0.0, 0.0, 0.0, 0.0, 0.0, 0.0, 0.0, 0.0, 0.0, 0.0, 0.0, 0.0, 0.0, 24.0], "bins": [-0.0023036226630210876, -0.0022676284424960613, -0.0022316344548016787, -0.002195640467107296, -0.0021596462465822697, -0.0021236520260572433, -0.0020876580383628607, -0.002051664050668478, -0.0020156698301434517, -0.0019796756096184254, -0.0019436816219240427, -0.0019076875178143382, -0.0018716934137046337, -0.0018356993095949292, -0.0017997052054852247, -0.0017637111013755202, -0.0017277169972658157, -0.0016917228931561112, -0.0016557287890464067, -0.0016197346849367023, -0.0015837405808269978, -0.0015477464767172933, -0.0015117523726075888, -0.0014757582684978843, -0.0014397641643881798, -0.0014037700602784753, -0.0013677759561687708, -0.0013317818520590663, -0.0012957877479493618, -0.0012597936438396573, -0.0012237995397299528, -0.0011878054356202483, -0.0011518113315105438, -0.0011158172274008393, -0.0010798231232911348, -0.0010438290191814303, -0.0010078349150717258, -0.0009718408109620214, -0.0009358467068523169, -0.0008998526027426124, -0.0008638584986329079, -0.0008278643945232034, -0.0007918702904134989, -0.0007558761863037944, -0.0007198820821940899, -0.0006838879780843854, -0.0006478938739746809, -0.0006118997698649764, -0.0005759056657552719, -0.0005399115616455674, -0.0005039174575358629, -0.00046792335342615843, -0.00043192924931645393, -0.00039593514520674944, -0.00035994104109704494, -0.0003239470534026623, -0.00028795283287763596, -0.00025195861235260963, -0.00021596462465822697, -0.0001799706369638443, -0.00014397641643881798, -0.00010798219591379166, -7.198820821940899e-05, -3.599422052502632e-05, 0.0]}, "gradients/FeatureModel.dnn_layers.0.bias": {"_type": "histogram", "values": [3.0, 0.0, 0.0, 0.0, 1.0, 2.0, 0.0, 0.0, 1.0, 0.0, 0.0, 0.0, 1.0, 1.0, 0.0, 4.0, 0.0, 3.0, 4.0, 33.0, 2.0, 0.0, 2.0, 2.0, 0.0, 0.0, 2.0, 0.0, 0.0, 0.0, 0.0, 0.0, 0.0, 0.0, 0.0, 0.0, 0.0, 0.0, 1.0, 0.0, 0.0, 0.0, 0.0, 0.0, 0.0, 0.0, 0.0, 0.0, 0.0, 0.0, 0.0, 0.0, 0.0, 0.0, 0.0, 0.0, 0.0, 0.0, 0.0, 0.0, 0.0, 0.0, 1.0, 1.0], "bins": [-0.04156183823943138, -0.03938561677932739, -0.037209395319223404, -0.035033173859119415, -0.03285695239901543, -0.030680730938911438, -0.02850450947880745, -0.02632828801870346, -0.024152066558599472, -0.021975845098495483, -0.019799623638391495, -0.017623402178287506, -0.015447180718183517, -0.013270959258079529, -0.01109473779797554, -0.008918516337871552, -0.006742294877767563, -0.004566073417663574, -0.0023898519575595856, -0.00021363049745559692, 0.0019625909626483917, 0.00413881242275238, 0.006315033882856369, 0.008491255342960358, 0.010667476803064346, 0.012843698263168335, 0.015019919723272324, 0.017196141183376312, 0.0193723626434803, 0.021548587828874588, 0.023724805563688278, 0.02590102329850197, 0.028077248483896255, 0.030253473669290543, 0.03242969140410423, 0.03460590913891792, 0.03678213432431221, 0.0389583595097065, 0.04113457724452019, 0.04331079497933388, 0.045487020164728165, 0.04766324535012245, 0.04983946308493614, 0.05201568081974983, 0.05419190600514412, 0.056368131190538406, 0.0585443489253521, 0.06072056666016579, 0.06289678812026978, 0.06507301330566406, 0.06724923849105835, 0.06942544877529144, 0.07160167396068573, 0.07377789914608002, 0.0759541243314743, 0.0781303346157074, 0.08030655980110168, 0.08248278498649597, 0.08465901017189026, 0.08683522045612335, 0.08901144564151764, 0.09118767082691193, 0.09336388111114502, 0.0955401062965393, 0.0977163314819336]}, "gradients/FeatureModel.dnn_layers.5.bias": {"_type": "histogram", "values": [1.0, 0.0, 0.0, 0.0, 0.0, 1.0, 1.0, 1.0, 1.0, 2.0, 0.0, 0.0, 1.0, 1.0, 0.0, 0.0, 0.0, 0.0, 1.0, 2.0, 0.0, 0.0, 0.0, 0.0, 0.0, 0.0, 1.0, 0.0, 1.0, 0.0, 36.0, 0.0, 0.0, 0.0, 0.0, 0.0, 0.0, 0.0, 2.0, 0.0, 0.0, 0.0, 0.0, 0.0, 0.0, 2.0, 1.0, 1.0, 1.0, 1.0, 0.0, 0.0, 0.0, 1.0, 0.0, 0.0, 0.0, 1.0, 1.0, 0.0, 0.0, 0.0, 0.0, 3.0], "bins": [-0.014482364989817142, -0.014000101014971733, -0.013517837040126324, -0.013035573065280914, -0.01255330815911293, -0.012071044184267521, -0.011588780209422112, -0.011106516234576702, -0.010624252259731293, -0.010141987353563309, -0.0096597233787179, -0.00917745940387249, -0.00869519542902708, -0.008212931454181671, -0.0077306670136749744, -0.007248402573168278, -0.006766138598322868, -0.006283874623477459, -0.0058016106486320496, -0.0053193457424640656, -0.004837081767618656, -0.004354817792773247, -0.0038725538179278374, -0.003390289843082428, -0.0029080258682370186, -0.0024257609620690346, -0.0019434969872236252, -0.0014612330123782158, -0.0009789690375328064, -0.000496705062687397, -1.4440156519412994e-05, 0.0004678238183259964, 0.0009500877931714058, 0.0014323526993393898, 0.0019146157428622246, 0.0023968806490302086, 0.0028791436925530434, 0.0033614085987210274, 0.0038436735048890114, 0.004325936548411846, 0.00480820145457983, 0.005290464498102665, 0.005772729404270649, 0.006254994310438633, 0.006737257353961468, 0.007219522260129452, 0.0077017853036522865, 0.00818405020982027, 0.008666313253343105, 0.00914857815951109, 0.009630843065679073, 0.010113106109201908, 0.010595371015369892, 0.011077634058892727, 0.011559898965060711, 0.012042163871228695, 0.01252442691475153, 0.013006691820919514, 0.013488954864442348, 0.013971219770610332, 0.014453484676778316, 0.014935747720301151, 0.015418012626469135, 0.015900276601314545, 0.01638254150748253]}, "gradients/ImageModel.blocks.1.conv.weight": {"_type": "histogram", "values": [1.0, 0.0, 0.0, 0.0, 0.0, 0.0, 0.0, 0.0, 0.0, 0.0, 0.0, 1.0, 0.0, 1.0, 0.0, 1.0, 1.0, 0.0, 0.0, 1.0, 1.0, 0.0, 0.0, 0.0, 3.0, 2.0, 2.0, 4.0, 0.0, 1.0, 0.0, 4.0, 28720.0, 41.0, 2.0, 1.0, 1.0, 1.0, 1.0, 0.0, 0.0, 0.0, 0.0, 0.0, 3.0, 1.0, 0.0, 0.0, 0.0, 1.0, 0.0, 0.0, 0.0, 0.0, 2.0, 0.0, 0.0, 0.0, 0.0, 1.0, 0.0, 1.0, 0.0, 1.0], "bins": [-0.004845417104661465, -0.004698173608630896, -0.0045509301126003265, -0.004403687082231045, -0.004256443586200476, -0.004109200090169907, -0.0039619565941393375, -0.0038147130981087685, -0.0036674696020781994, -0.003520226338878274, -0.003372982842847705, -0.0032257395796477795, -0.0030784960836172104, -0.0029312525875866413, -0.0027840090915560722, -0.002636765828356147, -0.0024895223323255777, -0.0023422788362950087, -0.0021950355730950832, -0.002047792077064514, -0.001900548581033945, -0.0017533053178340197, -0.0016060618218034506, -0.0014588183257728815, -0.001311575062572956, -0.001164331566542387, -0.001017088070511818, -0.0008698445744812489, -0.0007226010784506798, -0.000575358048081398, -0.00042811455205082893, -0.00028087105602025986, -0.00013362755998969078, 1.3615936040878296e-05, 0.00016085943207144737, 0.00030810292810201645, 0.0004553459584712982, 0.0006025894545018673, 0.0007498329505324364, 0.0008970764465630054, 0.0010443199425935745, 0.0011915634386241436, 0.0013388064689934254, 0.0014860499650239944, 0.0016332934610545635, 0.0017805369570851326, 0.0019277804531157017, 0.0020750239491462708, 0.0022222669795155525, 0.0023695104755461216, 0.0025167539715766907, 0.0026639974676072598, 0.002811240963637829, 0.002958484459668398, 0.003105727955698967, 0.0032529709860682487, 0.003400214947760105, 0.003547457978129387, 0.0036947010084986687, 0.003841944970190525, 0.003989188000559807, 0.004136431962251663, 0.004283674992620945, 0.004430918954312801, 0.004578161984682083]}, "gradients/nn2.3.weight": {"_type": "histogram", "values": [1.0, 0.0, 0.0, 0.0, 0.0, 0.0, 1.0, 0.0, 0.0, 0.0, 0.0, 0.0, 0.0, 0.0, 0.0, 1.0, 0.0, 1.0, 1.0, 1.0, 1.0, 0.0, 0.0, 0.0, 0.0, 5.0, 1.0, 1.0, 0.0, 0.0, 0.0, 0.0, 0.0, 0.0, 0.0, 0.0, 0.0, 0.0, 0.0, 0.0, 1.0, 0.0, 0.0, 0.0, 0.0, 0.0, 0.0, 0.0, 0.0, 0.0, 0.0, 0.0, 0.0, 0.0, 0.0, 0.0, 0.0, 0.0, 0.0, 0.0, 0.0, 0.0, 0.0, 1.0], "bins": [-0.06761173903942108, -0.06497623771429062, -0.062340740114450455, -0.05970524251461029, -0.05706974118947983, -0.054434243589639664, -0.0517987459897995, -0.04916324466466904, -0.04652774706482887, -0.04389224946498871, -0.041256748139858246, -0.03862125054001808, -0.03598575294017792, -0.033350251615047455, -0.03071475401520729, -0.028079252690076828, -0.025443755090236664, -0.0228082574903965, -0.020172756165266037, -0.017537258565425873, -0.01490175724029541, -0.012266259640455246, -0.009630762040615082, -0.006995260715484619, -0.004359766840934753, -0.0017242655158042908, 0.0009112358093261719, 0.0035467371344566345, 0.0061822310090065, 0.008817732334136963, 0.011453233659267426, 0.014088727533817291, 0.016724228858947754, 0.019359730184078217, 0.021995224058628082, 0.024630725383758545, 0.027266226708889008, 0.029901720583438873, 0.032537221908569336, 0.0351727232336998, 0.03780822455883026, 0.04044371843338013, 0.04307921975851059, 0.04571472108364105, 0.04835021495819092, 0.05098571628332138, 0.05362121760845184, 0.05625671148300171, 0.058892205357551575, 0.061527714133262634, 0.0641632080078125, 0.06679871678352356, 0.06943421065807343, 0.07206970453262329, 0.07470521330833435, 0.07734070718288422, 0.07997620105743408, 0.08261170983314514, 0.08524720370769501, 0.08788269758224487, 0.09051820635795593, 0.0931537002325058, 0.09578919410705566, 0.09842470288276672, 0.10106019675731659]}, "gradients/FeatureModel.dnn_layers.0.weight": {"_type": "histogram", "values": [2.0, 0.0, 0.0, 0.0, 0.0, 0.0, 0.0, 0.0, 0.0, 0.0, 0.0, 2.0, 0.0, 0.0, 0.0, 1.0, 0.0, 0.0, 3.0, 0.0, 2.0, 3.0, 0.0, 4.0, 7.0, 2.0, 7.0, 9.0, 3.0, 11.0, 9.0, 14.0, 20.0, 31.0, 355.0, 21.0, 16.0, 6.0, 9.0, 6.0, 5.0, 3.0, 0.0, 2.0, 4.0, 1.0, 5.0, 3.0, 2.0, 2.0, 2.0, 0.0, 0.0, 1.0, 0.0, 0.0, 0.0, 0.0, 1.0, 0.0, 0.0, 0.0, 0.0, 2.0], "bins": [-0.16138318181037903, -0.15668684244155884, -0.15199050307273865, -0.14729416370391846, -0.14259782433509827, -0.13790148496627808, -0.13320514559745789, -0.1285087913274765, -0.12381245195865631, -0.11911611258983612, -0.11441977322101593, -0.10972343385219574, -0.10502709448337555, -0.10033075511455536, -0.09563440829515457, -0.09093806892633438, -0.08624172955751419, -0.081545390188694, -0.07684905081987381, -0.07215270400047302, -0.06745636463165283, -0.06276002526283264, -0.05806368589401245, -0.05336734652519226, -0.04867100715637207, -0.04397466033697128, -0.03927832096815109, -0.034581974148750305, -0.029885634779930115, -0.025189295411109924, -0.020492956042289734, -0.015796616673469543, -0.011100277304649353, -0.006403937935829163, -0.0017075985670089722, 0.0029887408018112183, 0.007685080170631409, 0.012381419539451599, 0.017077773809432983, 0.021774113178253174, 0.026470452547073364, 0.031166791915893555, 0.035863131284713745, 0.040559470653533936, 0.045255810022354126, 0.049952149391174316, 0.05464848875999451, 0.0593448281288147, 0.06404116749763489, 0.06873752176761627, 0.07343386113643646, 0.07813020050525665, 0.08282653987407684, 0.08752287924289703, 0.09221923351287842, 0.09691557288169861, 0.1016119122505188, 0.10630825161933899, 0.11100459098815918, 0.11570093035697937, 0.12039726972579956, 0.12509360909461975, 0.12978994846343994, 0.13448628783226013, 0.13918262720108032]}, "gradients/ImageModel.Z.weight": {"_type": "histogram", "values": [1.0, 0.0, 0.0, 0.0, 0.0, 0.0, 0.0, 0.0, 0.0, 0.0, 0.0, 0.0, 0.0, 0.0, 1.0, 0.0, 1.0, 0.0, 0.0, 0.0, 1.0, 0.0, 0.0, 1.0, 0.0, 0.0, 0.0, 0.0, 0.0, 0.0, 0.0, 0.0, 0.0, 0.0, 1.0, 0.0, 2.0, 0.0, 0.0, 0.0, 1.0, 1.0, 1.0, 1.0, 0.0, 1.0, 0.0, 0.0, 0.0, 0.0, 1.0, 1.0, 0.0, 0.0, 0.0, 0.0, 0.0, 0.0, 0.0, 0.0, 0.0, 0.0, 0.0, 1.0], "bins": [-0.037275105714797974, -0.03632541373372078, -0.035375721752643585, -0.03442602604627609, -0.0334763340651989, -0.032526642084121704, -0.03157694637775421, -0.030627254396677017, -0.029677562415599823, -0.02872787043452263, -0.027778176590800285, -0.026828482747077942, -0.025878790766000748, -0.024929098784923553, -0.02397940494120121, -0.023029711097478867, -0.022080019116401672, -0.021130327135324478, -0.020180633291602135, -0.01923093944787979, -0.018281247466802597, -0.017331555485725403, -0.01638186164200306, -0.015432167798280716, -0.014482475817203522, -0.013532783836126328, -0.012583089992403984, -0.01163339614868164, -0.010683704167604446, -0.009734012186527252, -0.008784318342804909, -0.007834624499082565, -0.006884932518005371, -0.005935240536928177, -0.004985548555850983, -0.00403585284948349, -0.0030861608684062958, -0.0021364688873291016, -0.0011867731809616089, -0.00023708119988441467, 0.0007126107811927795, 0.0016623027622699738, 0.002611994743347168, 0.0035616904497146606, 0.004511382430791855, 0.005461074411869049, 0.006410770118236542, 0.007360462099313736, 0.00831015408039093, 0.009259846061468124, 0.010209538042545319, 0.011159233748912811, 0.012108925729990005, 0.0130586177110672, 0.014008313417434692, 0.014958005398511887, 0.01590769737958908, 0.016857389360666275, 0.01780708134174347, 0.018756777048110962, 0.019706469029188156, 0.02065616101026535, 0.021605856716632843, 0.022555548697710037, 0.02350524067878723]}, "gradients/ImageModel.blocks.3.batchnorm.bias": {"_type": "histogram", "values": [1.0, 0.0, 0.0, 0.0, 0.0, 0.0, 0.0, 0.0, 0.0, 0.0, 0.0, 0.0, 0.0, 0.0, 0.0, 0.0, 1.0, 0.0, 0.0, 0.0, 0.0, 0.0, 0.0, 0.0, 0.0, 0.0, 0.0, 0.0, 0.0, 0.0, 0.0, 0.0, 0.0, 0.0, 0.0, 0.0, 0.0, 0.0, 0.0, 1.0, 0.0, 0.0, 0.0, 0.0, 0.0, 0.0, 0.0, 0.0, 0.0, 0.0, 1.0, 0.0, 0.0, 0.0, 0.0, 0.0, 0.0, 0.0, 0.0, 0.0, 0.0, 0.0, 0.0, 1.0], "bins": [9.108521044254303e-05, 0.00013844089698977768, 0.00018579658353701234, 0.000233152270084247, 0.00028050795663148165, 0.0003278636431787163, 0.00037521932972595096, 0.0004225750162731856, 0.00046993070282042027, 0.0005172863602638245, 0.0005646420759148896, 0.0006119977915659547, 0.0006593534490093589, 0.0007067091064527631, 0.0007540648221038282, 0.0008014205377548933, 0.0008487761951982975, 0.0008961318526417017, 0.0009434875682927668, 0.000990843283943832, 0.0010381989413872361, 0.0010855545988306403, 0.0011329103726893663, 0.0011802660301327705, 0.0012276216875761747, 0.001274977345019579, 0.0013223330024629831, 0.0013696887763217092, 0.0014170444337651134, 0.0014644000912085176, 0.0015117558650672436, 0.0015591115225106478, 0.001606467179954052, 0.0016538228373974562, 0.0017011784948408604, 0.0017485342686995864, 0.0017958899261429906, 0.0018432455835863948, 0.0018906013574451208, 0.001937957014888525, 0.001985312672331929, 0.0020326683297753334, 0.0020800239872187376, 0.002127379644662142, 0.0021747355349361897, 0.002222091192379594, 0.002269446849822998, 0.0023168025072664022, 0.0023641581647098064, 0.0024115138221532106, 0.002458869479596615, 0.002506225137040019, 0.0025535807944834232, 0.002600936684757471, 0.0026482923422008753, 0.0026956479996442795, 0.0027430036570876837, 0.002790359314531088, 0.002837714971974492, 0.0028850706294178963, 0.002932426519691944, 0.0029797821771353483, 0.0030271378345787525, 0.0030744934920221567, 0.003121849149465561]}, "gradients/ImageModel.blocks.5.conv.bias": {"_type": "histogram", "values": [0.0, 0.0, 0.0, 0.0, 0.0, 0.0, 0.0, 0.0, 0.0, 0.0, 0.0, 0.0, 0.0, 0.0, 0.0, 0.0, 0.0, 0.0, 0.0, 0.0, 0.0, 0.0, 0.0, 0.0, 0.0, 0.0, 0.0, 0.0, 0.0, 0.0, 0.0, 0.0, 1.0, 0.0, 0.0, 0.0, 0.0, 0.0, 0.0, 0.0, 0.0, 0.0, 0.0, 0.0, 0.0, 0.0, 0.0, 0.0, 0.0, 0.0, 0.0, 0.0, 0.0, 0.0, 0.0, 0.0, 0.0, 0.0, 0.0, 0.0, 0.0, 0.0, 0.0, 0.0], "bins": [0.005900043994188309, 0.005900043994188309, 0.005900043994188309, 0.005900043994188309, 0.005900043994188309, 0.005900043994188309, 0.005900043994188309, 0.005900043994188309, 0.005900043994188309, 0.005900043994188309, 0.005900043994188309, 0.005900043994188309, 0.005900043994188309, 0.005900043994188309, 0.005900043994188309, 0.005900043994188309, 0.005900043994188309, 0.005900043994188309, 0.005900043994188309, 0.005900043994188309, 0.005900043994188309, 0.005900043994188309, 0.005900043994188309, 0.005900043994188309, 0.005900043994188309, 0.005900043994188309, 0.005900043994188309, 0.005900043994188309, 0.005900043994188309, 0.005900043994188309, 0.005900043994188309, 0.005900043994188309, 0.005900043994188309, 0.005900043994188309, 0.005900043994188309, 0.005900043994188309, 0.005900043994188309, 0.005900043994188309, 0.005900043994188309, 0.005900043994188309, 0.005900043994188309, 0.005900043994188309, 0.005900043994188309, 0.005900043994188309, 0.005900043994188309, 0.005900043994188309, 0.005900043994188309, 0.005900043994188309, 0.005900043994188309, 0.005900043994188309, 0.005900043994188309, 0.005900043994188309, 0.005900043994188309, 0.005900043994188309, 0.005900043994188309, 0.005900043994188309, 0.005900043994188309, 0.005900043994188309, 0.005900043994188309, 0.005900043994188309, 0.005900043994188309, 0.005900043994188309, 0.005900043994188309, 0.005900043994188309, 0.005900043994188309]}, "gradients/nn2.3.bias": {"_type": "histogram", "values": [0.0, 0.0, 0.0, 0.0, 0.0, 0.0, 0.0, 0.0, 0.0, 0.0, 0.0, 0.0, 0.0, 0.0, 0.0, 0.0, 0.0, 0.0, 0.0, 0.0, 0.0, 0.0, 0.0, 0.0, 0.0, 0.0, 0.0, 0.0, 0.0, 0.0, 0.0, 0.0, 1.0, 0.0, 0.0, 0.0, 0.0, 0.0, 0.0, 0.0, 0.0, 0.0, 0.0, 0.0, 0.0, 0.0, 0.0, 0.0, 0.0, 0.0, 0.0, 0.0, 0.0, 0.0, 0.0, 0.0, 0.0, 0.0, 0.0, 0.0, 0.0, 0.0, 0.0, 0.0], "bins": [-0.06426061689853668, -0.06426061689853668, -0.06426061689853668, -0.06426061689853668, -0.06426061689853668, -0.06426061689853668, -0.06426061689853668, -0.06426061689853668, -0.06426061689853668, -0.06426061689853668, -0.06426061689853668, -0.06426061689853668, -0.06426061689853668, -0.06426061689853668, -0.06426061689853668, -0.06426061689853668, -0.06426061689853668, -0.06426061689853668, -0.06426061689853668, -0.06426061689853668, -0.06426061689853668, -0.06426061689853668, -0.06426061689853668, -0.06426061689853668, -0.06426061689853668, -0.06426061689853668, -0.06426061689853668, -0.06426061689853668, -0.06426061689853668, -0.06426061689853668, -0.06426061689853668, -0.06426061689853668, -0.06426061689853668, -0.06426061689853668, -0.06426061689853668, -0.06426061689853668, -0.06426061689853668, -0.06426061689853668, -0.06426061689853668, -0.06426061689853668, -0.06426061689853668, -0.06426061689853668, -0.06426061689853668, -0.06426061689853668, -0.06426061689853668, -0.06426061689853668, -0.06426061689853668, -0.06426061689853668, -0.06426061689853668, -0.06426061689853668, -0.06426061689853668, -0.06426061689853668, -0.06426061689853668, -0.06426061689853668, -0.06426061689853668, -0.06426061689853668, -0.06426061689853668, -0.06426061689853668, -0.06426061689853668, -0.06426061689853668, -0.06426061689853668, -0.06426061689853668, -0.06426061689853668, -0.06426061689853668, -0.06426061689853668]}, "gradients/ImageModel.blocks.1.batchnorm.bias": {"_type": "histogram", "values": [1.0, 23.0, 0.0, 0.0, 0.0, 0.0, 0.0, 0.0, 0.0, 0.0, 0.0, 0.0, 0.0, 0.0, 0.0, 0.0, 0.0, 0.0, 0.0, 0.0, 0.0, 0.0, 0.0, 0.0, 0.0, 0.0, 0.0, 0.0, 0.0, 0.0, 0.0, 0.0, 0.0, 0.0, 0.0, 0.0, 0.0, 0.0, 0.0, 0.0, 0.0, 0.0, 0.0, 0.0, 0.0, 0.0, 0.0, 0.0, 0.0, 0.0, 0.0, 0.0, 0.0, 0.0, 0.0, 0.0, 0.0, 0.0, 0.0, 0.0, 0.0, 0.0, 0.0, 1.0], "bins": [-0.00027258641785010695, -4.14310343330726e-05, 0.00018972434918396175, 0.00042087974725291133, 0.0006520351162180305, 0.0008831904851831496, 0.0011143458541482687, 0.0013455012813210487, 0.0015766567084938288, 0.0018078119028359652, 0.002038967330008745, 0.0022701227571815252, 0.0025012781843543053, 0.0027324336115270853, 0.0029635888058692217, 0.0031947442330420017, 0.0034258996602147818, 0.003657055087387562, 0.003888210281729698, 0.004119365941733122, 0.004350521136075258, 0.004581676796078682, 0.004812831990420818, 0.005043987184762955, 0.005275142844766378, 0.005506298039108515, 0.0057374536991119385, 0.005968608893454075, 0.006199764087796211, 0.006430919747799635, 0.006662074942141771, 0.006893230602145195, 0.007124385796487331, 0.007355540990829468, 0.0075866966508328915, 0.007817852310836315, 0.008049007505178452, 0.008280163630843163, 0.008511318825185299, 0.008742474019527435, 0.008973629213869572, 0.009204784408211708, 0.009435940533876419, 0.009667095728218555, 0.009898250922560692, 0.010129406116902828, 0.010360561311244965, 0.010591717436909676, 0.010822872631251812, 0.011054027825593948, 0.011285183019936085, 0.011516338214278221, 0.011747494339942932, 0.011978649534285069, 0.012209804728627205, 0.012440959922969341, 0.012672115117311478, 0.012903271242976189, 0.013134426437318325, 0.013365581631660461, 0.013596736826002598, 0.013827892020344734, 0.014059048146009445, 0.014290203340351582, 0.014521358534693718]}, "gradients/ImageModel.blocks.4.batchnorm.weight": {"_type": "histogram", "values": [1.0, 0.0, 0.0, 0.0, 0.0, 0.0, 0.0, 0.0, 0.0, 0.0, 0.0, 0.0, 0.0, 0.0, 0.0, 0.0, 0.0, 0.0, 0.0, 0.0, 0.0, 0.0, 0.0, 0.0, 0.0, 0.0, 1.0, 0.0, 0.0, 0.0, 0.0, 0.0, 0.0, 0.0, 0.0, 0.0, 0.0, 0.0, 0.0, 0.0, 1.0, 0.0, 0.0, 0.0, 0.0, 0.0, 0.0, 0.0, 0.0, 0.0, 0.0, 1.0, 0.0, 0.0, 0.0, 0.0, 0.0, 0.0, 0.0, 0.0, 0.0, 0.0, 0.0, 1.0], "bins": [-0.023135920986533165, -0.02249031513929367, -0.021844707429409027, -0.021199101582169533, -0.02055349387228489, -0.019907888025045395, -0.01926228031516075, -0.018616674467921257, -0.017971068620681763, -0.01732546091079712, -0.016679855063557625, -0.01603424921631813, -0.015388641506433487, -0.014743034727871418, -0.014097428880631924, -0.013451822102069855, -0.012806215323507786, -0.012160608544945717, -0.011515001766383648, -0.010869395919144154, -0.010223789140582085, -0.009578182362020016, -0.008932575583457947, -0.008286968804895878, -0.007641362026333809, -0.006995756179094315, -0.006350148469209671, -0.005704542621970177, -0.005058936774730682, -0.004413329064846039, -0.0037677232176065445, -0.003122115507721901, -0.0024765096604824066, -0.0018309038132429123, -0.0011852961033582687, -0.0005396902561187744, 0.00010591745376586914, 0.0007515233010053635, 0.0013971291482448578, 0.0020427368581295013, 0.0026883427053689957, 0.0033339504152536392, 0.0039795562624931335, 0.004625162109732628, 0.005270769819617271, 0.005916375666856766, 0.006561983376741409, 0.007207589223980904, 0.007853196933865547, 0.008498800918459892, 0.009144408628344536, 0.00979001633822918, 0.010435624048113823, 0.011081228032708168, 0.011726835742592812, 0.012372443452477455, 0.0130180474370718, 0.013663655146956444, 0.014309262856841087, 0.014954866841435432, 0.015600474551320076, 0.01624608226120472, 0.016891689971089363, 0.017537293955683708, 0.018182901665568352]}, "gradients/ImageModel.blocks.3.conv.bias": {"_type": "histogram", "values": [1.0, 0.0, 0.0, 0.0, 0.0, 0.0, 0.0, 0.0, 0.0, 0.0, 0.0, 0.0, 0.0, 0.0, 0.0, 0.0, 0.0, 0.0, 0.0, 0.0, 0.0, 0.0, 0.0, 0.0, 0.0, 0.0, 0.0, 0.0, 0.0, 0.0, 0.0, 0.0, 0.0, 0.0, 0.0, 0.0, 0.0, 0.0, 0.0, 0.0, 0.0, 0.0, 0.0, 0.0, 0.0, 0.0, 0.0, 0.0, 0.0, 0.0, 0.0, 0.0, 0.0, 0.0, 0.0, 0.0, 0.0, 0.0, 0.0, 0.0, 0.0, 0.0, 0.0, 4.0], "bins": [-0.009940764866769314, -0.009785161353647709, -0.00962955690920353, -0.009473953396081924, -0.00931834988296032, -0.009162746369838715, -0.009007141925394535, -0.00885153841227293, -0.008695934899151325, -0.008540330454707146, -0.00838472694158554, -0.008229123428463936, -0.008073519915342331, -0.007917915470898151, -0.0077623119577765465, -0.0076067084446549416, -0.007451104465872049, -0.007295500487089157, -0.007139896973967552, -0.006984293460845947, -0.006828689482063055, -0.006673085503280163, -0.006517481990158558, -0.006361878011375666, -0.0062062740325927734, -0.0060506705194711685, -0.005895066540688276, -0.005739463027566671, -0.005583859048783779, -0.005428255535662174, -0.005272651556879282, -0.005117048043757677, -0.004961444064974785, -0.004805840086191893, -0.004650236573070288, -0.0044946325942873955, -0.0043390290811657906, -0.004183425102382898, -0.004027821589261293, -0.003872217610478401, -0.0037166140973567963, -0.003561010118573904, -0.003405406139791012, -0.003249802626669407, -0.0030941986478865147, -0.0029385951347649097, -0.0027829911559820175, -0.0026273876428604126, -0.0024717836640775204, -0.002316179685294628, -0.0021605761721730232, -0.0020049726590514183, -0.0018493682146072388, -0.0016937647014856339, -0.001538161188364029, -0.001382557675242424, -0.0012269532307982445, -0.0010713497176766396, -0.0009157462045550346, -0.0007601417601108551, -0.0006045382469892502, -0.00044893473386764526, -0.00029333122074604034, -0.0001377267763018608, 1.787673681974411e-05]}, "gradients/ImageModel.blocks.5.batchnorm.weight": {"_type": "histogram", "values": [0.0, 0.0, 0.0, 0.0, 0.0, 0.0, 0.0, 0.0, 0.0, 0.0, 0.0, 0.0, 0.0, 0.0, 0.0, 0.0, 0.0, 0.0, 0.0, 0.0, 0.0, 0.0, 0.0, 0.0, 0.0, 0.0, 0.0, 0.0, 0.0, 0.0, 0.0, 0.0, 1.0, 0.0, 0.0, 0.0, 0.0, 0.0, 0.0, 0.0, 0.0, 0.0, 0.0, 0.0, 0.0, 0.0, 0.0, 0.0, 0.0, 0.0, 0.0, 0.0, 0.0, 0.0, 0.0, 0.0, 0.0, 0.0, 0.0, 0.0, 0.0, 0.0, 0.0, 0.0], "bins": [-0.025283338502049446, -0.025283338502049446, -0.025283338502049446, -0.025283338502049446, -0.025283338502049446, -0.025283338502049446, -0.025283338502049446, -0.025283338502049446, -0.025283338502049446, -0.025283338502049446, -0.025283338502049446, -0.025283338502049446, -0.025283338502049446, -0.025283338502049446, -0.025283338502049446, -0.025283338502049446, -0.025283338502049446, -0.025283338502049446, -0.025283338502049446, -0.025283338502049446, -0.025283338502049446, -0.025283338502049446, -0.025283338502049446, -0.025283338502049446, -0.025283338502049446, -0.025283338502049446, -0.025283338502049446, -0.025283338502049446, -0.025283338502049446, -0.025283338502049446, -0.025283338502049446, -0.025283338502049446, -0.025283338502049446, -0.025283338502049446, -0.025283338502049446, -0.025283338502049446, -0.025283338502049446, -0.025283338502049446, -0.025283338502049446, -0.025283338502049446, -0.025283338502049446, -0.025283338502049446, -0.025283338502049446, -0.025283338502049446, -0.025283338502049446, -0.025283338502049446, -0.025283338502049446, -0.025283338502049446, -0.025283338502049446, -0.025283338502049446, -0.025283338502049446, -0.025283338502049446, -0.025283338502049446, -0.025283338502049446, -0.025283338502049446, -0.025283338502049446, -0.025283338502049446, -0.025283338502049446, -0.025283338502049446, -0.025283338502049446, -0.025283338502049446, -0.025283338502049446, -0.025283338502049446, -0.025283338502049446, -0.025283338502049446]}}
