{"graph_0": {"_type": "graph-file", "path": "media/graph/graph_0_summary_61640c99.graph.json", "sha256": "61640c99cc1f091505ea17e2a617feeac1b284e10831001b6a78e88123e0699a", "size": 5111}, "gradients/FeatureModel.dnn_layers.3.bias": {"_type": "histogram", "values": [1.0, 0.0, 1.0, 0.0, 1.0, 0.0, 1.0, 0.0, 1.0, 0.0, 0.0, 0.0, 2.0, 0.0, 0.0, 0.0, 0.0, 2.0, 0.0, 0.0, 0.0, 1.0, 102.0, 1.0, 1.0, 0.0, 1.0, 2.0, 0.0, 1.0, 0.0, 1.0, 1.0, 1.0, 1.0, 0.0, 0.0, 0.0, 0.0, 0.0, 0.0, 0.0, 0.0, 0.0, 0.0, 2.0, 0.0, 0.0, 0.0, 1.0, 0.0, 1.0, 0.0, 0.0, 0.0, 0.0, 0.0, 0.0, 1.0, 0.0, 0.0, 0.0, 0.0, 1.0], "bins": [-0.08877311646938324, -0.08487241715192795, -0.08097171038389206, -0.07707101106643677, -0.07317030429840088, -0.06926960498094559, -0.0653688982129097, -0.06146819889545441, -0.05756749212741852, -0.053666792809963226, -0.049766089767217636, -0.045865386724472046, -0.041964683681726456, -0.038063980638980865, -0.034163277596235275, -0.030262574553489685, -0.026361871510744095, -0.022461168467998505, -0.018560469150543213, -0.014659762382507324, -0.010759063065052032, -0.006858356297016144, -0.002957656979560852, 0.0009430497884750366, 0.004843749105930328, 0.008744455873966217, 0.012645155191421509, 0.016545861959457397, 0.02044656127691269, 0.024347268044948578, 0.02824796736240387, 0.03214867413043976, 0.03604937344789505, 0.03995007276535034, 0.04385077953338623, 0.04775148630142212, 0.051652178168296814, 0.0555528849363327, 0.05945359170436859, 0.06335429847240448, 0.06725499033927917, 0.07115569710731506, 0.07505640387535095, 0.07895711064338684, 0.08285780251026154, 0.08675850927829742, 0.09065921604633331, 0.0945599228143692, 0.0984606146812439, 0.10236132144927979, 0.10626202821731567, 0.11016272008419037, 0.11406342685222626, 0.11796413362026215, 0.12186484038829803, 0.12576553225517273, 0.12966623902320862, 0.1335669457912445, 0.1374676525592804, 0.1413683444261551, 0.14526905119419098, 0.14916975796222687, 0.15307046473026276, 0.15697115659713745, 0.16087186336517334]}, "gradients/nn2.3.weight": {"_type": "histogram", "values": [1.0, 0.0, 0.0, 0.0, 0.0, 0.0, 0.0, 0.0, 0.0, 0.0, 0.0, 0.0, 0.0, 0.0, 0.0, 0.0, 0.0, 0.0, 0.0, 0.0, 0.0, 0.0, 0.0, 1.0, 0.0, 6.0, 0.0, 0.0, 0.0, 1.0, 1.0, 0.0, 1.0, 1.0, 1.0, 0.0, 0.0, 1.0, 0.0, 0.0, 0.0, 0.0, 0.0, 0.0, 0.0, 0.0, 0.0, 0.0, 0.0, 0.0, 0.0, 0.0, 0.0, 0.0, 1.0, 0.0, 0.0, 0.0, 0.0, 0.0, 0.0, 0.0, 0.0, 1.0], "bins": [-0.03807231783866882, -0.036574915051460266, -0.03507751226425171, -0.03358011320233345, -0.03208271041512489, -0.030585307627916336, -0.02908790484070778, -0.02759050391614437, -0.026093102991580963, -0.024595700204372406, -0.02309829741716385, -0.02160089649260044, -0.020103493705391884, -0.018606092780828476, -0.01710868999361992, -0.015611289069056511, -0.014113886281847954, -0.012616483494639397, -0.011119082570075989, -0.009621679782867432, -0.008124278858304024, -0.006626877933740616, -0.005129475146532059, -0.0036320723593235016, -0.0021346695721149445, -0.0006372667849063873, 0.0008601322770118713, 0.0023575350642204285, 0.0038549378514289856, 0.005352340638637543, 0.006849739700555801, 0.008347142487764359, 0.009844545274972916, 0.011341948062181473, 0.01283935084939003, 0.014336749911308289, 0.015834152698516846, 0.017331555485725403, 0.01882895827293396, 0.02032635733485222, 0.021823760122060776, 0.023321162909269333, 0.02481856197118759, 0.02631596475839615, 0.027813367545604706, 0.029310770332813263, 0.03080817312002182, 0.03230557590723038, 0.033802978694438934, 0.03530038148164749, 0.03679778426885605, 0.03829517960548401, 0.039792582392692566, 0.04128998517990112, 0.04278738796710968, 0.04428479075431824, 0.045782193541526794, 0.04727959632873535, 0.04877699911594391, 0.050274401903152466, 0.051771797239780426, 0.05326920002698898, 0.05476660281419754, 0.0562640056014061, 0.057761408388614655]}, "gradients/ImageModel.blocks.4.batchnorm.bias": {"_type": "histogram", "values": [1.0, 0.0, 0.0, 1.0, 0.0, 0.0, 0.0, 0.0, 0.0, 0.0, 0.0, 0.0, 0.0, 0.0, 0.0, 0.0, 0.0, 0.0, 0.0, 0.0, 0.0, 0.0, 0.0, 0.0, 0.0, 0.0, 0.0, 0.0, 1.0, 0.0, 0.0, 0.0, 0.0, 0.0, 0.0, 0.0, 0.0, 0.0, 0.0, 0.0, 0.0, 0.0, 0.0, 0.0, 0.0, 0.0, 0.0, 0.0, 0.0, 0.0, 0.0, 0.0, 0.0, 0.0, 1.0, 0.0, 0.0, 0.0, 0.0, 0.0, 0.0, 0.0, 0.0, 1.0], "bins": [-0.0004416145384311676, -0.000426377693656832, -0.00041114084888249636, -0.00039590400410816073, -0.0003806671593338251, -0.0003654303145594895, -0.00035019346978515387, -0.00033495662501081824, -0.0003197197802364826, -0.000304482935462147, -0.0002892460906878114, -0.00027400924591347575, -0.00025877240113914013, -0.0002435355563648045, -0.00022829871159046888, -0.00021306186681613326, -0.00019782502204179764, -0.00018258817726746202, -0.0001673513324931264, -0.00015211448771879077, -0.00013687764294445515, -0.00012164079817011952, -0.0001064039533957839, -9.116710862144828e-05, -7.593026384711266e-05, -6.069341907277703e-05, -4.545657429844141e-05, -3.0219729524105787e-05, -1.4982884749770164e-05, 2.539600245654583e-07, 1.549080479890108e-05, 3.0727649573236704e-05, 4.596449434757233e-05, 6.120133912190795e-05, 7.643818389624357e-05, 9.16750286705792e-05, 0.00010691187344491482, 0.00012214871821925044, 0.00013738556299358606, 0.00015262240776792169, 0.0001678592525422573, 0.00018309609731659293, 0.00019833294209092855, 0.00021356978686526418, 0.0002288066316395998, 0.00024404347641393542, 0.00025928032118827105, 0.00027451716596260667, 0.0002897540107369423, 0.0003049908555112779, 0.00032022770028561354, 0.00033546454505994916, 0.0003507013898342848, 0.0003659382346086204, 0.00038117507938295603, 0.00039641192415729165, 0.0004116487689316273, 0.0004268856137059629, 0.0004421224584802985, 0.00045735930325463414, 0.00047259614802896976, 0.0004878329928033054, 0.000503069837577641, 0.0005183066823519766, 0.0005335435271263123]}, "gradients/FeatureModel.dnn_layers.0.bias": {"_type": "histogram", "values": [4.0, 1.0, 1.0, 0.0, 1.0, 0.0, 2.0, 5.0, 103.0, 1.0, 1.0, 1.0, 1.0, 0.0, 0.0, 1.0, 1.0, 1.0, 0.0, 1.0, 1.0, 0.0, 0.0, 0.0, 0.0, 0.0, 0.0, 0.0, 0.0, 0.0, 0.0, 0.0, 0.0, 0.0, 0.0, 0.0, 0.0, 0.0, 0.0, 0.0, 0.0, 0.0, 0.0, 0.0, 0.0, 0.0, 0.0, 0.0, 0.0, 0.0, 0.0, 0.0, 1.0, 0.0, 0.0, 0.0, 0.0, 0.0, 0.0, 0.0, 0.0, 0.0, 0.0, 1.0], "bins": [-0.03490811586380005, -0.03078409656882286, -0.026660075411200523, -0.022536054253578186, -0.018412034958600998, -0.01428801566362381, -0.010163994506001472, -0.006039973348379135, -0.001915954053401947, 0.002208065241575241, 0.006332084536552429, 0.010456107556819916, 0.014580126851797104, 0.018704146146774292, 0.02282816916704178, 0.026952188462018967, 0.031076207756996155, 0.03520023077726364, 0.03932424634695053, 0.04344826936721802, 0.04757228493690491, 0.051696307957172394, 0.05582033097743988, 0.05994434654712677, 0.06406836956739426, 0.06819239258766174, 0.07231640815734863, 0.07644043117761612, 0.0805644541978836, 0.0846884697675705, 0.08881249278783798, 0.09293651580810547, 0.09706053137779236, 0.10118454694747925, 0.10530857741832733, 0.10943259298801422, 0.11355660855770111, 0.1176806390285492, 0.12180465459823608, 0.12592867016792297, 0.13005268573760986, 0.13417671620845795, 0.13830073177814484, 0.14242474734783173, 0.1465487778186798, 0.1506727933883667, 0.1547968089580536, 0.15892083942890167, 0.16304485499858856, 0.16716887056827545, 0.17129290103912354, 0.17541691660881042, 0.17954093217849731, 0.1836649626493454, 0.1877889782190323, 0.19191299378871918, 0.19603702425956726, 0.20016103982925415, 0.20428505539894104, 0.20840907096862793, 0.212533101439476, 0.2166571319103241, 0.220781147480011, 0.22490516304969788, 0.22902917861938477]}, "gradients/ImageModel.blocks.0.conv.weight": {"_type": "histogram", "values": [1.0, 1.0, 0.0, 0.0, 0.0, 0.0, 1.0, 0.0, 0.0, 4.0, 3.0, 1.0, 2.0, 0.0, 3.0, 3.0, 7.0, 5.0, 3.0, 1.0, 23.0, 4494.0, 33.0, 2.0, 0.0, 1.0, 1.0, 1.0, 3.0, 0.0, 5.0, 0.0, 0.0, 0.0, 0.0, 1.0, 2.0, 0.0, 0.0, 0.0, 0.0, 0.0, 1.0, 3.0, 1.0, 0.0, 0.0, 0.0, 0.0, 0.0, 0.0, 0.0, 0.0, 0.0, 0.0, 0.0, 0.0, 0.0, 0.0, 0.0, 1.0, 0.0, 0.0, 1.0], "bins": [-0.01638936623930931, -0.015637118369340897, -0.014884872362017632, -0.014132625423371792, -0.013380378484725952, -0.012628131546080112, -0.011875884607434273, -0.011123636737465858, -0.010371390730142593, -0.009619142860174179, -0.008866896852850914, -0.0081146489828825, -0.00736240204423666, -0.00661015510559082, -0.005857908166944981, -0.005105661228299141, -0.004353414289653301, -0.0036011673510074615, -0.002848920412361622, -0.002096673473715782, -0.0013444265350699425, -0.0005921795964241028, 0.00016006827354431152, 0.0009123142808675766, 0.001664562150835991, 0.002416808158159256, 0.0031690560281276703, 0.003921302035450935, 0.00467354990541935, 0.005425795912742615, 0.006178043782711029, 0.006930289790034294, 0.0076825376600027084, 0.008434785529971123, 0.009187031537294388, 0.009939279407262802, 0.010691525414586067, 0.011443773284554482, 0.012196019291877747, 0.012948267161846161, 0.013700513169169426, 0.01445276103913784, 0.015205007046461105, 0.01595725491642952, 0.016709502786397934, 0.01746174693107605, 0.018213994801044464, 0.01896624267101288, 0.019718490540981293, 0.020470738410949707, 0.021222982555627823, 0.021975230425596237, 0.02272747829556465, 0.023479726165533066, 0.02423197031021118, 0.024984218180179596, 0.02573646605014801, 0.026488713920116425, 0.02724095806479454, 0.027993205934762955, 0.02874545380473137, 0.029497701674699783, 0.0302499458193779, 0.031002193689346313, 0.03175444155931473]}, "gradients/FeatureModel.dnn_layers.2.weight": {"_type": "histogram", "values": [1.0, 0.0, 0.0, 0.0, 0.0, 0.0, 0.0, 0.0, 0.0, 0.0, 0.0, 0.0, 0.0, 0.0, 0.0, 0.0, 0.0, 0.0, 0.0, 1.0, 1.0, 3.0, 1.0, 2.0, 1.0, 1.0, 0.0, 0.0, 0.0, 0.0, 1.0, 100.0, 2.0, 1.0, 1.0, 0.0, 4.0, 0.0, 1.0, 0.0, 1.0, 1.0, 1.0, 1.0, 1.0, 0.0, 0.0, 0.0, 0.0, 0.0, 0.0, 1.0, 0.0, 0.0, 0.0, 0.0, 0.0, 0.0, 0.0, 0.0, 0.0, 0.0, 0.0, 1.0], "bins": [-0.07531441748142242, -0.0728914812207222, -0.07046854496002197, -0.06804560869932175, -0.06562267243862152, -0.0631997361779213, -0.06077680364251137, -0.05835386738181114, -0.055930931121110916, -0.05350799486041069, -0.051085058599710464, -0.04866212606430054, -0.04623918980360031, -0.043816253542900085, -0.04139331728219986, -0.038970381021499634, -0.03654744476079941, -0.03412450850009918, -0.031701572239398956, -0.02927863597869873, -0.026855699717998505, -0.024432767182588577, -0.02200983092188835, -0.019586894661188126, -0.0171639584004879, -0.014741022139787674, -0.012318089604377747, -0.00989515334367752, -0.007472217082977295, -0.005049280822277069, -0.0026263445615768433, -0.00020340830087661743, 0.0022195279598236084, 0.004642464220523834, 0.00706540048122406, 0.009488336741924286, 0.011911273002624512, 0.014334209263324738, 0.016757145524024963, 0.01918008178472519, 0.021603018045425415, 0.024025946855545044, 0.02644888311624527, 0.028871819376945496, 0.03129475563764572, 0.03371769189834595, 0.03614062815904617, 0.0385635644197464, 0.040986500680446625, 0.04340943694114685, 0.045832373201847076, 0.0482553094625473, 0.05067823827266693, 0.053101181983947754, 0.05552411079406738, 0.057947054505348206, 0.060369983315467834, 0.06279292702674866, 0.06521585583686829, 0.06763879954814911, 0.07006172835826874, 0.07248467206954956, 0.07490760087966919, 0.07733054459095001, 0.07975347340106964]}, "gradients/FeatureModel.dnn_layers.2.bias": {"_type": "histogram", "values": [1.0, 0.0, 0.0, 1.0, 1.0, 1.0, 0.0, 1.0, 1.0, 0.0, 0.0, 0.0, 0.0, 0.0, 0.0, 0.0, 0.0, 0.0, 1.0, 0.0, 1.0, 0.0, 0.0, 0.0, 0.0, 0.0, 1.0, 2.0, 0.0, 3.0, 0.0, 1.0, 1.0, 3.0, 1.0, 0.0, 6.0, 97.0, 0.0, 0.0, 0.0, 1.0, 0.0, 1.0, 0.0, 0.0, 0.0, 1.0, 0.0, 0.0, 0.0, 0.0, 0.0, 0.0, 0.0, 0.0, 0.0, 1.0, 0.0, 0.0, 0.0, 0.0, 0.0, 1.0], "bins": [-0.051082924008369446, -0.04970799759030342, -0.048333071172237396, -0.04695814475417137, -0.04558321833610535, -0.04420829191803932, -0.0428333654999733, -0.04145843908190727, -0.04008351266384125, -0.03870858624577522, -0.0373336598277092, -0.03595873340964317, -0.03458380699157715, -0.033208880573511124, -0.0318339541554451, -0.030459027737379074, -0.02908410131931305, -0.027709174901247025, -0.026334248483181, -0.024959322065114975, -0.02358439564704895, -0.022209469228982925, -0.0208345428109169, -0.019459616392850876, -0.01808468997478485, -0.016709763556718826, -0.015334837138652802, -0.013959910720586777, -0.012584984302520752, -0.011210057884454727, -0.009835131466388702, -0.008460205048322678, -0.007085278630256653, -0.005710352212190628, -0.004335425794124603, -0.0029604993760585785, -0.0015855729579925537, -0.00021064653992652893, 0.0011642798781394958, 0.0025392062962055206, 0.003914132714271545, 0.00528905913233757, 0.006663985550403595, 0.00803891196846962, 0.009413838386535645, 0.01078876480460167, 0.012163691222667694, 0.01353861391544342, 0.014913544058799744, 0.016288474202156067, 0.017663396894931793, 0.01903831958770752, 0.020413249731063843, 0.021788179874420166, 0.023163102567195892, 0.02453802525997162, 0.025912955403327942, 0.027287885546684265, 0.02866280823945999, 0.030037730932235718, 0.03141266107559204, 0.032787591218948364, 0.03416251391172409, 0.03553743660449982, 0.03691236674785614]}, "gradients/ImageModel.blocks.5.batchnorm.bias": {"_type": "histogram", "values": [0.0, 0.0, 0.0, 0.0, 0.0, 0.0, 0.0, 0.0, 0.0, 0.0, 0.0, 0.0, 0.0, 0.0, 0.0, 0.0, 0.0, 0.0, 0.0, 0.0, 0.0, 0.0, 0.0, 0.0, 0.0, 0.0, 0.0, 0.0, 0.0, 0.0, 0.0, 0.0, 1.0, 0.0, 0.0, 0.0, 0.0, 0.0, 0.0, 0.0, 0.0, 0.0, 0.0, 0.0, 0.0, 0.0, 0.0, 0.0, 0.0, 0.0, 0.0, 0.0, 0.0, 0.0, 0.0, 0.0, 0.0, 0.0, 0.0, 0.0, 0.0, 0.0, 0.0, 0.0], "bins": [-0.009762361645698547, -0.009762361645698547, -0.009762361645698547, -0.009762361645698547, -0.009762361645698547, -0.009762361645698547, -0.009762361645698547, -0.009762361645698547, -0.009762361645698547, -0.009762361645698547, -0.009762361645698547, -0.009762361645698547, -0.009762361645698547, -0.009762361645698547, -0.009762361645698547, -0.009762361645698547, -0.009762361645698547, -0.009762361645698547, -0.009762361645698547, -0.009762361645698547, -0.009762361645698547, -0.009762361645698547, -0.009762361645698547, -0.009762361645698547, -0.009762361645698547, -0.009762361645698547, -0.009762361645698547, -0.009762361645698547, -0.009762361645698547, -0.009762361645698547, -0.009762361645698547, -0.009762361645698547, -0.009762361645698547, -0.009762361645698547, -0.009762361645698547, -0.009762361645698547, -0.009762361645698547, -0.009762361645698547, -0.009762361645698547, -0.009762361645698547, -0.009762361645698547, -0.009762361645698547, -0.009762361645698547, -0.009762361645698547, -0.009762361645698547, -0.009762361645698547, -0.009762361645698547, -0.009762361645698547, -0.009762361645698547, -0.009762361645698547, -0.009762361645698547, -0.009762361645698547, -0.009762361645698547, -0.009762361645698547, -0.009762361645698547, -0.009762361645698547, -0.009762361645698547, -0.009762361645698547, -0.009762361645698547, -0.009762361645698547, -0.009762361645698547, -0.009762361645698547, -0.009762361645698547, -0.009762361645698547, -0.009762361645698547]}, "gradients/ImageModel.blocks.2.batchnorm.weight": {"_type": "histogram", "values": [1.0, 0.0, 0.0, 1.0, 0.0, 0.0, 0.0, 0.0, 0.0, 0.0, 0.0, 0.0, 0.0, 0.0, 0.0, 0.0, 0.0, 0.0, 4.0, 0.0, 0.0, 0.0, 1.0, 1.0, 0.0, 0.0, 0.0, 0.0, 0.0, 0.0, 0.0, 0.0, 1.0, 0.0, 0.0, 0.0, 0.0, 0.0, 0.0, 0.0, 0.0, 0.0, 0.0, 0.0, 0.0, 0.0, 0.0, 0.0, 0.0, 0.0, 0.0, 0.0, 0.0, 0.0, 0.0, 0.0, 0.0, 0.0, 0.0, 0.0, 0.0, 0.0, 0.0, 1.0], "bins": [-0.016784274950623512, -0.01588950864970684, -0.014994741417467594, -0.014099974185228348, -0.013205207884311676, -0.012310441583395004, -0.011415674351155758, -0.010520907118916512, -0.00962614081799984, -0.008731374517083168, -0.007836607284843922, -0.006941840052604675, -0.0060470737516880035, -0.005152307450771332, -0.004257540218532085, -0.003362772986292839, -0.0024680066853761673, -0.0015732403844594955, -0.0006784740835428238, 0.0002162940800189972, 0.001111060380935669, 0.0020058266818523407, 0.0029005948454141617, 0.0037953611463308334, 0.004690127447247505, 0.005584893748164177, 0.006479660049080849, 0.00737442821264267, 0.008269194513559341, 0.009163960814476013, 0.010058728978037834, 0.010953495278954506, 0.011848261579871178, 0.01274302788078785, 0.013637794181704521, 0.014532560482621193, 0.015427326783537865, 0.016322096809744835, 0.017216863110661507, 0.01811162941157818, 0.01900639571249485, 0.019901162013411522, 0.020795928314328194, 0.021690694615244865, 0.022585464641451836, 0.023480230942368507, 0.02437499724328518, 0.02526976354420185, 0.026164529845118523, 0.027059296146035194, 0.027954062446951866, 0.028848828747868538, 0.02974359504878521, 0.03063836507499218, 0.0315331295132637, 0.03242789953947067, 0.033322662115097046, 0.034217432141304016, 0.03511219471693039, 0.03600696474313736, 0.03690173476934433, 0.0377964973449707, 0.03869126737117767, 0.03958602994680405, 0.04048079997301102]}, "_timestamp": 1582265433.605184, "gradients/FeatureModel.dnn_layers.0.weight": {"_type": "histogram", "values": [1.0, 0.0, 0.0, 0.0, 0.0, 0.0, 0.0, 0.0, 0.0, 0.0, 0.0, 0.0, 0.0, 0.0, 0.0, 0.0, 0.0, 0.0, 0.0, 0.0, 1.0, 0.0, 0.0, 0.0, 2.0, 0.0, 0.0, 0.0, 0.0, 1.0, 0.0, 3.0, 0.0, 3.0, 1.0, 1.0, 1.0, 13.0, 18.0, 37.0, 999.0, 28.0, 21.0, 11.0, 3.0, 1.0, 1.0, 0.0, 0.0, 0.0, 2.0, 0.0, 0.0, 1.0, 0.0, 0.0, 0.0, 0.0, 0.0, 0.0, 2.0, 0.0, 0.0, 1.0], "bins": [-0.635056734085083, -0.6192817091941833, -0.6035067439079285, -0.5877317190170288, -0.5719567537307739, -0.5561817288398743, -0.5404067635536194, -0.5246317386627197, -0.5088567733764648, -0.4930817484855652, -0.4773067533969879, -0.46153175830841064, -0.445756733417511, -0.4299817681312561, -0.41420674324035645, -0.3984317481517792, -0.3826567530632019, -0.36688175797462463, -0.35110676288604736, -0.3353317677974701, -0.3195567727088928, -0.30378174781799316, -0.2880067527294159, -0.2722317576408386, -0.25645676255226135, -0.24068176746368408, -0.2249067723751068, -0.20913177728652954, -0.19335675239562988, -0.1775817573070526, -0.16180676221847534, -0.14603176712989807, -0.1302567720413208, -0.11448174715042114, -0.09870678186416626, -0.0829317569732666, -0.06715679168701172, -0.05138176679611206, -0.03560680150985718, -0.01983177661895752, -0.004056811332702637, 0.011718213558197021, 0.02749323844909668, 0.04326820373535156, 0.05904322862625122, 0.0748181939125061, 0.09059321880340576, 0.10636818408966064, 0.1221432089805603, 0.13791823387145996, 0.15369319915771484, 0.1694682240486145, 0.18524318933486938, 0.20101821422576904, 0.21679317951202393, 0.23256820440292358, 0.24834322929382324, 0.2641181945800781, 0.2798932194709778, 0.29566818475723267, 0.3114432096481323, 0.3272181749343872, 0.34299319982528687, 0.35876816511154175, 0.3745431900024414]}, "gradients/FeatureModel.dnn_layers.5.bias": {"_type": "histogram", "values": [1.0, 0.0, 0.0, 1.0, 0.0, 0.0, 0.0, 2.0, 0.0, 0.0, 0.0, 1.0, 0.0, 1.0, 0.0, 0.0, 0.0, 2.0, 0.0, 0.0, 0.0, 0.0, 1.0, 0.0, 0.0, 0.0, 1.0, 1.0, 1.0, 102.0, 1.0, 2.0, 1.0, 1.0, 1.0, 0.0, 0.0, 0.0, 0.0, 1.0, 0.0, 0.0, 0.0, 0.0, 0.0, 0.0, 0.0, 0.0, 1.0, 0.0, 1.0, 1.0, 2.0, 0.0, 0.0, 0.0, 0.0, 1.0, 0.0, 0.0, 0.0, 0.0, 0.0, 1.0], "bins": [-0.01818799041211605, -0.017573293298482895, -0.01695859432220459, -0.016343897208571434, -0.015729200094938278, -0.015114502049982548, -0.014499804005026817, -0.013885106891393661, -0.013270409777760506, -0.012655711732804775, -0.012041013687849045, -0.011426316574215889, -0.010811618529260159, -0.010196921415627003, -0.009582223370671272, -0.008967526257038116, -0.008352828212082386, -0.007738130167126656, -0.0071234330534935, -0.006508735008537769, -0.0058940378949046135, -0.005279339849948883, -0.004664642736315727, -0.004049944691359997, -0.0034352466464042664, -0.0028205495327711105, -0.0022058524191379547, -0.0015911534428596497, -0.0009764563292264938, -0.000361759215593338, 0.0002529378980398178, 0.0008676368743181229, 0.0014823339879512787, 0.0020970311015844345, 0.0027117300778627396, 0.0033264271914958954, 0.003941124305129051, 0.004555821418762207, 0.005170520395040512, 0.005785217508673668, 0.006399914622306824, 0.007014613598585129, 0.007629310712218285, 0.00824400782585144, 0.008858704939484596, 0.009473403915762901, 0.010088101029396057, 0.010702798143029213, 0.011317497119307518, 0.011932194232940674, 0.01254689134657383, 0.013161590322852135, 0.013776285573840141, 0.014390984550118446, 0.015005683526396751, 0.015620378777384758, 0.016235077753663063, 0.016849776729941368, 0.017464471980929375, 0.01807917095720768, 0.018693866208195686, 0.01930856518447399, 0.019923264160752296, 0.020537959411740303, 0.021152658388018608]}, "gradients/nn2.3.bias": {"_type": "histogram", "values": [0.0, 0.0, 0.0, 0.0, 0.0, 0.0, 0.0, 0.0, 0.0, 0.0, 0.0, 0.0, 0.0, 0.0, 0.0, 0.0, 0.0, 0.0, 0.0, 0.0, 0.0, 0.0, 0.0, 0.0, 0.0, 0.0, 0.0, 0.0, 0.0, 0.0, 0.0, 0.0, 1.0, 0.0, 0.0, 0.0, 0.0, 0.0, 0.0, 0.0, 0.0, 0.0, 0.0, 0.0, 0.0, 0.0, 0.0, 0.0, 0.0, 0.0, 0.0, 0.0, 0.0, 0.0, 0.0, 0.0, 0.0, 0.0, 0.0, 0.0, 0.0, 0.0, 0.0, 0.0], "bins": [-0.34981054067611694, -0.34981054067611694, -0.34981054067611694, -0.34981054067611694, -0.34981054067611694, -0.34981054067611694, -0.34981054067611694, -0.34981054067611694, -0.34981054067611694, -0.34981054067611694, -0.34981054067611694, -0.34981054067611694, -0.34981054067611694, -0.34981054067611694, -0.34981054067611694, -0.34981054067611694, -0.34981054067611694, -0.34981054067611694, -0.34981054067611694, -0.34981054067611694, -0.34981054067611694, -0.34981054067611694, -0.34981054067611694, -0.34981054067611694, -0.34981054067611694, -0.34981054067611694, -0.34981054067611694, -0.34981054067611694, -0.34981054067611694, -0.34981054067611694, -0.34981054067611694, -0.34981054067611694, -0.34981054067611694, -0.34981054067611694, -0.34981054067611694, -0.34981054067611694, -0.34981054067611694, -0.34981054067611694, -0.34981054067611694, -0.34981054067611694, -0.34981054067611694, -0.34981054067611694, -0.34981054067611694, -0.34981054067611694, -0.34981054067611694, -0.34981054067611694, -0.34981054067611694, -0.34981054067611694, -0.34981054067611694, -0.34981054067611694, -0.34981054067611694, -0.34981054067611694, -0.34981054067611694, -0.34981054067611694, -0.34981054067611694, -0.34981054067611694, -0.34981054067611694, -0.34981054067611694, -0.34981054067611694, -0.34981054067611694, -0.34981054067611694, -0.34981054067611694, -0.34981054067611694, -0.34981054067611694, -0.34981054067611694]}, "gradients/FeatureModel.output_layer.bias": {"_type": "histogram", "values": [1.0, 1.0, 0.0, 0.0, 0.0, 1.0, 0.0, 0.0, 0.0, 0.0, 0.0, 0.0, 0.0, 0.0, 0.0, 0.0, 0.0, 0.0, 0.0, 0.0, 0.0, 0.0, 0.0, 0.0, 0.0, 0.0, 0.0, 0.0, 0.0, 0.0, 0.0, 0.0, 0.0, 0.0, 0.0, 0.0, 0.0, 0.0, 0.0, 0.0, 0.0, 0.0, 0.0, 0.0, 0.0, 0.0, 0.0, 0.0, 0.0, 0.0, 0.0, 0.0, 0.0, 0.0, 0.0, 0.0, 0.0, 0.0, 0.0, 0.0, 0.0, 0.0, 0.0, 1.0], "bins": [-0.06140728294849396, -0.05925862491130829, -0.05710996687412262, -0.05496130883693695, -0.05281265079975128, -0.05066399276256561, -0.048515334725379944, -0.046366676688194275, -0.044218018651008606, -0.04206936061382294, -0.03992070257663727, -0.0377720445394516, -0.03562339022755623, -0.03347473219037056, -0.03132607415318489, -0.029177416115999222, -0.027028758078813553, -0.024880100041627884, -0.022731442004442215, -0.020582783967256546, -0.018434125930070877, -0.016285467892885208, -0.01413680985569954, -0.01198815181851387, -0.0098394975066185, -0.007690839469432831, -0.005542181432247162, -0.003393523395061493, -0.001244865357875824, 0.000903792679309845, 0.003052450716495514, 0.005201108753681183, 0.007349766790866852, 0.00949842482805252, 0.01164708286523819, 0.013795740902423859, 0.015944398939609528, 0.018093056976795197, 0.020241715013980865, 0.022390373051166534, 0.024539031088352203, 0.026687689125537872, 0.02883634716272354, 0.03098500519990921, 0.03313366323709488, 0.03528232127428055, 0.03743097931146622, 0.039579637348651886, 0.04172828793525696, 0.04387694597244263, 0.046025604009628296, 0.048174262046813965, 0.050322920083999634, 0.0524715781211853, 0.05462023615837097, 0.05676889419555664, 0.05891755223274231, 0.06106621026992798, 0.06321486830711365, 0.06536352634429932, 0.06751218438148499, 0.06966084241867065, 0.07180950045585632, 0.07395815849304199, 0.07610681653022766]}, "gradients/ImageModel.blocks.4.conv.weight": {"_type": "histogram", "values": [1.0, 0.0, 0.0, 0.0, 0.0, 0.0, 0.0, 0.0, 1.0, 0.0, 0.0, 1.0, 0.0, 0.0, 1.0, 4.0, 1.0, 0.0, 3.0, 1.0, 4.0, 2.0, 3.0, 3.0, 8.0, 2.0, 5.0, 3.0, 4.0, 3.0, 3.0, 6.0, 5.0, 5.0, 4.0, 3.0, 3.0, 3.0, 2.0, 1.0, 2.0, 3.0, 1.0, 2.0, 3.0, 0.0, 0.0, 1.0, 0.0, 0.0, 0.0, 0.0, 0.0, 0.0, 0.0, 0.0, 0.0, 1.0, 0.0, 1.0, 0.0, 0.0, 0.0, 1.0], "bins": [-0.030326206237077713, -0.029346410185098648, -0.028366615995764732, -0.027386819943785667, -0.026407023891806602, -0.025427229702472687, -0.024447433650493622, -0.023467637598514557, -0.022487841546535492, -0.021508047357201576, -0.02052825130522251, -0.019548457115888596, -0.01856866106390953, -0.017588865011930466, -0.0166090689599514, -0.015629272907972336, -0.01464947871863842, -0.013669682666659355, -0.01268988847732544, -0.011710092425346375, -0.01073029637336731, -0.009750502184033394, -0.008770706132054329, -0.007790910080075264, -0.006811115890741348, -0.005831319838762283, -0.004851523786783218, -0.0038717277348041534, -0.0028919335454702377, -0.0019121374934911728, -0.0009323414415121078, 4.745274782180786e-05, 0.0010272487998008728, 0.0020070448517799377, 0.0029868409037590027, 0.003966636955738068, 0.004946429282426834, 0.005926225334405899, 0.006906021386384964, 0.007885817438364029, 0.008865613490343094, 0.009845409542322159, 0.010825201869010925, 0.01180499792098999, 0.012784793972969055, 0.01376459002494812, 0.014744386076927185, 0.01572418212890625, 0.016703974455595016, 0.01768377050757408, 0.018663566559553146, 0.01964336261153221, 0.020623158663511276, 0.02160295471549034, 0.022582750767469406, 0.023562543094158173, 0.024542339146137238, 0.025522135198116302, 0.026501931250095367, 0.027481727302074432, 0.028461523354053497, 0.029441315680742264, 0.03042111173272133, 0.031400907784700394, 0.03238070383667946]}, "gradients/nn2.0.bias": {"_type": "histogram", "values": [1.0, 0.0, 0.0, 0.0, 0.0, 0.0, 0.0, 0.0, 0.0, 0.0, 1.0, 0.0, 0.0, 0.0, 0.0, 0.0, 0.0, 0.0, 1.0, 0.0, 9.0, 0.0, 0.0, 1.0, 1.0, 0.0, 0.0, 0.0, 0.0, 0.0, 0.0, 0.0, 0.0, 0.0, 0.0, 0.0, 0.0, 0.0, 0.0, 0.0, 1.0, 0.0, 0.0, 0.0, 0.0, 0.0, 0.0, 0.0, 0.0, 0.0, 0.0, 0.0, 0.0, 0.0, 0.0, 0.0, 0.0, 0.0, 0.0, 0.0, 0.0, 0.0, 0.0, 1.0], "bins": [-0.18761831521987915, -0.17846417427062988, -0.16931001842021942, -0.16015586256980896, -0.1510017216205597, -0.14184758067131042, -0.13269342482089996, -0.1235392764210701, -0.11438512802124023, -0.10523097962141037, -0.0960768312215805, -0.08692268282175064, -0.07776853442192078, -0.06861438602209091, -0.05946023762226105, -0.050306081771850586, -0.04115194082260132, -0.03199779987335205, -0.02284364402294159, -0.013689488172531128, -0.00453534722328186, 0.004618793725967407, 0.013772949576377869, 0.02292710542678833, 0.0320812463760376, 0.041235387325286865, 0.05038954317569733, 0.05954369902610779, 0.06869783997535706, 0.07785198092460632, 0.08700615167617798, 0.09616029262542725, 0.10531443357467651, 0.11446857452392578, 0.12362271547317505, 0.1327768862247467, 0.14193102717399597, 0.15108516812324524, 0.1602393388748169, 0.16939347982406616, 0.17854762077331543, 0.1877017617225647, 0.19685590267181396, 0.20601007342338562, 0.2151642143726349, 0.22431835532188416, 0.2334725260734558, 0.24262666702270508, 0.25178080797195435, 0.2609349489212036, 0.2700890898704529, 0.27924326062202454, 0.2883974015712738, 0.29755154252052307, 0.3067057132720947, 0.315859854221344, 0.32501399517059326, 0.33416813611984253, 0.3433222770690918, 0.35247641801834106, 0.3616306185722351, 0.3707847595214844, 0.37993890047073364, 0.3890930414199829, 0.3982471823692322]}, "train_loss": 0.051306092744389326, "gradients/ImageModel.blocks.2.conv.weight": {"_type": "histogram", "values": [1.0, 0.0, 0.0, 0.0, 0.0, 0.0, 0.0, 0.0, 2.0, 0.0, 0.0, 1.0, 0.0, 0.0, 0.0, 0.0, 0.0, 3.0, 3.0, 3.0, 3.0, 2.0, 4.0, 5.0, 4.0, 3.0, 1.0, 5.0, 6.0, 6.0, 6.0, 7.0, 5.0, 10.0, 10.0, 2092.0, 6.0, 4.0, 5.0, 5.0, 4.0, 6.0, 5.0, 3.0, 4.0, 1.0, 3.0, 2.0, 3.0, 0.0, 2.0, 1.0, 1.0, 2.0, 2.0, 3.0, 2.0, 0.0, 1.0, 0.0, 1.0, 0.0, 0.0, 2.0], "bins": [-0.022409427911043167, -0.02177172712981701, -0.02113402634859085, -0.020496325567364693, -0.019858624786138535, -0.019220922142267227, -0.01858322136104107, -0.01794552057981491, -0.017307819798588753, -0.016670119017362595, -0.016032418236136436, -0.015394716523587704, -0.014757015742361546, -0.014119314961135387, -0.013481613248586655, -0.012843912467360497, -0.012206211686134338, -0.01156851090490818, -0.010930810123682022, -0.01029310841113329, -0.009655407629907131, -0.009017706848680973, -0.00838000513613224, -0.007742304354906082, -0.007104603573679924, -0.006466902792453766, -0.005829202011227608, -0.00519150123000145, -0.004553798586130142, -0.003916097804903984, -0.003278397023677826, -0.002640696242451668, -0.0020029954612255096, -0.0013652946799993515, -0.0007275938987731934, -8.989311754703522e-05, 0.0005478076636791229, 0.0011855103075504303, 0.0018232110887765884, 0.0024609118700027466, 0.0030986126512289047, 0.003736313432455063, 0.004374014213681221, 0.005011714994907379, 0.0056494176387786865, 0.006287118420004845, 0.006924819201231003, 0.007562519982457161, 0.008200220763683319, 0.008837921544909477, 0.009475622326135635, 0.010113324970006943, 0.010751023888587952, 0.011388726532459259, 0.012026425451040268, 0.012664128094911575, 0.013301830738782883, 0.013939529657363892, 0.014577232301235199, 0.015214931219816208, 0.015852633863687515, 0.016490332782268524, 0.01712803542613983, 0.01776573434472084, 0.018403436988592148]}, "gradients/nn2.2.weight": {"_type": "histogram", "values": [1.0, 0.0, 0.0, 0.0, 0.0, 0.0, 0.0, 0.0, 0.0, 0.0, 0.0, 0.0, 0.0, 0.0, 1.0, 0.0, 0.0, 1.0, 0.0, 0.0, 0.0, 0.0, 1.0, 1.0, 0.0, 6.0, 0.0, 0.0, 0.0, 0.0, 1.0, 0.0, 0.0, 0.0, 1.0, 1.0, 0.0, 0.0, 0.0, 0.0, 0.0, 0.0, 0.0, 0.0, 0.0, 0.0, 0.0, 0.0, 0.0, 0.0, 0.0, 0.0, 0.0, 0.0, 0.0, 1.0, 0.0, 0.0, 0.0, 0.0, 0.0, 0.0, 0.0, 1.0], "bins": [-0.027925677597522736, -0.0268244668841362, -0.025723256170749664, -0.02462204545736313, -0.023520834743976593, -0.022419624030590057, -0.02131841331720352, -0.020217202603816986, -0.01911599189043045, -0.018014781177043915, -0.01691357046365738, -0.015812359750270844, -0.014711149036884308, -0.013609938323497772, -0.012508727610111237, -0.011407516896724701, -0.010306306183338165, -0.00920509546995163, -0.008103884756565094, -0.007002674043178558, -0.005901463329792023, -0.004800252616405487, -0.0036990419030189514, -0.0025978311896324158, -0.0014966204762458801, -0.0003954097628593445, 0.0007058009505271912, 0.0018070116639137268, 0.0029082223773002625, 0.004009433090686798, 0.005110643804073334, 0.006211854517459869, 0.007313065230846405, 0.00841427594423294, 0.009515486657619476, 0.010616697371006012, 0.011717908084392548, 0.012819118797779083, 0.013920329511165619, 0.015021540224552155, 0.01612275093793869, 0.017223961651325226, 0.01832517236471176, 0.019426383078098297, 0.020527593791484833, 0.02162880450487137, 0.022730015218257904, 0.02383122593164444, 0.024932436645030975, 0.02603364735841751, 0.027134858071804047, 0.028236068785190582, 0.029337279498577118, 0.030438490211963654, 0.03153970092535019, 0.032640911638736725, 0.03374212235212326, 0.034843333065509796, 0.03594454377889633, 0.03704575449228287, 0.0381469652056694, 0.03924817591905594, 0.040349386632442474, 0.04145059734582901, 0.042551808059215546]}, "gradients/ImageModel.blocks.3.conv.bias": {"_type": "histogram", "values": [1.0, 0.0, 0.0, 0.0, 0.0, 0.0, 0.0, 0.0, 0.0, 0.0, 0.0, 0.0, 0.0, 0.0, 0.0, 0.0, 0.0, 0.0, 0.0, 0.0, 0.0, 0.0, 0.0, 0.0, 0.0, 0.0, 0.0, 0.0, 0.0, 0.0, 0.0, 0.0, 2.0, 0.0, 0.0, 0.0, 0.0, 0.0, 0.0, 1.0, 0.0, 0.0, 0.0, 0.0, 0.0, 0.0, 0.0, 0.0, 0.0, 0.0, 0.0, 0.0, 0.0, 0.0, 0.0, 0.0, 0.0, 0.0, 0.0, 0.0, 0.0, 0.0, 0.0, 1.0], "bins": [-0.05129225552082062, -0.04944811761379242, -0.04760397970676422, -0.04575984179973602, -0.043915703892707825, -0.042071565985679626, -0.04022742807865143, -0.03838329017162323, -0.03653915226459503, -0.034695014357566833, -0.032850876450538635, -0.031006736680865288, -0.02916259691119194, -0.027318459004163742, -0.025474321097135544, -0.023630183190107346, -0.021786045283079147, -0.01994190737605095, -0.01809776946902275, -0.016253631561994553, -0.014409493654966354, -0.012565355747938156, -0.010721217840909958, -0.00887707993388176, -0.007032938301563263, -0.005188800394535065, -0.0033446624875068665, -0.0015005245804786682, 0.00034361332654953003, 0.0021877512335777283, 0.0040318891406059265, 0.005876027047634125, 0.007720164954662323, 0.009564302861690521, 0.01140844076871872, 0.013252578675746918, 0.015096716582775116, 0.016940854489803314, 0.018784992396831512, 0.02062913030385971, 0.02247326821088791, 0.024317406117916107, 0.026161544024944305, 0.028005681931972504, 0.029849819839000702, 0.0316939577460289, 0.0335380956530571, 0.0353822335600853, 0.03722637891769409, 0.03907051682472229, 0.04091465473175049, 0.042758792638778687, 0.044602930545806885, 0.04644706845283508, 0.04829120635986328, 0.05013534426689148, 0.05197948217391968, 0.053823620080947876, 0.055667757987976074, 0.05751189589500427, 0.05935603380203247, 0.06120017170906067, 0.06304430961608887, 0.06488844752311707, 0.06673258543014526]}, "gradients/ImageModel.blocks.3.conv.weight": {"_type": "histogram", "values": [2.0, 0.0, 0.0, 1.0, 0.0, 0.0, 1.0, 3.0, 2.0, 1.0, 2.0, 2.0, 8.0, 5.0, 5.0, 7.0, 5.0, 3.0, 5.0, 8.0, 8.0, 12.0, 190.0, 21.0, 14.0, 19.0, 20.0, 10.0, 8.0, 8.0, 7.0, 9.0, 11.0, 13.0, 5.0, 5.0, 3.0, 1.0, 3.0, 5.0, 3.0, 3.0, 2.0, 3.0, 0.0, 1.0, 0.0, 0.0, 0.0, 0.0, 1.0, 0.0, 0.0, 0.0, 0.0, 0.0, 1.0, 0.0, 0.0, 0.0, 0.0, 2.0, 0.0, 2.0], "bins": [-0.0172787643969059, -0.01652352698147297, -0.01576828956604004, -0.015013053081929684, -0.014257816597819328, -0.013502579182386398, -0.012747341766953468, -0.011992105282843113, -0.011236868798732758, -0.010481631383299828, -0.009726393967866898, -0.008971157483756542, -0.008215920068323612, -0.007460683584213257, -0.006705446168780327, -0.0059502096846699715, -0.0051949722692370415, -0.0044397348538041115, -0.003684498369693756, -0.002929260954260826, -0.0021740244701504707, -0.0014187879860401154, -0.0006635505706071854, 9.168684482574463e-05, 0.0008469242602586746, 0.0016021616756916046, 0.0023573972284793854, 0.0031126346439123154, 0.0038678720593452454, 0.004623109474778175, 0.005378345027565956, 0.006133582442998886, 0.006888819858431816, 0.007644057273864746, 0.008399294689297676, 0.009154530242085457, 0.009909767657518387, 0.010665005072951317, 0.011420242488384247, 0.012175478041172028, 0.012930715456604958, 0.013685952872037888, 0.014441188424825668, 0.015196427702903748, 0.01595166325569153, 0.016706902533769608, 0.01746213808655739, 0.01821737363934517, 0.01897261291742325, 0.01972784847021103, 0.02048308774828911, 0.02123832330107689, 0.02199355885386467, 0.02274879813194275, 0.02350403368473053, 0.02425926923751831, 0.02501450851559639, 0.02576974406838417, 0.02652498334646225, 0.02728021889925003, 0.02803545445203781, 0.02879069373011589, 0.02954592928290367, 0.03030116856098175, 0.03105640411376953]}, "gradients/ImageModel.blocks.1.batchnorm.bias": {"_type": "histogram", "values": [1.0, 0.0, 0.0, 0.0, 1.0, 0.0, 0.0, 0.0, 0.0, 0.0, 0.0, 0.0, 0.0, 0.0, 0.0, 0.0, 0.0, 0.0, 0.0, 0.0, 0.0, 0.0, 0.0, 0.0, 0.0, 0.0, 0.0, 0.0, 0.0, 0.0, 0.0, 0.0, 0.0, 0.0, 0.0, 0.0, 0.0, 0.0, 0.0, 0.0, 0.0, 0.0, 0.0, 0.0, 0.0, 0.0, 1.0, 0.0, 0.0, 0.0, 0.0, 0.0, 0.0, 0.0, 0.0, 0.0, 0.0, 0.0, 0.0, 0.0, 0.0, 0.0, 0.0, 22.0], "bins": [-0.005992021877318621, -0.005898310337215662, -0.005804598797112703, -0.005710887257009745, -0.005617175716906786, -0.005523464176803827, -0.005429752636700869, -0.005336041562259197, -0.0052423300221562386, -0.00514861848205328, -0.005054906941950321, -0.0049611954018473625, -0.004867483861744404, -0.004773772321641445, -0.0046800607815384865, -0.004586349241435528, -0.004492637701332569, -0.0043989261612296104, -0.004305214621126652, -0.004211503081023693, -0.004117791540920734, -0.004024080000817776, -0.003930368460714817, -0.003836657153442502, -0.0037429456133395433, -0.0036492340732365847, -0.003555522533133626, -0.0034618109930306673, -0.0033680996857583523, -0.0032743881456553936, -0.003180676605552435, -0.0030869650654494762, -0.0029932535253465176, -0.002899541985243559, -0.0028058304451406, -0.0027121189050376415, -0.002618407364934683, -0.002524696057662368, -0.002430984517559409, -0.0023372729774564505, -0.0022435614373534918, -0.002149849897250533, -0.002056138589978218, -0.0019624270498752594, -0.0018687155097723007, -0.001775003969669342, -0.0016812924295663834, -0.0015875808894634247, -0.001493869349360466, -0.0014001578092575073, -0.0013064462691545486, -0.00121273472905159, -0.0011190231889486313, -0.0010253116488456726, -0.0009316001087427139, -0.0008378885686397552, -0.0007441774941980839, -0.0006504659540951252, -0.0005567544139921665, -0.00046304287388920784, -0.00036933133378624916, -0.0002756197936832905, -0.0001819082535803318, -8.819671347737312e-05, 5.514826625585556e-06]}, "gradients/ImageModel.Z.bias": {"_type": "histogram", "values": [1.0, 1.0, 0.0, 0.0, 0.0, 1.0, 0.0, 0.0, 0.0, 0.0, 0.0, 0.0, 0.0, 0.0, 0.0, 0.0, 0.0, 0.0, 0.0, 0.0, 0.0, 0.0, 0.0, 0.0, 0.0, 0.0, 0.0, 0.0, 0.0, 0.0, 0.0, 0.0, 0.0, 0.0, 0.0, 0.0, 0.0, 0.0, 0.0, 0.0, 0.0, 0.0, 0.0, 0.0, 0.0, 0.0, 0.0, 0.0, 0.0, 0.0, 0.0, 0.0, 0.0, 0.0, 0.0, 0.0, 0.0, 0.0, 0.0, 0.0, 0.0, 0.0, 0.0, 1.0], "bins": [-0.06140728294849396, -0.05925862491130829, -0.05710996687412262, -0.05496130883693695, -0.05281265079975128, -0.05066399276256561, -0.048515334725379944, -0.046366676688194275, -0.044218018651008606, -0.04206936061382294, -0.03992070257663727, -0.0377720445394516, -0.03562339022755623, -0.03347473219037056, -0.03132607415318489, -0.029177416115999222, -0.027028758078813553, -0.024880100041627884, -0.022731442004442215, -0.020582783967256546, -0.018434125930070877, -0.016285467892885208, -0.01413680985569954, -0.01198815181851387, -0.0098394975066185, -0.007690839469432831, -0.005542181432247162, -0.003393523395061493, -0.001244865357875824, 0.000903792679309845, 0.003052450716495514, 0.005201108753681183, 0.007349766790866852, 0.00949842482805252, 0.01164708286523819, 0.013795740902423859, 0.015944398939609528, 0.018093056976795197, 0.020241715013980865, 0.022390373051166534, 0.024539031088352203, 0.026687689125537872, 0.02883634716272354, 0.03098500519990921, 0.03313366323709488, 0.03528232127428055, 0.03743097931146622, 0.039579637348651886, 0.04172828793525696, 0.04387694597244263, 0.046025604009628296, 0.048174262046813965, 0.050322920083999634, 0.0524715781211853, 0.05462023615837097, 0.05676889419555664, 0.05891755223274231, 0.06106621026992798, 0.06321486830711365, 0.06536352634429932, 0.06751218438148499, 0.06966084241867065, 0.07180950045585632, 0.07395815849304199, 0.07610681653022766]}, "gradients/ImageModel.blocks.4.conv.bias": {"_type": "histogram", "values": [1.0, 0.0, 0.0, 0.0, 0.0, 0.0, 0.0, 0.0, 0.0, 0.0, 0.0, 0.0, 0.0, 0.0, 0.0, 0.0, 0.0, 0.0, 0.0, 0.0, 0.0, 0.0, 0.0, 0.0, 0.0, 0.0, 0.0, 0.0, 0.0, 0.0, 0.0, 0.0, 0.0, 0.0, 0.0, 0.0, 0.0, 0.0, 0.0, 0.0, 0.0, 0.0, 0.0, 0.0, 0.0, 0.0, 2.0, 0.0, 0.0, 0.0, 0.0, 1.0, 0.0, 0.0, 0.0, 0.0, 0.0, 0.0, 0.0, 0.0, 0.0, 0.0, 0.0, 1.0], "bins": [-0.0889800637960434, -0.08713823556900024, -0.08529640734195709, -0.08345457911491394, -0.08161275088787079, -0.07977092266082764, -0.07792909443378448, -0.07608726620674133, -0.07424543052911758, -0.07240360230207443, -0.07056177407503128, -0.06871994584798813, -0.06687811762094498, -0.06503628939390182, -0.06319446116685867, -0.06135263293981552, -0.05951080471277237, -0.05766897276043892, -0.05582714453339577, -0.053985316306352615, -0.052143488079309464, -0.05030165985226631, -0.04845983162522316, -0.04661799967288971, -0.04477617144584656, -0.042934343218803406, -0.041092514991760254, -0.0392506867647171, -0.03740885853767395, -0.0355670265853405, -0.03372519835829735, -0.031883370131254196, -0.030041541904211044, -0.028199713677167892, -0.026357881724834442, -0.02451605349779129, -0.02267422527074814, -0.020832397043704987, -0.018990568816661835, -0.017148740589618683, -0.015306912362575531, -0.01346508413553238, -0.011623255908489227, -0.009781427681446075, -0.007939599454402924, -0.006097763776779175, -0.004255935549736023, -0.002414107322692871, -0.0005722790956497192, 0.0012695491313934326, 0.0031113773584365845, 0.004953205585479736, 0.006795033812522888, 0.00863686203956604, 0.010478690266609192, 0.012320518493652344, 0.014162346720695496, 0.016004174947738647, 0.017846010625362396, 0.019687838852405548, 0.0215296670794487, 0.023371495306491852, 0.025213323533535004, 0.027055151760578156, 0.028896979987621307]}, "gradients/ImageModel.blocks.3.batchnorm.weight": {"_type": "histogram", "values": [1.0, 0.0, 0.0, 0.0, 0.0, 0.0, 0.0, 0.0, 0.0, 0.0, 0.0, 0.0, 0.0, 0.0, 0.0, 0.0, 0.0, 0.0, 0.0, 0.0, 0.0, 0.0, 1.0, 0.0, 0.0, 0.0, 0.0, 0.0, 0.0, 1.0, 0.0, 0.0, 0.0, 0.0, 0.0, 0.0, 0.0, 0.0, 0.0, 0.0, 1.0, 0.0, 0.0, 0.0, 0.0, 0.0, 0.0, 0.0, 0.0, 0.0, 0.0, 0.0, 0.0, 0.0, 0.0, 0.0, 0.0, 0.0, 0.0, 0.0, 0.0, 0.0, 0.0, 1.0], "bins": [-0.01591435819864273, -0.015396547503769398, -0.014878736808896065, -0.014360926114022732, -0.013843115419149399, -0.013325304724276066, -0.012807494029402733, -0.0122896833345294, -0.011771872639656067, -0.011254061944782734, -0.010736251249909401, -0.010218440555036068, -0.009700629860162735, -0.009182819165289402, -0.008665008470416069, -0.008147197775542736, -0.007629387080669403, -0.00711157638579607, -0.006593765690922737, -0.006075954996049404, -0.005558144301176071, -0.005040333606302738, -0.004522522911429405, -0.004004712216556072, -0.0034869015216827393, -0.0029690908268094063, -0.0024512801319360733, -0.0019334694370627403, -0.0014156587421894073, -0.0008978480473160744, -0.0003800373524427414, 0.00013777241110801697, 0.0006555840373039246, 0.0011733956634998322, 0.0016912054270505905, 0.002209015190601349, 0.0027268268167972565, 0.003244638442993164, 0.0037624482065439224, 0.004280257970094681, 0.004798069596290588, 0.005315881222486496, 0.005833690986037254, 0.006351500749588013, 0.00686931237578392, 0.007387124001979828, 0.007904933765530586, 0.008422743529081345, 0.008940555155277252, 0.00945836678147316, 0.009976176545023918, 0.010493986308574677, 0.011011797934770584, 0.011529609560966492, 0.01204741932451725, 0.012565229088068008, 0.013083040714263916, 0.013600852340459824, 0.014118662104010582, 0.01463647186756134, 0.015154283493757248, 0.015672095119953156, 0.016189903020858765, 0.016707714647054672, 0.01722552627325058]}, "_runtime": 5600.596043109894, "gradients/ImageModel.blocks.1.batchnorm.weight": {"_type": "histogram", "values": [1.0, 0.0, 0.0, 0.0, 0.0, 0.0, 0.0, 0.0, 0.0, 0.0, 0.0, 0.0, 0.0, 0.0, 0.0, 0.0, 0.0, 0.0, 0.0, 0.0, 0.0, 0.0, 0.0, 0.0, 0.0, 0.0, 0.0, 0.0, 0.0, 0.0, 0.0, 0.0, 0.0, 1.0, 0.0, 0.0, 0.0, 0.0, 0.0, 22.0, 0.0, 0.0, 0.0, 0.0, 0.0, 0.0, 0.0, 0.0, 0.0, 0.0, 0.0, 0.0, 0.0, 0.0, 0.0, 0.0, 0.0, 0.0, 0.0, 0.0, 0.0, 0.0, 0.0, 1.0], "bins": [-0.03383297473192215, -0.032981663942337036, -0.032130349427461624, -0.03127903863787651, -0.030427725985646248, -0.029576413333415985, -0.02872510254383087, -0.02787378989160061, -0.027022477239370346, -0.026171166449785233, -0.02531985379755497, -0.024468541145324707, -0.023617230355739594, -0.02276591770350933, -0.021914605051279068, -0.021063294261693954, -0.02021198160946369, -0.01936066895723343, -0.018509358167648315, -0.017658045515418053, -0.01680673286318779, -0.015955422073602676, -0.015104109421372414, -0.014252796769142151, -0.013401485979557037, -0.012550173327326775, -0.011698860675096512, -0.010847548022866249, -0.009996237233281136, -0.009144924581050873, -0.00829361192882061, -0.0074423011392354965, -0.006590988487005234, -0.005739675834774971, -0.0048883650451898575, -0.004037052392959595, -0.003185739740729332, -0.002334427088499069, -0.0014831162989139557, -0.0006318055093288422, 0.00021950900554656982, 0.0010708197951316833, 0.0019221305847167969, 0.002773445099592209, 0.0036247558891773224, 0.004476066678762436, 0.005327381193637848, 0.006178691983222961, 0.007030002772808075, 0.007881317287683487, 0.0087326280772686, 0.009583942592144012, 0.010435253381729126, 0.01128656417131424, 0.012137878686189651, 0.012989189475774765, 0.013840500265359879, 0.01469181478023529, 0.015543125569820404, 0.016394436359405518, 0.01724575087428093, 0.018097061663866043, 0.018948372453451157, 0.01979968696832657, 0.020650997757911682]}, "gradients/FeatureModel.output_layer.weight": {"_type": "histogram", "values": [1.0, 0.0, 0.0, 0.0, 0.0, 0.0, 0.0, 0.0, 0.0, 1.0, 2.0, 0.0, 0.0, 0.0, 1.0, 1.0, 0.0, 2.0, 2.0, 3.0, 3.0, 4.0, 3.0, 4.0, 1.0, 7.0, 3.0, 3.0, 3.0, 4.0, 4.0, 411.0, 3.0, 1.0, 5.0, 2.0, 4.0, 3.0, 4.0, 6.0, 5.0, 1.0, 0.0, 2.0, 1.0, 0.0, 0.0, 2.0, 0.0, 3.0, 1.0, 1.0, 0.0, 0.0, 2.0, 0.0, 1.0, 1.0, 0.0, 0.0, 0.0, 0.0, 0.0, 1.0], "bins": [-0.05419004708528519, -0.052474550902843475, -0.050759050995111465, -0.049043551087379456, -0.047328054904937744, -0.04561255872249603, -0.04389705881476402, -0.04218155890703201, -0.0404660627245903, -0.03875056654214859, -0.03703506663441658, -0.03531956672668457, -0.03360407054424286, -0.03188857436180115, -0.030173074454069138, -0.028457576408982277, -0.026742078363895416, -0.025026580318808556, -0.023311082273721695, -0.021595582365989685, -0.019880086183547974, -0.018164590001106262, -0.016449090093374252, -0.014733590185642242, -0.013018094003200531, -0.01130259782075882, -0.00958709791302681, -0.0078715980052948, -0.006156101822853088, -0.004440605640411377, -0.002725105732679367, -0.0010096058249473572, 0.0007058903574943542, 0.0024213865399360657, 0.0041368864476680756, 0.0058523863554000854, 0.007567882537841797, 0.009283378720283508, 0.010998882353305817, 0.012714378535747528, 0.01442987471818924, 0.01614537090063095, 0.017860867083072662, 0.01957637071609497, 0.021291866898536682, 0.023007363080978394, 0.024722866714000702, 0.026438362896442413, 0.028153859078884125, 0.029869355261325836, 0.03158485144376755, 0.033300355076789856, 0.03501585125923157, 0.03673134744167328, 0.03844685107469559, 0.0401623472571373, 0.04187784343957901, 0.04359333962202072, 0.04530883580446243, 0.04702433943748474, 0.04873983561992645, 0.050455331802368164, 0.05217083543539047, 0.053886331617832184, 0.055601827800273895]}, "gradients/nn2.0.weight": {"_type": "histogram", "values": [1.0, 1.0, 0.0, 0.0, 2.0, 1.0, 0.0, 0.0, 0.0, 1.0, 0.0, 0.0, 0.0, 0.0, 0.0, 0.0, 2.0, 2.0, 1.0, 1.0, 2.0, 1.0, 4.0, 0.0, 1.0, 0.0, 25.0, 1.0, 0.0, 1.0, 1.0, 3.0, 1.0, 1.0, 2.0, 0.0, 1.0, 0.0, 1.0, 0.0, 0.0, 0.0, 0.0, 1.0, 1.0, 2.0, 1.0, 0.0, 0.0, 1.0, 0.0, 0.0, 0.0, 0.0, 0.0, 0.0, 0.0, 0.0, 0.0, 0.0, 0.0, 0.0, 0.0, 1.0], "bins": [-0.07243892550468445, -0.06971853226423264, -0.06699813157320023, -0.06427773833274841, -0.0615573413670063, -0.05883694440126419, -0.05611655116081238, -0.05339615419507027, -0.050675757229328156, -0.047955360263586044, -0.04523496329784393, -0.04251457005739212, -0.03979417309165001, -0.0370737761259079, -0.034353382885456085, -0.031632985919713974, -0.028912588953971863, -0.02619219198822975, -0.02347179502248764, -0.020751401782035828, -0.018031004816293716, -0.015310607850551605, -0.012590214610099792, -0.009869813919067383, -0.00714942067861557, -0.004429027438163757, -0.0017086267471313477, 0.001011766493320465, 0.003732159733772278, 0.0064525604248046875, 0.0091729536652565, 0.01189335435628891, 0.014613747596740723, 0.017334140837192535, 0.020054541528224945, 0.022774934768676758, 0.025495335459709167, 0.02821572870016098, 0.030936121940612793, 0.0336565226316452, 0.036376915872097015, 0.03909730911254883, 0.04181770980358124, 0.04453810304403305, 0.04725849628448486, 0.04997889697551727, 0.05269929766654968, 0.0554196834564209, 0.05814008414745331, 0.06086048483848572, 0.06358087062835693, 0.06630127131938934, 0.06902167201042175, 0.07174205780029297, 0.07446245849132538, 0.07718285918235779, 0.079903244972229, 0.08262364566326141, 0.08534404635429382, 0.08806444704532623, 0.09078483283519745, 0.09350523352622986, 0.09622563421726227, 0.09894602000713348, 0.1016664206981659]}, "gradients/ImageModel.blocks.5.conv.bias": {"_type": "histogram", "values": [0.0, 0.0, 0.0, 0.0, 0.0, 0.0, 0.0, 0.0, 0.0, 0.0, 0.0, 0.0, 0.0, 0.0, 0.0, 0.0, 0.0, 0.0, 0.0, 0.0, 0.0, 0.0, 0.0, 0.0, 0.0, 0.0, 0.0, 0.0, 0.0, 0.0, 0.0, 0.0, 1.0, 0.0, 0.0, 0.0, 0.0, 0.0, 0.0, 0.0, 0.0, 0.0, 0.0, 0.0, 0.0, 0.0, 0.0, 0.0, 0.0, 0.0, 0.0, 0.0, 0.0, 0.0, 0.0, 0.0, 0.0, 0.0, 0.0, 0.0, 0.0, 0.0, 0.0, 0.0], "bins": [0.002457737922668457, 0.002457737922668457, 0.002457737922668457, 0.002457737922668457, 0.002457737922668457, 0.002457737922668457, 0.002457737922668457, 0.002457737922668457, 0.002457737922668457, 0.002457737922668457, 0.002457737922668457, 0.002457737922668457, 0.002457737922668457, 0.002457737922668457, 0.002457737922668457, 0.002457737922668457, 0.002457737922668457, 0.002457737922668457, 0.002457737922668457, 0.002457737922668457, 0.002457737922668457, 0.002457737922668457, 0.002457737922668457, 0.002457737922668457, 0.002457737922668457, 0.002457737922668457, 0.002457737922668457, 0.002457737922668457, 0.002457737922668457, 0.002457737922668457, 0.002457737922668457, 0.002457737922668457, 0.002457737922668457, 0.002457737922668457, 0.002457737922668457, 0.002457737922668457, 0.002457737922668457, 0.002457737922668457, 0.002457737922668457, 0.002457737922668457, 0.002457737922668457, 0.002457737922668457, 0.002457737922668457, 0.002457737922668457, 0.002457737922668457, 0.002457737922668457, 0.002457737922668457, 0.002457737922668457, 0.002457737922668457, 0.002457737922668457, 0.002457737922668457, 0.002457737922668457, 0.002457737922668457, 0.002457737922668457, 0.002457737922668457, 0.002457737922668457, 0.002457737922668457, 0.002457737922668457, 0.002457737922668457, 0.002457737922668457, 0.002457737922668457, 0.002457737922668457, 0.002457737922668457, 0.002457737922668457, 0.002457737922668457]}, "gradients/ImageModel.blocks.3.batchnorm.bias": {"_type": "histogram", "values": [1.0, 0.0, 0.0, 0.0, 0.0, 0.0, 0.0, 0.0, 0.0, 0.0, 0.0, 0.0, 0.0, 0.0, 0.0, 0.0, 0.0, 0.0, 0.0, 0.0, 0.0, 0.0, 0.0, 0.0, 0.0, 0.0, 0.0, 0.0, 0.0, 0.0, 0.0, 0.0, 0.0, 0.0, 0.0, 1.0, 0.0, 0.0, 0.0, 0.0, 1.0, 0.0, 0.0, 0.0, 0.0, 0.0, 0.0, 0.0, 0.0, 0.0, 0.0, 0.0, 0.0, 0.0, 0.0, 0.0, 0.0, 0.0, 0.0, 0.0, 0.0, 0.0, 0.0, 2.0], "bins": [-0.018147511407732964, -0.0177052803337574, -0.017263049259781837, -0.016820816323161125, -0.016378585249185562, -0.01593635417521, -0.015494122169911861, -0.015051891095936298, -0.01460965909063816, -0.014167428016662598, -0.013725196942687035, -0.013282964937388897, -0.01284073293209076, -0.012398501858115196, -0.011956270784139633, -0.011514038778841496, -0.011071806773543358, -0.010629575699567795, -0.010187344625592232, -0.009745112620294094, -0.009302881546318531, -0.008860649541020393, -0.00841841846704483, -0.007976186461746693, -0.00753395538777113, -0.007091723382472992, -0.006649492308497429, -0.006207260303199291, -0.005765029229223728, -0.0053227972239255905, -0.0048805661499500275, -0.00443833414465189, -0.003996103070676327, -0.0035538719967007637, -0.003111639991402626, -0.002669408917427063, -0.0022271778434515, -0.0017849449068307877, -0.0013427138328552246, -0.0009004827588796616, -0.0004582516849040985, -1.601874828338623e-05, 0.0004262123256921768, 0.0008684433996677399, 0.001310674473643303, 0.0017529074102640152, 0.0021951384842395782, 0.0026373695582151413, 0.0030796006321907043, 0.0035218317061662674, 0.00396406464278698, 0.004406295716762543, 0.004848526790738106, 0.005290757864713669, 0.005732990801334381, 0.006175221875309944, 0.006617452949285507, 0.00705968402326107, 0.0075019169598817825, 0.007944148033857346, 0.008386379107832909, 0.008828610181808472, 0.009270843118429184, 0.009713074192404747, 0.01015530526638031]}, "gradients/ImageModel.blocks.1.conv.weight": {"_type": "histogram", "values": [1.0, 0.0, 0.0, 0.0, 0.0, 0.0, 0.0, 0.0, 0.0, 0.0, 0.0, 0.0, 0.0, 0.0, 0.0, 0.0, 3.0, 1.0, 1.0, 1.0, 0.0, 2.0, 0.0, 1.0, 0.0, 3.0, 1.0, 2.0, 3.0, 1.0, 0.0, 2.0, 1.0, 2.0, 1.0, 1.0, 3.0, 13.0, 28723.0, 17.0, 4.0, 1.0, 0.0, 2.0, 3.0, 2.0, 1.0, 0.0, 1.0, 0.0, 0.0, 0.0, 1.0, 0.0, 1.0, 0.0, 0.0, 0.0, 0.0, 0.0, 0.0, 0.0, 0.0, 1.0], "bins": [-0.0213871318846941, -0.020831488072872162, -0.020275844261050224, -0.019720198586583138, -0.0191645547747612, -0.018608910962939262, -0.018053267151117325, -0.017497621476650238, -0.0169419776648283, -0.016386333853006363, -0.015830690041184425, -0.015275045298039913, -0.014719401486217976, -0.014163756743073463, -0.013608112931251526, -0.013052468188107014, -0.012496824376285076, -0.011941180564463139, -0.011385535821318626, -0.010829892009496689, -0.010274247266352177, -0.009718603454530239, -0.009162958711385727, -0.00860731489956379, -0.008051671087741852, -0.00749602634459734, -0.006940382532775402, -0.00638473778963089, -0.005829093977808952, -0.005273450165987015, -0.004717804491519928, -0.00416216067969799, -0.003606516867876053, -0.0030508730560541153, -0.0024952292442321777, -0.001939583569765091, -0.0013839397579431534, -0.0008282959461212158, -0.00027265213429927826, 0.00028299354016780853, 0.0008386373519897461, 0.0013942811638116837, 0.0019499249756336212, 0.0025055687874555588, 0.0030612144619226456, 0.003616858273744583, 0.004172502085566521, 0.004728145897388458, 0.005283789709210396, 0.005839435383677483, 0.00639507919549942, 0.006950723007321358, 0.007506366819143295, 0.008062012493610382, 0.00861765630543232, 0.009173300117254257, 0.009728943929076195, 0.010284589603543282, 0.01084023155272007, 0.011395877227187157, 0.011951522901654243, 0.012507164850831032, 0.013062810525298119, 0.013618452474474907, 0.014174098148941994]}, "gradients/ImageModel.blocks.0.batchnorm.weight": {"_type": "histogram", "values": [1.0, 0.0, 0.0, 0.0, 0.0, 0.0, 0.0, 0.0, 0.0, 0.0, 0.0, 0.0, 0.0, 0.0, 0.0, 0.0, 0.0, 0.0, 0.0, 0.0, 0.0, 0.0, 0.0, 0.0, 0.0, 0.0, 0.0, 0.0, 0.0, 1.0, 122.0, 2.0, 0.0, 0.0, 0.0, 0.0, 0.0, 0.0, 0.0, 0.0, 0.0, 1.0, 0.0, 0.0, 0.0, 0.0, 0.0, 0.0, 0.0, 0.0, 0.0, 0.0, 0.0, 0.0, 0.0, 0.0, 0.0, 0.0, 0.0, 0.0, 0.0, 0.0, 0.0, 1.0], "bins": [-0.005758133716881275, -0.005567289888858795, -0.005376446060836315, -0.005185602232813835, -0.004994758404791355, -0.004803915042430162, -0.004613071214407682, -0.004422227386385202, -0.004231383558362722, -0.004040539730340242, -0.0038496959023177624, -0.003658852307125926, -0.003468008479103446, -0.003277164651080966, -0.0030863210558891296, -0.0028954772278666496, -0.0027046333998441696, -0.0025137895718216896, -0.0023229457437992096, -0.0021321021486073732, -0.0019412583205848932, -0.0017504147253930569, -0.0015595708973705769, -0.0013687270693480968, -0.0011778832413256168, -0.0009870394133031368, -0.0007961955852806568, -0.0006053517572581768, -0.0004145083948969841, -0.0002236645668745041, -3.282073885202408e-05, 0.00015802308917045593, 0.00034886691719293594, 0.000539710745215416, 0.000730554573237896, 0.000921398401260376, 0.001112242229282856, 0.0013030855916440487, 0.0014939294196665287, 0.0016847732476890087, 0.0018756170757114887, 0.0020664604380726814, 0.0022573042660951614, 0.0024481480941176414, 0.0026389919221401215, 0.0028298357501626015, 0.0030206795781850815, 0.0032115234062075615, 0.0034023672342300415, 0.0035932110622525215, 0.0037840548902750015, 0.0039748987182974815, 0.0041657425463199615, 0.0043565863743424416, 0.004547430202364922, 0.004738274030387402, 0.004929116927087307, 0.005119960755109787, 0.005310804583132267, 0.005501648411154747, 0.005692492239177227, 0.005883336067199707, 0.006074179895222187, 0.006265023723244667, 0.006455867551267147]}, "gradients/nn2.2.bias": {"_type": "histogram", "values": [1.0, 0.0, 1.0, 0.0, 0.0, 0.0, 0.0, 0.0, 0.0, 1.0, 0.0, 0.0, 0.0, 0.0, 0.0, 0.0, 1.0, 0.0, 0.0, 1.0, 0.0, 0.0, 0.0, 0.0, 0.0, 0.0, 0.0, 0.0, 0.0, 0.0, 0.0, 6.0, 0.0, 0.0, 0.0, 0.0, 0.0, 0.0, 0.0, 0.0, 0.0, 0.0, 0.0, 0.0, 0.0, 0.0, 0.0, 0.0, 1.0, 0.0, 0.0, 0.0, 0.0, 0.0, 0.0, 1.0, 0.0, 0.0, 0.0, 1.0, 0.0, 0.0, 1.0, 1.0], "bins": [-0.12484854459762573, -0.12092990428209305, -0.11701126396656036, -0.11309262365102768, -0.109173983335495, -0.10525534301996231, -0.10133670270442963, -0.09741806238889694, -0.09349942207336426, -0.08958078175783157, -0.08566214144229889, -0.0817435011267662, -0.07782486081123352, -0.07390622049570084, -0.06998758018016815, -0.06606893986463547, -0.06215029954910278, -0.0582316592335701, -0.054313018918037415, -0.05039437860250473, -0.046475738286972046, -0.04255709797143936, -0.03863845765590668, -0.03471981734037399, -0.03080117702484131, -0.026882536709308624, -0.02296389639377594, -0.019045256078243256, -0.015126615762710571, -0.011207975447177887, -0.007289335131645203, -0.0033706948161125183, 0.000547945499420166, 0.004466593265533447, 0.008385226130485535, 0.012303858995437622, 0.016222506761550903, 0.020141154527664185, 0.024059787392616272, 0.02797842025756836, 0.03189706802368164, 0.03581571578979492, 0.03973434865474701, 0.0436529815196991, 0.04757162928581238, 0.05149027705192566, 0.05540890991687775, 0.059327542781829834, 0.06324619054794312, 0.0671648383140564, 0.07108347117900848, 0.07500210404396057, 0.07892075181007385, 0.08283939957618713, 0.08675803244113922, 0.09067666530609131, 0.09459531307220459, 0.09851396083831787, 0.10243259370326996, 0.10635122656822205, 0.11026987433433533, 0.11418852210044861, 0.1181071549654007, 0.12202578783035278, 0.12594443559646606]}, "gradients/ImageModel.blocks.4.batchnorm.weight": {"_type": "histogram", "values": [1.0, 0.0, 0.0, 0.0, 0.0, 0.0, 0.0, 0.0, 0.0, 0.0, 0.0, 0.0, 0.0, 0.0, 0.0, 0.0, 0.0, 1.0, 0.0, 0.0, 0.0, 0.0, 0.0, 0.0, 0.0, 0.0, 0.0, 0.0, 0.0, 0.0, 0.0, 0.0, 0.0, 0.0, 0.0, 0.0, 1.0, 0.0, 0.0, 0.0, 0.0, 0.0, 0.0, 0.0, 1.0, 0.0, 0.0, 0.0, 0.0, 0.0, 0.0, 0.0, 0.0, 0.0, 0.0, 0.0, 0.0, 0.0, 0.0, 0.0, 0.0, 0.0, 0.0, 1.0], "bins": [-0.015788182616233826, -0.015305235050618649, -0.014822287485003471, -0.014339339919388294, -0.013856392353773117, -0.013373445719480515, -0.012890498153865337, -0.01240755058825016, -0.011924603022634983, -0.011441655457019806, -0.010958707891404629, -0.010475760325789452, -0.009992813691496849, -0.009509865194559097, -0.009026918560266495, -0.008543970994651318, -0.00806102342903614, -0.007578075863420963, -0.007095128297805786, -0.006612180732190609, -0.006129233166575432, -0.005646286532282829, -0.005163338966667652, -0.004680391401052475, -0.004197443835437298, -0.0037144962698221207, -0.0032315487042069435, -0.0027486011385917664, -0.002265654504299164, -0.0017827069386839867, -0.0012997593730688095, -0.0008168118074536324, -0.0003338642418384552, 0.00014908239245414734, 0.0006320308893918991, 0.0011149775236845016, 0.0015979260206222534, 0.002080872654914856, 0.0025638211518526077, 0.0030467677861452103, 0.003529716283082962, 0.004012662917375565, 0.004495609551668167, 0.004978558048605919, 0.005461504682898521, 0.005944453179836273, 0.006427399814128876, 0.0069103483110666275, 0.00739329494535923, 0.007876241579651833, 0.008359190076589584, 0.008842136710882187, 0.009325085207819939, 0.009808031842112541, 0.010290980339050293, 0.010773926973342896, 0.011256873607635498, 0.01173982210457325, 0.012222768738865852, 0.012705717235803604, 0.013188663870096207, 0.013671612367033958, 0.014154559001326561, 0.014637507498264313, 0.015120454132556915]}, "gradients/ImageModel.blocks.5.conv.weight": {"_type": "histogram", "values": [1.0, 0.0, 0.0, 0.0, 0.0, 0.0, 0.0, 0.0, 0.0, 1.0, 0.0, 0.0, 0.0, 1.0, 0.0, 0.0, 0.0, 0.0, 0.0, 0.0, 0.0, 0.0, 0.0, 1.0, 0.0, 0.0, 0.0, 0.0, 0.0, 0.0, 0.0, 0.0, 1.0, 1.0, 1.0, 1.0, 0.0, 0.0, 2.0, 0.0, 1.0, 1.0, 1.0, 0.0, 1.0, 0.0, 0.0, 0.0, 1.0, 1.0, 0.0, 0.0, 1.0, 0.0, 0.0, 1.0, 0.0, 0.0, 0.0, 1.0, 0.0, 0.0, 0.0, 1.0], "bins": [-0.03588192164897919, -0.03488678112626076, -0.03389163687825203, -0.0328964963555336, -0.03190135210752487, -0.030906211584806442, -0.029911071062088013, -0.028915928676724434, -0.027920786291360855, -0.026925643905997276, -0.025930501520633698, -0.024935360997915268, -0.02394021861255169, -0.02294507622718811, -0.02194993570446968, -0.020954793319106102, -0.019959650933742523, -0.018964508548378944, -0.017969366163015366, -0.016974225640296936, -0.015979083254933357, -0.014983940869569778, -0.013988800346851349, -0.01299365796148777, -0.011998515576124191, -0.011003373190760612, -0.010008230805397034, -0.009013090282678604, -0.008017947897315025, -0.0070228055119514465, -0.006027664989233017, -0.005032522603869438, -0.004037380218505859, -0.00304223969578743, -0.0020470954477787018, -0.0010519549250602722, -5.681067705154419e-05, 0.0009383298456668854, 0.001933470368385315, 0.002928614616394043, 0.0039237551391124725, 0.004918895661830902, 0.00591403990983963, 0.00690918043255806, 0.00790432095527649, 0.008899465203285217, 0.009894605726003647, 0.010889749974012375, 0.011884890496730804, 0.012880031019449234, 0.013875175267457962, 0.014870315790176392, 0.01586546003818512, 0.01686060056090355, 0.01785574108362198, 0.018850885331630707, 0.019846025854349136, 0.020841166377067566, 0.021836310625076294, 0.022831451147794724, 0.023826591670513153, 0.02482173591852188, 0.02581687644124031, 0.02681201696395874, 0.027807161211967468]}, "gradients/FeatureModel.dnn_layers.5.weight": {"_type": "histogram", "values": [1.0, 0.0, 0.0, 0.0, 0.0, 0.0, 0.0, 0.0, 0.0, 0.0, 0.0, 0.0, 0.0, 0.0, 0.0, 0.0, 0.0, 0.0, 0.0, 0.0, 0.0, 0.0, 0.0, 1.0, 0.0, 0.0, 0.0, 3.0, 1.0, 0.0, 0.0, 0.0, 0.0, 3.0, 0.0, 0.0, 0.0, 0.0, 1.0, 102.0, 1.0, 3.0, 1.0, 0.0, 0.0, 1.0, 1.0, 1.0, 1.0, 0.0, 1.0, 1.0, 1.0, 1.0, 1.0, 1.0, 0.0, 0.0, 0.0, 0.0, 0.0, 0.0, 0.0, 1.0], "bins": [-0.07315278053283691, -0.07129931449890137, -0.06944584846496582, -0.06759237498044968, -0.06573890894651413, -0.06388544291257858, -0.062031976878643036, -0.06017851084470749, -0.058325041085481644, -0.0564715713262558, -0.05461810529232025, -0.052764639258384705, -0.05091117322444916, -0.04905770346522331, -0.047204237431287766, -0.04535076767206192, -0.04349730163812637, -0.041643835604190826, -0.03979036584496498, -0.037936899811029434, -0.03608343005180359, -0.03422996401786804, -0.032376497983932495, -0.03052302822470665, -0.028669562190771103, -0.026816096156835556, -0.02496262639760971, -0.023109160363674164, -0.021255694329738617, -0.01940222457051277, -0.017548758536577225, -0.01569528877735138, -0.013841822743415833, -0.011988356709480286, -0.010134890675544739, -0.008281417191028595, -0.006427951157093048, -0.004574485123157501, -0.0027210190892219543, -0.0008675530552864075, 0.0009859204292297363, 0.002839386463165283, 0.00469285249710083, 0.006546318531036377, 0.008399784564971924, 0.01025325059890747, 0.012106724083423615, 0.013960190117359161, 0.015813656151294708, 0.017667122185230255, 0.019520588219165802, 0.021374061703681946, 0.023227527737617493, 0.02508099377155304, 0.026934459805488586, 0.028787925839424133, 0.03064139187335968, 0.032494865357875824, 0.03434833139181137, 0.03620179742574692, 0.038055263459682465, 0.03990872949361801, 0.041762202978134155, 0.0436156690120697, 0.04546913504600525]}, "gradients/ImageModel.blocks.5.batchnorm.weight": {"_type": "histogram", "values": [0.0, 0.0, 0.0, 0.0, 0.0, 0.0, 0.0, 0.0, 0.0, 0.0, 0.0, 0.0, 0.0, 0.0, 0.0, 0.0, 0.0, 0.0, 0.0, 0.0, 0.0, 0.0, 0.0, 0.0, 0.0, 0.0, 0.0, 0.0, 0.0, 0.0, 0.0, 0.0, 1.0, 0.0, 0.0, 0.0, 0.0, 0.0, 0.0, 0.0, 0.0, 0.0, 0.0, 0.0, 0.0, 0.0, 0.0, 0.0, 0.0, 0.0, 0.0, 0.0, 0.0, 0.0, 0.0, 0.0, 0.0, 0.0, 0.0, 0.0, 0.0, 0.0, 0.0, 0.0], "bins": [-0.013826509937644005, -0.013826509937644005, -0.013826509937644005, -0.013826509937644005, -0.013826509937644005, -0.013826509937644005, -0.013826509937644005, -0.013826509937644005, -0.013826509937644005, -0.013826509937644005, -0.013826509937644005, -0.013826509937644005, -0.013826509937644005, -0.013826509937644005, -0.013826509937644005, -0.013826509937644005, -0.013826509937644005, -0.013826509937644005, -0.013826509937644005, -0.013826509937644005, -0.013826509937644005, -0.013826509937644005, -0.013826509937644005, -0.013826509937644005, -0.013826509937644005, -0.013826509937644005, -0.013826509937644005, -0.013826509937644005, -0.013826509937644005, -0.013826509937644005, -0.013826509937644005, -0.013826509937644005, -0.013826509937644005, -0.013826509937644005, -0.013826509937644005, -0.013826509937644005, -0.013826509937644005, -0.013826509937644005, -0.013826509937644005, -0.013826509937644005, -0.013826509937644005, -0.013826509937644005, -0.013826509937644005, -0.013826509937644005, -0.013826509937644005, -0.013826509937644005, -0.013826509937644005, -0.013826509937644005, -0.013826509937644005, -0.013826509937644005, -0.013826509937644005, -0.013826509937644005, -0.013826509937644005, -0.013826509937644005, -0.013826509937644005, -0.013826509937644005, -0.013826509937644005, -0.013826509937644005, -0.013826509937644005, -0.013826509937644005, -0.013826509937644005, -0.013826509937644005, -0.013826509937644005, -0.013826509937644005, -0.013826509937644005]}, "test_loss": 0.06892102269593521, "gradients/ImageModel.blocks.1.conv.bias": {"_type": "histogram", "values": [1.0, 0.0, 0.0, 0.0, 0.0, 0.0, 0.0, 0.0, 0.0, 0.0, 0.0, 0.0, 0.0, 0.0, 0.0, 0.0, 0.0, 0.0, 0.0, 0.0, 0.0, 0.0, 0.0, 0.0, 0.0, 0.0, 0.0, 0.0, 0.0, 0.0, 0.0, 0.0, 0.0, 0.0, 0.0, 0.0, 0.0, 0.0, 0.0, 0.0, 0.0, 0.0, 0.0, 0.0, 0.0, 0.0, 0.0, 0.0, 0.0, 0.0, 0.0, 0.0, 0.0, 0.0, 0.0, 0.0, 0.0, 0.0, 0.0, 0.0, 0.0, 0.0, 0.0, 24.0], "bins": [-0.041816193610429764, -0.0411524623632431, -0.04048873111605644, -0.03982499986886978, -0.03916126862168312, -0.03849753737449646, -0.0378338061273098, -0.03717007488012314, -0.03650634363293648, -0.03584261238574982, -0.035178881138563156, -0.034515149891376495, -0.033851418644189835, -0.033187687397003174, -0.03252395614981651, -0.03186022490262985, -0.03119649365544319, -0.03053276240825653, -0.02986903116106987, -0.02920529991388321, -0.02854156866669655, -0.027877837419509888, -0.027214106172323227, -0.026550374925136566, -0.025886643677949905, -0.025222912430763245, -0.024559181183576584, -0.023895449936389923, -0.023231718689203262, -0.0225679874420166, -0.02190425619482994, -0.02124052494764328, -0.02057679370045662, -0.01991306245326996, -0.019249331206083298, -0.018585599958896637, -0.017921868711709976, -0.017258137464523315, -0.016594406217336655, -0.015930674970149994, -0.015266943722963333, -0.014603212475776672, -0.013939481228590012, -0.01327574998140335, -0.01261201873421669, -0.01194828748703003, -0.011284556239843369, -0.010620824992656708, -0.009957093745470047, -0.009293362498283386, -0.008629631251096725, -0.007965900003910065, -0.007302168756723404, -0.006638437509536743, -0.005974706262350082, -0.005310975015163422, -0.004647243767976761, -0.0039835125207901, -0.0033197812736034393, -0.0026560500264167786, -0.001992318779230118, -0.001328587532043457, -0.0006648562848567963, -1.125037670135498e-06, 0.0006626062095165253]}, "gradients/ImageModel.blocks.0.batchnorm.bias": {"_type": "histogram", "values": [1.0, 0.0, 0.0, 0.0, 0.0, 0.0, 0.0, 0.0, 0.0, 0.0, 0.0, 0.0, 0.0, 0.0, 0.0, 0.0, 0.0, 0.0, 0.0, 0.0, 0.0, 0.0, 0.0, 0.0, 0.0, 0.0, 0.0, 0.0, 0.0, 0.0, 0.0, 0.0, 0.0, 0.0, 1.0, 0.0, 1.0, 0.0, 0.0, 1.0, 122.0, 0.0, 0.0, 0.0, 0.0, 1.0, 0.0, 0.0, 0.0, 0.0, 0.0, 0.0, 0.0, 0.0, 0.0, 0.0, 0.0, 0.0, 0.0, 0.0, 0.0, 0.0, 0.0, 1.0], "bins": [-0.004946769215166569, -0.004824458155781031, -0.00470214756205678, -0.004579836502671242, -0.004457525908946991, -0.004335214849561453, -0.004212904255837202, -0.004090593196451664, -0.003968282602727413, -0.003845971543341875, -0.0037236607167869806, -0.003601349890232086, -0.003479038830846548, -0.0033567282371222973, -0.003234417177736759, -0.0031121063511818647, -0.0029897955246269703, -0.002867484698072076, -0.0027451738715171814, -0.002622863044962287, -0.0025005522184073925, -0.0023782411590218544, -0.00225593033246696, -0.0021336195059120655, -0.002011308679357171, -0.0018889978528022766, -0.0017666870262473822, -0.0016443761996924877, -0.0015220651403069496, -0.0013997543137520552, -0.0012774434871971607, -0.0011551326606422663, -0.0010328218340873718, -0.0009105107747018337, -0.0007882001809775829, -0.0006658891215920448, -0.000543578527867794, -0.00042126746848225594, -0.00029895687475800514, -0.00017664581537246704, -5.433522164821625e-05, 6.797583773732185e-05, 0.00019028689712285995, 0.00031259749084711075, 0.00043490855023264885, 0.0005572191439568996, 0.0006795302033424377, 0.0008018407970666885, 0.0009241518564522266, 0.0010464629158377647, 0.0011687735095620155, 0.0012910845689475536, 0.0014133951626718044, 0.0015357062220573425, 0.0016580168157815933, 0.0017803278751671314, 0.0019026389345526695, 0.0020249495282769203, 0.0021472605876624584, 0.002269571181386709, 0.0023918822407722473, 0.002514192834496498, 0.002636503893882036, 0.002758814487606287, 0.002881125546991825]}, "gradients/ImageModel.blocks.2.batchnorm.bias": {"_type": "histogram", "values": [1.0, 0.0, 0.0, 0.0, 0.0, 0.0, 0.0, 0.0, 0.0, 0.0, 0.0, 0.0, 0.0, 0.0, 0.0, 0.0, 0.0, 0.0, 2.0, 4.0, 1.0, 0.0, 0.0, 0.0, 0.0, 0.0, 0.0, 0.0, 0.0, 0.0, 0.0, 0.0, 0.0, 0.0, 0.0, 0.0, 0.0, 0.0, 0.0, 0.0, 0.0, 0.0, 0.0, 0.0, 1.0, 0.0, 0.0, 0.0, 0.0, 0.0, 0.0, 0.0, 0.0, 0.0, 0.0, 0.0, 0.0, 0.0, 0.0, 0.0, 0.0, 0.0, 0.0, 1.0], "bins": [-0.008182570338249207, -0.00776952039450407, -0.007356470916420221, -0.006943420972675085, -0.006530371494591236, -0.0061173215508461, -0.005704271607100964, -0.005291221663355827, -0.004878172185271978, -0.004465122707188129, -0.004052072763442993, -0.003639022819697857, -0.0032259728759527206, -0.0028129233978688717, -0.0023998734541237354, -0.0019868239760398865, -0.0015737740322947502, -0.001160724088549614, -0.000747674610465765, -0.00033462513238191605, 7.842481136322021e-05, 0.0004914747551083565, 0.0009045246988534927, 0.001317574642598629, 0.0017306245863437653, 0.002143673598766327, 0.002556723542511463, 0.0029697734862565994, 0.0033828234300017357, 0.003795873373746872, 0.004208922386169434, 0.00462197232991457, 0.005035022273659706, 0.005448072217404842, 0.005861122161149979, 0.00627417117357254, 0.0066872211173176765, 0.007100271061062813, 0.0075133200734853745, 0.007926370948553085, 0.008339419960975647, 0.008752470836043358, 0.00916551984846592, 0.009578568860888481, 0.009991619735956192, 0.010404668748378754, 0.010817719623446465, 0.011230768635869026, 0.011643819510936737, 0.012056868523359299, 0.01246991753578186, 0.012882968410849571, 0.013296017423272133, 0.013709068298339844, 0.014122117310762405, 0.014535166323184967, 0.014948217198252678, 0.01536126621067524, 0.01577431708574295, 0.016187366098165512, 0.016600415110588074, 0.017013465985655785, 0.017426514998078346, 0.017839565873146057, 0.01825261488556862]}, "gradients/ImageModel.blocks.2.conv.bias": {"_type": "histogram", "values": [1.0, 0.0, 0.0, 0.0, 0.0, 0.0, 0.0, 0.0, 1.0, 0.0, 0.0, 0.0, 0.0, 0.0, 0.0, 0.0, 0.0, 0.0, 0.0, 0.0, 0.0, 0.0, 0.0, 0.0, 0.0, 0.0, 0.0, 0.0, 0.0, 0.0, 0.0, 0.0, 0.0, 0.0, 1.0, 0.0, 0.0, 0.0, 0.0, 0.0, 0.0, 3.0, 2.0, 0.0, 0.0, 0.0, 0.0, 0.0, 0.0, 0.0, 0.0, 0.0, 0.0, 0.0, 0.0, 0.0, 0.0, 0.0, 0.0, 0.0, 0.0, 1.0, 0.0, 1.0], "bins": [-0.02535695768892765, -0.024753205478191376, -0.0241494532674551, -0.023545702919363976, -0.0229419507086277, -0.022338198497891426, -0.02173444628715515, -0.021130695939064026, -0.02052694372832775, -0.019923191517591476, -0.0193194393068552, -0.018715687096118927, -0.0181119367480278, -0.017508184537291527, -0.016904432326555252, -0.016300681978464127, -0.015696927905082703, -0.015093176625669003, -0.014489425346255302, -0.013885673135519028, -0.013281921856105328, -0.012678169645369053, -0.012074418365955353, -0.011470666155219078, -0.010866913944482803, -0.010263162665069103, -0.009659411385655403, -0.009055659174919128, -0.008451906964182854, -0.007848154753446579, -0.0072444044053554535, -0.006640652194619179, -0.006036899983882904, -0.005433147773146629, -0.004829395562410355, -0.004225645214319229, -0.0036218930035829544, -0.0030181407928466797, -0.002414388582110405, -0.0018106382340192795, -0.0012068860232830048, -0.00060313381254673, 6.183981895446777e-07, 0.0006043706089258194, 0.0012081209570169449, 0.0018118731677532196, 0.0024156253784894943, 0.003019377589225769, 0.0036231297999620438, 0.004226880148053169, 0.004830632358789444, 0.005434384569525719, 0.006038134917616844, 0.006641888990998268, 0.007245639339089394, 0.007849389687180519, 0.008453143760561943, 0.009056894108653069, 0.009660648182034492, 0.010264398530125618, 0.010868148878216743, 0.011471902951598167, 0.012075653299689293, 0.012679407373070717, 0.013283157721161842]}, "gradients/FeatureModel.dnn_layers.3.weight": {"_type": "histogram", "values": [1.0, 0.0, 0.0, 0.0, 0.0, 0.0, 0.0, 0.0, 0.0, 0.0, 1.0, 0.0, 0.0, 1.0, 0.0, 0.0, 0.0, 0.0, 1.0, 1.0, 0.0, 0.0, 0.0, 3.0, 2.0, 2.0, 3.0, 2.0, 2.0, 7.0, 7.0, 11.0, 8.0, 17.0, 20.0, 37.0, 46.0, 52.0, 117.0, 15844.0, 56.0, 37.0, 20.0, 24.0, 14.0, 9.0, 10.0, 8.0, 3.0, 3.0, 2.0, 3.0, 3.0, 0.0, 1.0, 1.0, 3.0, 0.0, 0.0, 0.0, 0.0, 0.0, 1.0, 1.0], "bins": [-0.1686479151248932, -0.16433943808078766, -0.16003097593784332, -0.1557224988937378, -0.15141403675079346, -0.14710555970668793, -0.1427970975637436, -0.13848862051963806, -0.13418015837669373, -0.1298716813325882, -0.12556320428848267, -0.12125474214553833, -0.1169462651014328, -0.11263780295848846, -0.10832932591438293, -0.104020856320858, -0.09971238672733307, -0.09540391713380814, -0.0910954475402832, -0.08678697794675827, -0.08247850835323334, -0.07817003130912781, -0.07386156171560287, -0.06955309212207794, -0.06524462252855301, -0.060936152935028076, -0.05662768334150314, -0.05231921374797821, -0.04801073670387268, -0.04370226711034775, -0.039393797516822815, -0.03508533537387848, -0.03077685832977295, -0.02646838128566742, -0.022159919142723083, -0.017851442098617554, -0.013542979955673218, -0.009234502911567688, -0.004926040768623352, -0.0006175637245178223, 0.0036908984184265137, 0.007999375462532043, 0.012307852506637573, 0.01661631464958191, 0.02092479169368744, 0.025233253836631775, 0.029541730880737305, 0.03385019302368164, 0.03815867006778717, 0.0424671471118927, 0.046775609254837036, 0.051084086298942566, 0.0553925484418869, 0.05970102548599243, 0.06400948762893677, 0.0683179646730423, 0.07262644171714783, 0.07693490386009216, 0.08124338090419769, 0.08555185794830322, 0.08986032009124756, 0.0941687822341919, 0.09847724437713623, 0.10278573632240295, 0.10709419846534729]}, "_step": 28, "gradients/ImageModel.blocks.0.conv.bias": {"_type": "histogram", "values": [1.0, 0.0, 0.0, 0.0, 0.0, 0.0, 0.0, 0.0, 0.0, 0.0, 0.0, 0.0, 0.0, 0.0, 0.0, 0.0, 0.0, 0.0, 0.0, 0.0, 0.0, 0.0, 0.0, 0.0, 0.0, 0.0, 0.0, 0.0, 0.0, 0.0, 0.0, 0.0, 0.0, 0.0, 0.0, 0.0, 0.0, 0.0, 0.0, 0.0, 0.0, 0.0, 0.0, 0.0, 0.0, 0.0, 0.0, 0.0, 0.0, 0.0, 124.0, 1.0, 0.0, 0.0, 0.0, 0.0, 0.0, 0.0, 1.0, 0.0, 0.0, 0.0, 0.0, 1.0], "bins": [-0.002457805909216404, -0.0024091475643217564, -0.002360488986596465, -0.002311830408871174, -0.0022631720639765263, -0.0022145137190818787, -0.0021658551413565874, -0.002117196563631296, -0.0020685382187366486, -0.002019879873842001, -0.0019712212961167097, -0.0019225628348067403, -0.0018739043734967709, -0.0018252459121868014, -0.001776587450876832, -0.0017279289895668626, -0.0016792705282568932, -0.0016306120669469237, -0.0015819536056369543, -0.0015332951443269849, -0.0014846366830170155, -0.001435978221707046, -0.0013873197603970766, -0.0013386612990871072, -0.0012900028377771378, -0.0012413443764671683, -0.001192685915157199, -0.0011440274538472295, -0.00109536899253726, -0.0010467105312272906, -0.0009980520699173212, -0.0009493936086073518, -0.0009007351472973824, -0.0008520766859874129, -0.0008034182246774435, -0.0007547597633674741, -0.0007061013020575047, -0.0006574428407475352, -0.0006087843794375658, -0.0005601259181275964, -0.000511467456817627, -0.00046280911192297935, -0.0004141505341976881, -0.00036549195647239685, -0.00031683361157774925, -0.00026817526668310165, -0.0002195166889578104, -0.00017085811123251915, -0.00012219976633787155, -7.354142144322395e-05, -2.48828437179327e-05, 2.377573400735855e-05, 7.243407890200615e-05, 0.00012109242379665375, 0.000169751001521945, 0.00021840957924723625, 0.00026706792414188385, 0.00031572626903653145, 0.0003643848467618227, 0.00041304342448711395, 0.00046170176938176155, 0.0005103601142764091, 0.0005590186920017004, 0.0006076772697269917, 0.0006563356146216393]}, "gradients/ImageModel.Z.weight": {"_type": "histogram", "values": [1.0, 0.0, 0.0, 0.0, 0.0, 0.0, 1.0, 0.0, 0.0, 0.0, 0.0, 0.0, 0.0, 0.0, 0.0, 0.0, 0.0, 1.0, 1.0, 0.0, 0.0, 0.0, 1.0, 0.0, 1.0, 0.0, 0.0, 0.0, 0.0, 0.0, 2.0, 0.0, 1.0, 1.0, 0.0, 1.0, 0.0, 0.0, 0.0, 1.0, 0.0, 0.0, 0.0, 1.0, 0.0, 0.0, 0.0, 0.0, 0.0, 0.0, 1.0, 0.0, 0.0, 0.0, 0.0, 0.0, 0.0, 0.0, 0.0, 0.0, 0.0, 1.0, 0.0, 1.0], "bins": [-0.026838891208171844, -0.025927072390913963, -0.025015251711010933, -0.024103432893753052, -0.02319161407649517, -0.02227979525923729, -0.02136797457933426, -0.020456155762076378, -0.019544336944818497, -0.018632516264915466, -0.017720697447657585, -0.016808878630399704, -0.015897057950496674, -0.014985239133238792, -0.014073419384658337, -0.013161600567400455, -0.01224978081882, -0.011337961070239544, -0.010426141321659088, -0.009514322504401207, -0.008602503687143326, -0.007690683007240295, -0.006778864189982414, -0.005867045372724533, -0.004955224692821503, -0.0040434058755636215, -0.0031315870583057404, -0.002219768241047859, -0.0013079475611448288, -0.00039612874388694763, 0.0005156900733709335, 0.001427510753273964, 0.002339329570531845, 0.0032511483877897263, 0.004162969067692757, 0.005074787884950638, 0.005986608564853668, 0.0068984255194664, 0.0078102461993694305, 0.008722066879272461, 0.009633883833885193, 0.010545704513788223, 0.011457525193691254, 0.012369342148303986, 0.013281162828207016, 0.014192983508110046, 0.015104800462722778, 0.01601662114262581, 0.01692844182252884, 0.01784025877714157, 0.0187520794570446, 0.019663896411657333, 0.020575717091560364, 0.021487537771463394, 0.022399354726076126, 0.023311175405979156, 0.024222996085882187, 0.02513481304049492, 0.02604663372039795, 0.02695845440030098, 0.02787027135491371, 0.028782092034816742, 0.029693912714719772, 0.030605729669332504, 0.031517550349235535]}}
